tree
version=v4
num_class=1
num_tree_per_iteration=1
label_index=0
max_feature_idx=24
objective=binary sigmoid:1
feature_names=ofi_1bar ofi_3bar cvd_1bar cvd_3bar cvd_slope_5bar obi_1bar microprice_drift aggressive_ratio vpin_12bar return_1 return_3 return_6 realized_vol_12 autocorr_6 hl_range_zscore rsi_14 bb_pctb_20 stoch_k_14 donchian_pos_20 regime_p_trending regime_p_ranging regime_p_highvol tod_sin tod_cos session_segment
feature_infos=[-9.4208269119262695:9.5494365692138672] [-9.3401193618774414:9.5441484451293945] [-9.7038536071777344:9.559117317199707] [-9.3793516159057617:9.1272821426391602] [-8.9798984527587891:9.0141925811767578] [-2.0195870399475098:2.1239166259765625] [-9.6889066696166992:9.7413415908813477] [-2.1239166259765625:2.0195870399475098] [-4.4652624130249023:4.1766400337219238] [-9.583251953125:9.7011356353759766] [-9.1482505798339844:9.2759380340576172] [-8.6886730194091797:8.8037452697753906] [-2.8717002868652344:9.596714973449707] [-3.0058064460754395:4.0057187080383301] [-2.7516212463378906:3.5854380130767822] [-4.1422171592712402:4.2426433563232422] [-5.3902840614318848:4.7933402061462402] [-4.2798314094543457:4.5833849906921387] [-4.9400811195373535:4.7536754608154297] [-8.8100624084472656:9.8997688293457031] [-9.8987846374511719:11.537759780883789] [-19.710739135742188:9.8999881744384766] [-0.99970799684524536:0.99970799684524536] [-0.45757550001144409:1] [0:0.5]
tree_sizes=3419 3282 3076 3534 3291 3412 3525 2629 2763 2868 3101

Tree=0
num_leaves=31
num_cat=0
split_feature=2 22 16 3 0 13 9 19 2 8 13 20 3 21 12 11 9 11 20 9 22 16 5 0 21 19 22 15 5 8
split_gain=36.8157 27.5421 32.68 29.4974 29.3137 26.812 23.0803 21.4818 20.0953 18.41 22.2343 22.0446 17.779 19.6189 20.157 17.4855 21.5292 16.8994 16.614 16.0341 15.8966 15.882 20.0562 14.4498 13.8224 19.21 16.8159 13.6429 12.0116 11.9603
threshold=-1.4616231918334959 0.49275180697441107 1.0405915975570681 3.557895421981812 -4.4150354862213126 0.68924266099929821 -0.7515241503715514 1.7397748827934267 -1.2674751281738279 -1.3198676109313963 -0.69148799777030934 0.94247192144393932 -1.7431179285049436 1.0308482646942141 -0.022081418894231316 -0.45000758767127985 1.8359490036964419 -1.7898579835891721 -0.94173866510391224 1.0888621807098391 0.7941652536392213 -2.3686103820800777 1.0970906615257265 -2.2028931379318233 -0.51828494668006886 -0.74079608917236317 1.0000000180025095e-35 -0.58545419573783863 1.0970906615257265 1.5625954866409304
decision_type=2 2 2 2 2 10 2 2 2 2 8 2 2 2 2 2 2 2 2 2 2 2 2 2 2 2 2 2 2 2
left_child=5 2 7 29 15 9 20 8 -2 10 28 -12 24 14 -14 17 -17 -3 -5 -8 -6 22 -11 -9 26 -26 -7 -23 -1 -4
right_child=1 4 3 18 6 12 19 23 -10 21 11 -13 13 -15 -16 16 -18 -19 -20 -21 -22 27 -24 -25 25 -27 -28 -29 -30 -31
leaf_value=0.063774004790043429 0.042195308360122738 0.015738949393656797 0.030808956093486474 0.020728855758133324 0.027622454527601682 0.026677552764920596 0.035029644710027438 0.074406586657495777 0.033580123585537372 0.0053491719156208532 0.028790040544653381 0.060620693335559563 0.028401165807153291 0.024593788937065784 0.044758756989636383 0.00030713669769569241 0.031526354977935642 0.047289767947197844 0.045204809812882288 0.038030906628371552 0.033613339041140104 0.035136666719080806 0.030327152440328378 0.03974250033190424 0.018575476916641052 0.030468039021916551 0.0085344545059141443 0.030446498764232988 0.039332393193485131 0.024591813843194688
leaf_weight=45.984505251049995 247.90568843483925 27.097173660993576 3668.4090047776699 28.925611838698387 556.10721646249294 89.048591941595078 14651.227723926306 11.123834371566771 14270.520406886935 44.40096041560173 118.73520754277706 23.449056506156921 127.50105012953281 192.86976838111877 144.798056229949 50.857626050710678 32.639171481132507 35.031974852085114 182.04229129850864 1798.7544476985931 1407.6289052963257 996.37044748663902 83.043601781129837 400.13671171665192 177.5197007805109 392.56530521810055 95.055553823709488 1269.1938392668962 29.837951436638832 301.3625216782093
leaf_count=99 648 62 15143 65 1646 186 64333 25 62773 83 286 52 336 490 373 93 60 74 433 5386 4907 2343 168 1949 371 901 176 3369 77 1237
internal_value=0.0337767 0.0340617 0.0332623 0.0309179 0.0348848 0.0309746 0.0349909 0.0339188 0.0337272 0.0326899 0.0410359 0.0340396 0.0273018 0.0319143 0.0370995 0.021478 0.0125108 0.0335291 0.0418489 0.0353578 0.0319168 0.0319295 0.021625 0.0406801 0.0244568 0.0267648 0.01731 0.0325092 0.0541556 0.030337
internal_weight=41500.1 37669.8 19110.4 4180.74 18559.3 3830.37 18413.7 14929.7 14518.4 2611.02 218.007 142.184 1219.36 465.169 272.299 145.626 83.4968 62.1291 210.968 16450 1963.74 2393.01 127.445 411.261 754.189 570.085 184.104 2265.56 75.8225 3969.77
internal_count=168144 158834 82273 16878 76561 9310 76272 65395 63421 6477 514 338 2833 1199 709 289 153 136 498 69719 6553 5963 251 1974 1634 1272 362 5712 176 16380
is_linear=0
shrinkage=1


Tree=1
num_leaves=29
num_cat=0
split_feature=2 22 23 0 18 13 9 3 19 9 8 19 3 21 1 21 3 21 1 23 18 13 15 22 21 21 22 3
split_gain=34.6365 25.9129 28.7729 27.8325 25.6367 25.2224 22.3768 21.2178 20.3016 17.4087 17.3228 21.8245 16.7231 18.456 22.5309 19.3963 16.0698 14.9259 27.3191 14.5877 13.3662 13.2592 13.0877 24.9446 13.0001 18.4722 15.8136 10.649
threshold=-1.4616231918334959 0.49275180697441107 -0.45038352906703943 -3.6772979497909541 1.1814441084861758 0.68924266099929821 -0.7515241503715514 3.557895421981812 2.3611614704132085 1.054702162742615 -1.3198676109313963 -0.90837341547012318 -1.7431179285049436 1.0308482646942141 0.23300275951623919 -0.6874692142009734 -1.4770588874816892 1.5312691330909731 1.4522624015808108 0.62616488337516796 1.46476286649704 -0.30953921377658838 1.2663432359695437 0.84042093157768261 -0.51828494668006886 1.0896359086036684 1.0000000180025095e-35 2.0939669609069829
decision_type=2 2 2 2 2 10 2 2 2 2 2 2 2 2 2 2 2 2 2 2 2 8 2 2 2 2 2 2
left_child=5 2 17 22 8 10 19 -6 -4 -8 11 -1 24 15 -15 -14 -13 18 -2 -5 27 -19 23 -3 26 -26 -7 -12
right_child=1 3 4 6 7 12 9 -9 -10 -11 20 16 13 14 -16 -17 -18 21 -20 -21 -22 -23 -24 -25 25 -27 -28 -29
leaf_value=0.030429927431048179 0.0050585333941595579 -0.019958544060309561 -0.001691664703867215 -0.0015496941147312255 -0.0052798590774125118 -0.0082515175139847539 -0.00013047529787768352 0.0065765325151361997 0.010431852605637565 0.0029798875196500405 -0.0030707402163951316 0.010835186637901865 -0.015321034009902338 0.018945453841883505 -0.013870060040358475 0.0055890299989185439 -0.0066137377430213057 0.0099415557130683001 0.037273372485616602 -0.0072948153062069483 0.018005665285538198 -0.015812953292363031 0.010251184717042398 -0.001110256199581758 -0.0030164564135731998 -0.013828291388714812 -0.02584375315404714 -0.015863270146904019
leaf_weight=27.945503771305084 471.4866511374712 144.31222654879093 15553.928589493036 1406.274615958333 2711.4267510175705 89.060309365391731 14491.458702549338 143.00766754150391 125.31432746350765 1823.2831993103027 2306.4781729727983 94.194609731435776 48.600319728255272 21.149290964007378 171.75101180374622 223.68480612337589 95.82968071103096 27.001978009939194 24.9452153891325 554.65436172485352 26.559537902474403 53.910054236650467 27.004073306918144 112.42405658960342 298.5462142676115 271.60887384414673 95.083247542381287 60.090620368719101
leaf_count=60 1728 262 67361 4904 11924 186 63860 344 560 5567 5749 208 113 49 441 596 246 102 90 1644 83 164 58 266 686 586 176 131
internal_value=-0.00136637 -0.00109 -0.00186539 -0.000291564 -0.00207084 -0.00408423 -0.000146807 -0.00468585 -0.00159477 0.000217129 -0.00242059 0.00567603 -0.00764632 -0.0031728 -0.0102722 0.00185678 0.00203565 0.00472992 0.0066773 -0.00317472 -0.00315804 -0.00721815 -0.00961533 -0.0117049 -0.0104052 -0.00816697 -0.0173353 -0.00339556
internal_weight=41501 37670.4 19111 18559.4 18533.7 3830.58 18275.7 2854.43 15679.2 16314.7 2611.1 217.97 1219.48 465.185 192.9 272.285 190.024 577.344 496.432 1960.93 2393.13 80.912 283.74 256.736 754.299 570.155 184.144 2366.57
internal_count=168144 158834 82273 76561 80189 9310 75975 12268 67921 69427 6477 514 2833 1199 490 709 454 2084 1818 6548 5963 266 586 528 1634 1272 362 5880
is_linear=0
shrinkage=0.03


Tree=2
num_leaves=27
num_cat=0
split_feature=10 19 14 0 23 22 16 3 8 15 10 22 0 8 19 14 4 0 16 12 10 20 8 1 6 16
split_gain=33.935 26.6742 25.5123 29.1289 23.9227 24.6907 32.0554 31.0974 23.2849 29.4933 22.9338 33.3714 26.2084 19.4081 18.7866 17.8995 17.2769 17.7497 16.3225 15.2461 14.3981 13.353 13.1732 12.6801 10.2337 7.95703
threshold=-1.1221267580986021 1.7397748827934267 1.2927582263946535 -0.73795759677886952 -0.45038352906703943 0.38453072309494024 1.011809289455414 3.557895421981812 -0.45145796239376063 -1.0555347204208372 2.2905426025390629 0.94825947284698497 -4.4150354862213126 0.50279256701469432 1.6900472640991213 2.7159427404403691 0.075562123209238066 -0.26839806139469141 -0.89230749011039723 3.0328164100646977 -1.2850357890129087 -0.21604350954294202 -0.7335396111011504 1.4522624015808108 -1.0317574739456175 -0.92067626118659962
decision_type=2 2 2 2 2 2 2 2 2 2 2 2 2 2 2 2 10 2 2 2 2 2 2 2 2 2
left_child=1 2 8 24 16 6 14 -8 9 -1 12 -12 -7 20 -6 -5 17 25 -18 -10 22 -19 -3 -20 -4 -2
right_child=4 13 3 15 5 10 7 -9 19 -11 11 -13 -14 -15 -16 -17 18 21 23 -21 -22 -23 -24 -25 -26 -27
leaf_value=0.0053763279809455888 0.036512972123433129 0.014209714878294449 -0.028036219220484482 -0.0048413574801251264 -0.0014102566201615286 -0.015856349517106485 -0.0048546735534201061 0.007056578253561872 -0.0053429874715604933 -0.0040505726019640659 0.015417132840562207 -0.0077537102624503995 -0.00044073107471099383 0.032624587100295602 0.0054917318412492774 -0.016352651493701721 -0.023671606232360535 -0.00015445790289441073 0.00022815406211713451 0.0038866401646957946 0.028245920426835214 0.021390274947293196 -0.01555824785768652 0.024372943510461102 -0.0090852759863706226 0.016036737913863813
leaf_weight=596.48696041107178 21.288459345698357 22.016766175627708 79.707396388053894 995.01503294706345 11955.623582720757 99.765740633010864 3931.0163116455078 207.68782043457031 1947.6972450464964 598.29750914871693 184.06654959917068 80.366197824478149 19460.376585662365 28.269424915313721 365.78802251815796 138.49361276626587 23.933531910181046 125.44588322937489 236.28274393081665 175.59880436956882 16.174220904707909 32.623364269733429 34.103951245546341 21.344079181551933 37.811088010668755 86.404531821608543
leaf_count=1793 66 63 135 2427 52467 188 15991 488 5795 1715 482 240 81245 97 1752 285 71 484 836 719 56 137 113 81 82 336
internal_value=-0.00132535 -0.0037346 -0.00407098 -0.0077218 -0.0010199 -0.0011138 -0.00197264 -0.00425694 -0.0026945 0.000655735 -0.000400718 0.00837507 -0.000519358 0.0115487 -0.00120536 -0.00624782 0.0052053 0.0106915 2.69277e-05 -0.00457969 0.00330742 0.00429208 -0.00387995 0.00222852 -0.0219388 0.0200844
internal_weight=41501.7 4669.67 4569.11 1251.03 36832 36284.7 16460.1 4138.7 3318.08 1194.78 19824.6 264.433 19560.1 100.564 12321.4 1133.51 547.323 265.762 281.56 2123.3 72.2949 158.069 56.1207 257.627 117.518 107.693
internal_count=168144 13280 12951 2929 154864 152853 70698 16479 10022 3508 82155 722 81433 329 54219 2712 2011 1023 988 6514 232 621 176 917 217 402
is_linear=0
shrinkage=0.03


Tree=3
num_leaves=31
num_cat=0
split_feature=10 3 13 7 16 4 19 15 19 21 15 11 19 19 11 21 20 20 20 2 13 10 20 19 15 17 13 4 18 4
split_gain=31.9272 25.7194 27.0683 20.3848 19.327 41.3155 18.6851 19.1985 21.2034 17.681 17.6016 17.748 17.256 21.1139 17.1352 16.7585 17.463 28.2323 25.0916 16.417 18.6959 15.7878 15.5201 15.2304 15.1168 15.0771 14.8944 14.7708 14.6897 12.2019
threshold=-1.1221267580986021 -2.5859609842300411 0.17762362957000735 -0.12719026952981946 1.0405915975570681 1.1608619093894961 1.7397748827934267 -1.2306134104728697 1.603890657424927 -0.38969449698925013 0.81480222940444957 1.183982849121094 -0.69199746847152699 -0.91584429144859303 -1.3126447796821592 1.3449838757514956 0.84296321868896495 -1.0000000180025095e-35 1.0374518632888796 2.7297390699386601 0.59331756830215465 -1.2408990263938902 -0.87634021043777455 -0.67697736620903004 -1.4331562519073484 0.7842235565185548 2.0126830339431767 1.7734524607658388 1.1374388337135317 -1.2987144589424131
decision_type=2 2 8 2 2 10 2 2 2 2 2 2 2 2 2 2 2 2 2 2 8 2 2 2 2 2 8 10 2 10
left_child=1 2 12 24 15 22 7 26 -9 21 27 -12 13 -1 -14 16 17 -2 -18 28 -21 -8 25 -5 -4 -6 -3 -7 -17 -24
right_child=4 6 3 23 5 10 9 8 -10 -11 11 -13 14 -15 -16 19 18 -19 -20 20 -22 -23 29 -25 -26 -27 -28 -29 -30 -31
leaf_value=0.005642365055096763 -0.00036837419816365756 0.00075943342697507683 -0.0068382105391724644 -0.01596913984887998 -0.01483468906038796 0.0029915392282399938 -0.0063316453166900643 -0.0043046010599754507 -0.036121075056424798 0.032822170471848981 -0.0015360933972955477 0.0052865399468276673 -0.0015977035672556309 -0.021692092808169493 0.015838886186680719 -0.0027145805558154087 -0.0050548503088571287 0.0030397380447293775 -0.00074902837828644156 -0.0052502397478790281 -0.031597265383210796 0.030620772989576172 -0.013753817513669147 0.012743651693588329 -0.016383647601590886 0.003203381952116119 -0.010868045675106698 -0.0065488545316246425 0.0074815544171600362 -0.0041343736399326522
leaf_weight=41.764312624931335 16290.586645245552 1346.0197429060936 238.19315569102764 24.434234693646431 46.373931229114532 229.22066688537598 43.353041529655457 2046.85828769207 19.02669021487236 24.934589862823486 530.1113333106041 972.98956161737442 176.03087437152863 65.037015914916992 71.256105780601501 3020.2611834555864 1525.7068274766207 2526.8865684270859 6039.9737167358398 71.628619864583015 36.638159081339836 13.692408651113508 121.91392609477043 52.033538684248924 400.18019033968449 414.16806143522263 107.03481006622314 402.5507984161377 132.76024942100048 4470.6691229045391
leaf_count=79 73600 4282 455 66 147 663 160 6099 43 77 1436 2738 379 135 169 9777 5990 10581 26546 172 85 52 347 110 836 1733 338 1021 534 19494
internal_value=-0.00128557 -0.00362241 -0.00770873 -0.0110686 -0.000989291 -0.00238488 -0.00240939 -0.00273924 -0.00459763 0.011749 0.00111432 0.00288034 -0.000925665 -0.011003 0.00342668 -0.000650898 -0.000400115 8.92809e-05 -0.00161735 -0.00267968 -0.0141662 0.00253791 -0.00386323 0.00356887 -0.012822 0.00138705 -9.70692e-05 -0.00308739 -0.00228526 -0.00438973
internal_weight=41502.3 4669.85 1068.93 714.841 36832.4 7188 3600.92 3518.94 2065.88 81.98 2134.87 1503.1 354.088 106.801 247.287 29644.4 26383.2 18817.5 7565.68 3261.29 108.267 57.0455 5053.13 76.4678 638.373 460.542 1453.05 631.771 3153.02 4592.58
internal_count=168144 13280 2229 1467 154864 27579 11051 10762 6142 289 5858 4174 762 214 548 127285 116717 84181 32536 10568 257 212 21721 176 1291 1880 4620 1684 10311 19841
is_linear=0
shrinkage=0.03


Tree=4
num_leaves=29
num_cat=0
split_feature=10 3 13 23 22 18 4 10 22 0 7 20 15 12 8 3 4 18 0 1 15 9 8 1 6 22 10 1
split_gain=30.0394 24.1991 25.4665 22.4705 23.0203 27.2605 27.91 21.2677 31.3601 24.4177 19.1778 17.8 18.039 18.5978 18.4661 17.515 16.2836 19.2091 16.743 15.9691 14.2219 13.3432 12.698 14.0862 10.64 9.10267 8.35793 5.77028
threshold=-1.1221267580986021 -2.5859609842300411 0.17762362957000735 -0.45038352906703943 0.38453072309494024 1.1263160705566408 2.8381963968276982 2.2905426025390629 0.94825947284698497 -4.4150354862213126 -0.12719026952981946 -1.714456260204315 -1.1232998371124265 0.79698759317398082 -0.87891077995300282 3.557895421981812 0.075562123209238066 -1.3131648302078245 -0.26839806139469141 1.4522624015808108 -1.4331562519073484 -0.43559993803501124 -1.3198676109313963 -0.62148493528366078 -0.18124283105134961 0.56112554669380199 -1.7552199363708494 -0.99198380112647999
decision_type=2 2 8 2 2 2 10 2 2 2 2 2 2 2 2 2 10 2 2 2 2 2 2 2 2 2 2 2
left_child=1 2 22 16 5 6 -5 9 -9 -6 20 25 14 -14 -13 -7 18 -18 27 -19 -4 -20 -1 -24 -12 -3 -27 -2
right_child=3 11 10 4 7 15 -8 8 -10 -11 24 12 13 -15 -16 -17 17 19 21 -21 -22 -23 23 -25 -26 26 -28 -29
leaf_value=0.018369970136891779 0.028329583988751725 0.027133217239098104 -0.0066328257606681059 -0.0015035677081888107 -0.015280408914092509 -0.0050355324771810227 0.0082755016374867763 0.014919094871260564 -0.0075431018879029196 -0.00040040132137111249 -0.0070985557224887185 0.0056536950552703302 -0.0069513109853281841 -0.00082029355635551313 -0.0020327214308961399 0.0053756014911211054 -0.031802134491840203 -0.00020741074817825256 0.013663477922198738 0.026781380996541329 -0.015891205514530563 -0.0038308228465185074 0.017194838282088717 -0.0045417182710032799 0.015321378723514757 0.019763815262788652 -0.0053182999037640162 0.01404608596720495
leaf_weight=28.32083086669445 41.302177578210831 24.576687678694725 238.20155990123749 13244.856285005808 99.761273980140686 2794.4729309082031 267.98260879516602 183.99383901059628 80.375497594475746 19460.783998608589 40.444008246064186 361.23149347305298 1178.566695228219 715.68605481088161 1271.2624834775925 153.41461181640625 16.070483133196831 244.01485550403595 72.431264743208885 21.467171773314476 400.20317506790161 85.623059079051018 29.504350364208221 296.253732457757 36.015931352972984 20.056005477905273 29.60820497572422 66.341671019792557
leaf_count=58 130 85 455 57675 188 12017 643 482 240 81245 92 1116 3443 2193 4070 363 44 862 253 82 836 368 62 642 84 54 90 272
internal_value=-0.00124698 -0.00351367 -0.00747735 -0.000959598 -0.0010506 -0.00187986 -0.00130963 -0.000362058 0.00808997 -0.000476291 -0.0107362 -0.00233706 -0.00264308 -0.00463489 -0.000331903 -0.00449371 0.0050741 4.7002e-05 0.0104012 0.00197493 -0.0124367 0.00418626 -0.000897895 -0.00257301 0.0034622 0.0122003 0.00481066 0.0195266
internal_weight=41502.8 4669.93 1068.94 36832.9 36285.6 16460.7 13512.8 19824.9 264.369 19560.5 714.865 3600.99 3526.75 1894.25 1632.49 2947.89 547.251 281.553 265.698 265.482 638.405 158.054 354.079 325.758 76.4599 74.2409 49.6642 107.644
internal_count=168144 13280 2229 154864 152853 70698 58318 82155 722 81433 1467 11051 10822 5636 5186 12380 2011 988 1023 944 1291 621 762 704 176 229 144 402
is_linear=0
shrinkage=0.03


Tree=5
num_leaves=30
num_cat=0
split_feature=2 22 16 4 19 14 13 4 3 23 4 4 1 16 10 14 8 4 12 10 9 18 12 0 13 16 16 12 8
split_gain=29.5067 22.1722 26.8551 26.0264 22.3201 22.2461 21.3815 21.2579 24.4208 19.6023 17.5103 17.4477 17.2192 16.7373 23.2275 28.9541 16.7631 22.8631 16.6371 15.5978 14.9779 35.5612 28.5266 14.3959 12.7782 11.0737 29.7896 9.9802 9.57399
threshold=-1.4616231918334959 0.34688141942024237 1.0405915975570681 2.260555744171143 1.7397748827934267 1.7141145467758181 0.68924266099929821 -0.87474495172500599 -0.58112353086471547 -0.45038352906703943 -1.1825907826423643 4.3462312221527108 -3.1159886121749873 -2.3686103820800777 -2.9893898963928218 1.5554767847061159 -1.3198676109313963 -0.62242409586906422 -0.63019201159477223 2.2905426025390629 -1.8543165326118467 -0.78291457891464222 0.32692471146583563 -2.2028931379318233 -2.0593644380569454 -2.8008739948272701 -2.534957647323608 0.34334456920623785 1.5625954866409304
decision_type=2 2 2 10 2 2 10 10 2 2 10 10 2 2 2 2 2 10 2 2 2 2 2 2 8 2 2 2 2
left_child=6 2 4 28 9 11 13 27 -9 -2 25 12 -3 14 -1 -16 17 -15 -5 -13 22 -22 -12 -6 -18 -8 -27 -7 -4
right_child=1 5 3 18 23 7 10 8 -10 -11 20 19 -14 16 15 -17 24 -19 -20 -21 21 -23 -24 -25 -26 26 -28 -29 -30
leaf_value=-0.036197561273339271 0.0045906593189484488 -0.0070098298981449859 -0.004424915148080218 0.028540773925082037 0.042964429857985625 -0.011752409362916733 -0.026600524712218323 0.015361339585165125 -0.0042382722623734723 -0.0015471266511179213 0.032769306783216059 0.003871338458007825 2.8950019596980469e-06 0.01498148643176676 0.016568560343553133 -0.016044824885305387 -0.022072861880750295 -0.0056638393580217133 0.0015070202433534641 0.028574096045473774 -0.020771080104958838 0.00058898448738713117 -0.0015134997403004116 0.0053999741954459226 -0.0020843903387460583 0.015648326446294627 -0.010516088654547362 -0.033518173337825523 -0.010483343673541787
leaf_weight=28.84013032913208 486.56578254699707 320.44744682312012 3100.9508554339409 21.517198622226715 9.4413958489894849 62.955208480358124 33.734421014785767 60.613821625709534 1020.2706303596497 12475.526581287384 28.806365787982941 67.34565544128418 18968.161963418126 120.3366933465004 35.242694601416588 80.371780171990395 29.159272789955139 80.618747711181641 428.52018922567368 34.939626693725586 98.632396593689919 242.8974624723196 90.3844935297966 333.89964881539345 2236.7179487347603 41.54415488243103 683.53991508483887 27.130539119243622 253.98281842470169
leaf_count=51 1782 813 13179 56 20 139 63 185 3520 55411 67 157 79694 277 77 151 64 209 1040 84 250 664 194 1613 5648 74 1521 59 1082
internal_value=-0.00120956 -0.000954484 -0.00175233 -0.00397483 -0.00111675 -0.000290567 -0.00371802 -0.0043061 -0.00313917 -0.00131673 -0.00699764 -4.80784e-05 -0.000113609 -0.00218635 -0.0121116 -0.00610331 -0.00160514 0.00669905 0.00279956 0.0123096 -0.00238424 -0.00557971 0.00677206 0.00643294 -0.00234162 -0.00979868 -0.00901698 -0.0183075 -0.00488356
internal_weight=41503.1 37672.3 17110.4 3804.97 13305.4 20561.9 3830.83 1170.97 1080.88 12962.1 1219.54 19390.9 19288.6 2611.29 144.455 115.614 2466.83 200.955 450.037 102.285 460.721 341.53 119.191 343.341 2265.88 758.818 725.084 90.0857 3354.93
internal_count=168144 158834 74183 15357 58826 84651 9310 3903 3705 57193 2833 80748 80507 6477 279 228 6198 486 1096 241 1175 914 261 1633 5712 1658 1595 198 14261
is_linear=0
shrinkage=0.03


Tree=6
num_leaves=31
num_cat=0
split_feature=2 13 4 15 15 20 19 2 0 11 4 20 15 15 16 16 4 23 8 20 17 13 19 2 19 6 15 20 20 19
split_gain=27.7636 20.1199 19.0522 34.5799 34.4076 22.5306 18.6151 23.185 22.0935 16.7402 16.4771 21.5096 25.3325 19.8675 15.9022 15.7506 16.3755 16.3268 15.7743 22.2142 15.0858 14.6209 19.8289 14.2751 14.0009 13.4049 13.172 11.0344 10.7159 29.0339
threshold=-1.4616231918334959 0.68924266099929821 2.1212114095687871 1.039731562137604 0.81480222940444957 0.60492932796478283 -0.90837341547012318 -0.16686425358057019 -4.4150354862213126 1.152177691459656 -1.1825907826423643 -0.57357054948806752 -1.1053563356399534 -0.36065573990344996 1.3661264777183535 -2.3686103820800777 -1.4310375452041624 0.92307704687118541 -1.3198676109313963 1.130408048629761 1.586062014102936 1.4669942259788515 -0.42534317076206202 -0.33913916349411005 0.93795743584632885 -3.0695016384124751 -0.58545419573783863 1.3199313282966616 0.87816971540451061 -0.50261604785919178
decision_type=2 10 10 2 2 2 2 2 2 2 10 2 2 2 2 2 10 2 2 2 2 8 2 2 2 2 2 2 2 2
left_child=1 15 3 6 9 23 7 -2 -8 14 28 12 -12 -13 -4 16 17 -1 19 -17 -7 27 -23 -5 -11 -18 -20 -6 -3 -30
right_child=2 10 4 5 21 20 8 -9 -10 24 11 13 -14 -15 -16 18 25 -19 26 -21 -22 22 -24 -25 -26 -27 -28 -29 29 -31
leaf_value=-0.031067057485430018 0.0010619551817862593 -0.0075508450373172548 0.001982966553913309 0.002300872425576183 0.0074967856780412756 -0.0051521126146034752 -0.010270728192025333 -0.0047878898750455231 -0.0003408215920091528 -0.011046292792623886 0.012184867320356837 -0.0064924234757645404 -0.014387710831138266 0.010702069033268129 -0.01176609417425703 0.0026901882839023023 -0.014133467859957506 -0.0064047379013465093 0.00031026936858897044 0.032622224568868562 -0.014033359854532931 -0.0087066652481585672 0.016753644481983066 -0.0027347143344724576 0.014626735266859181 0.017686453916462987 -0.0042978792556967182 0.023544459841408821 -0.010463273506451775 -0.042883342560576604
leaf_weight=48.781517624855042 885.29007339477539 583.44054202735424 686.72412621974945 581.7171049118042 635.18817234039307 1322.8187160491943 203.18908643722534 1959.2210249900818 26772.032493516803 211.0998707562685 39.804743483662605 102.62178380787373 171.00671498477459 147.2742495983839 85.091025471687317 175.34452018141747 22.638370513916016 47.862459540367126 996.51058730483055 25.569259375333786 197.88206577301025 105.85895349085331 37.206634506583214 3927.1174788475037 21.021893903613091 25.155823707580566 1269.4241562783718 41.055136680603027 145.34495837986469 29.991019368171692
leaf_count=96 3530 1327 1823 2321 1722 5740 428 8424 113964 578 89 249 444 393 199 431 42 80 2343 55 841 252 94 18778 46 61 3369 94 283 48
internal_value=-0.00117327 -0.00360652 -0.000925842 -0.00107799 0.00206573 -0.00315005 -0.000659019 -0.00296726 -0.000415618 -0.0016573 -0.00678801 -0.00231276 -0.00937036 0.00364101 0.000467161 -0.00212075 -0.0117496 -0.0188532 -0.00155697 0.00649948 -0.00630779 0.00662773 -0.00208528 -0.00208504 -0.00872124 0.00261451 -0.00227131 0.00847105 -0.00950526 -0.0160087
internal_weight=41503.3 3830.77 37672.5 35849.3 1823.25 6029.54 29819.7 2844.51 26975.2 1003.94 1219.48 460.707 210.811 249.896 771.815 2611.29 144.438 96.644 2466.85 200.914 1520.7 819.309 143.066 4508.83 232.122 47.7942 2265.93 676.243 758.777 175.336
internal_count=168144 9310 158834 154026 4808 27680 126346 11954 114392 2646 2833 1175 533 642 2022 6477 279 176 6198 486 6581 2162 346 21099 624 103 5712 1816 1658 331
is_linear=0
shrinkage=0.03


Tree=7
num_leaves=23
num_cat=0
split_feature=10 19 14 8 17 23 10 19 15 5 6 8 19 2 2 4 13 15 19 0 16 8
split_gain=26.5995 23.3546 23.2884 24.6435 20.8181 20.2175 18.2238 17.4227 18.0595 17.243 16.3586 16.8123 16.2374 15.5308 15.2783 13.6325 17.7311 13.338 12.8374 11.6342 6.81599 6.80442
threshold=-1.1221267580986021 1.8643405437469485 2.7159427404403691 -1.0457564592361448 -2.0552879571914668 -0.45038352906703943 -1.0897732973098753 -1.2941181063652036 1.039731562137604 0.89370986819267284 0.031420558691024787 -1.3859236836433408 -1.1292044520378111 4.271939992904664 -0.52083978056907643 0.075562123209238066 1.1558606624603274 -0.97704136371612538 -0.54217240214347828 1.8211022019386294 -1.0433353185653684 -0.2048060521483421
decision_type=2 2 2 2 2 2 2 2 2 2 2 2 2 2 2 10 8 2 2 2 2 2
left_child=1 2 3 4 -1 12 10 17 -9 -4 11 -7 -2 -5 20 16 -14 -8 -11 -17 -3 -16
right_child=5 14 9 13 -6 6 7 8 -10 18 -12 -13 15 -15 21 19 -18 -19 -20 -21 -22 -23
leaf_value=-0.019804776675208854 -0.023026998101713041 0.037343443110932108 0.001128026014697209 -0.0040273717940116976 0.0029907613197631016 -0.021154577439892627 0.0014978340635598065 -0.00059293263442385222 -0.0023127870294447207 -0.012762732135645985 0.027559479785137043 0.0078639195376934111 0.013959665192182891 -0.031930985377360527 -0.015031994068691054 -0.00033621737827782897 -0.0084295655915810931 -0.0090842293927733044 -0.034181388407195611 0.027977587414884934 0.012527018541556063 0.010668976167951783
leaf_weight=38.001005172729492 18.171833038330078 21.642678931355476 40.473910510540009 3688.2566389292479 704.62702651321888 20.486293941736221 145.60909128189087 28741.511106684804 6793.8521730899811 58.447335243225098 32.515897959470749 146.22164452075958 221.35718911886215 18.039860010147095 16.627071097493172 256.62937548756599 37.181996673345566 406.38220012187958 44.253041684627533 13.761587798595427 18.453998222947121 20.956288054585457
leaf_count=118 62 53 88 10611 1966 56 631 120341 29550 113 99 498 847 37 62 908 148 1678 91 46 50 91
internal_value=-0.00113807 -0.00327106 -0.003547 -0.00316374 0.00182429 -0.000867644 -0.000953947 -0.0010039 -0.000921744 -0.0154561 0.0080945 0.00429791 0.00485638 -0.00416319 0.0130411 0.00581433 0.0107397 -0.0062928 -0.0219919 0.00110482 0.025922 -0.000701265
internal_weight=41503.5 4669.78 4592.1 4448.92 742.628 36833.7 36286.6 36087.4 35535.4 143.174 199.224 166.708 547.102 3706.3 77.68 528.93 258.539 551.991 102.7 270.391 40.0967 37.5834
internal_count=168144 13280 13024 12732 2084 154864 152853 152200 149891 292 653 554 2011 10648 256 1949 995 2309 204 954 103 153
is_linear=0
shrinkage=0.03


Tree=8
num_leaves=24
num_cat=0
split_feature=2 22 0 23 2 12 19 9 14 19 21 1 19 21 20 19 12 4 12 6 1 15 24
split_gain=25.5718 20.7347 23.0433 21.7136 21.8949 31.379 22.2565 20.4492 18.4042 14.7285 13.7939 24.8442 13.4189 12.7968 28.3934 31.0394 24.6191 28.1626 21.1263 20.9519 12.4188 11.6149 22.9218
threshold=-1.4616231918334959 0.49275180697441107 -3.6772979497909541 -0.45038352906703943 -1.2674751281738279 -0.3342334777116775 2.3611614704132085 1.054702162742615 1.7141145467758181 2.228523969650269 1.5312691330909731 1.4522624015808108 -1.0613461732864378 -0.49294614791870112 -0.37079483270645136 -0.65835171937942494 -0.63536712527275074 -1.0816618800163267 -0.74211174249649037 -4.4348969459533683 0.10518761724233629 1.2663432359695437 1.0000000180025095e-35
decision_type=2 2 2 2 2 2 2 2 2 2 2 2 2 2 2 2 2 10 2 2 2 2 2
left_child=9 3 21 10 5 -5 -6 8 -4 13 11 -2 -9 16 15 -15 18 -18 -1 -16 -12 22 -3
right_child=1 2 7 4 6 -7 -8 12 -10 -11 20 -13 -14 14 19 -17 17 -19 -20 -21 -22 -23 -24
leaf_value=-0.005965973577739276 0.0045016447290116331 -0.018518011773178304 -0.00014088917739908273 0.027155619992545843 -0.001955431248395716 0.0015091370973650514 0.0096794104753668737 -0.010861271902476414 -0.0050652434218480371 0.016355778888105531 0.0035749676428765784 0.035262375163561004 0.0034720508442336374 -0.0096817832679696771 -0.02670459202543753 -0.0018983406726557756 -0.013383886520129536 -0.0019684546816786234 0.022960029585886322 0.0026069304404629959 -0.020003887963355584 0.010082669829214208 -0.00044974991849146501
leaf_weight=47.050729900598526 471.21693316102028 144.28468908369541 15739.341030970216 54.55765300989151 18130.539935708046 201.57157891988754 149.18946973979473 60.813512325286865 714.05129861831665 33.532943487167358 43.52251210808754 24.878185719251633 1762.417601108551 706.2654695212841 22.52569580078125 1328.4702257364988 451.84835207462311 341.51600404083729 43.951674163341522 855.41950219869614 37.3617944419384 26.993892297148705 112.43330216407776
leaf_count=119 1728 262 67726 160 78827 522 680 186 2682 88 146 90 5381 1741 35 3371 923 816 106 2111 120 58 266
internal_value=-0.00110391 -0.000866463 -0.000152256 -0.00156002 -0.00173843 0.00697205 -0.00186047 -2.05539e-05 -0.000354598 -0.00343921 0.00417125 0.00604423 0.00299397 -0.00361403 -0.00265437 -0.00460001 -0.0067747 -0.00846994 0.0080045 0.00185488 -0.00731649 -0.00863644 -0.0106048
internal_weight=41503.8 37673.2 18560.3 19112.8 18535.9 256.129 18279.7 18276.6 16453.4 3830.58 576.979 496.095 1823.23 3797.05 2912.68 2034.74 884.367 793.364 91.0024 877.945 80.8843 283.712 256.718
internal_count=168144 158834 76561 82273 80189 682 79507 75975 70408 9310 2084 1818 5567 9222 7258 5112 1964 1739 225 2146 266 586 528
is_linear=0
shrinkage=0.03


Tree=9
num_leaves=25
num_cat=0
split_feature=10 19 14 8 15 8 23 22 15 12 21 4 20 17 21 10 12 9 19 4 0 16 15 8
split_gain=24.146 21.7841 22.2269 19.1532 39.5761 18.1097 18.0639 19.3478 32.0128 21.0597 17.1307 30.136 28.817 16.2961 16.26 17.7089 15.7827 15.4926 15.1316 12.9277 14.4169 11.1263 8.98239 7.60428
threshold=-1.1221267580986021 1.7397748827934267 -1.1264420151710508 -0.90794676542282093 -0.17487443983554837 0.50279256701469432 -0.45038352906703943 -0.21560919284820554 1.3463532328605654 2.8181718587875371 -0.6563236117362975 3.5946965217590336 0.77970319986343395 -1.1159569621086118 -0.34227904677391047 -1.3879930377006529 -0.38388229906558985 1.6193911433219912 -1.1292044520378111 0.075562123209238066 -0.26839806139469141 -0.89230749011039723 -1.8570877313613889 -0.85367029905319203
decision_type=2 2 2 2 2 2 2 2 2 2 2 10 2 2 2 2 2 2 2 10 2 2 2 2
left_child=1 2 13 4 -4 14 18 8 16 -10 11 -9 -12 22 15 -3 -8 -5 -2 20 -20 -21 -1 -15
right_child=6 5 3 17 -6 -7 7 10 9 -11 12 -13 -14 23 -16 -17 -18 -19 19 21 -22 -23 -24 -25
leaf_value=0.012388891629560774 -0.022316365913579373 -0.017223146252633308 0.0026203736828186957 -0.0051759705732484654 -0.015307767126308006 0.031099246399858546 -0.002397441164690664 0.00068595820165811324 -0.0083729132589571275 0.032486306180942788 -0.00045766750894989295 0.024241830586431225 -0.0036743244673666338 0.034232229763287693 0.02826711633115183 0.018855720767756247 0.00043503321724677957 0.013904875264438543 0.018920218991269371 -0.01967604410420179 0.0044818670492386631 0.0027342852394938374 -0.0028849055704878394 0.011559616060342781
leaf_weight=44.36841593682766 18.174708127975464 36.702147513628006 756.01978069543839 3368.6526937931776 129.84973861277103 28.213328525424004 5815.8138337135315 6327.7233244776726 796.0016020834446 11.517349332571028 17824.787680059671 49.260347366333008 2916.741294413805 17.478410392999649 17.146435141563416 18.373764201998711 2545.3511762619019 38.737921684980392 104.5133258253336 21.676858946681023 153.88669326901436 248.64955976605415 158.25310064852238 55.874077916145325
leaf_count=207 62 110 1974 9343 369 97 31179 29598 3934 44 66016 107 9651 64 55 67 12324 96 391 65 604 889 683 215
internal_value=-0.0010708 -0.00310307 -0.00340686 -0.00393735 -7.51264e-06 0.0107175 -0.000813152 -0.000894713 -0.00208606 -0.00779015 -0.000491921 0.00086792 -0.000910004 0.00484588 0.00275544 -0.00518695 -0.00153516 -0.00495904 0.00459843 0.00552361 0.0103217 0.000937252 0.000459627 0.016962
internal_weight=41503.8 4669.67 4569.23 4293.26 885.87 100.436 36834.1 36287.2 9168.68 807.519 27118.5 6376.98 20741.5 275.974 72.2223 55.0759 8361.17 3407.39 546.901 528.726 258.4 270.326 202.622 73.3525
internal_count=168144 13280 12951 11782 2343 329 154864 152853 47481 3978 105372 29705 75667 1169 232 177 43503 9439 2011 1949 995 954 890 279
is_linear=0
shrinkage=0.03


Tree=10
num_leaves=27
num_cat=0
split_feature=10 14 13 12 4 15 15 21 17 18 22 21 10 13 21 4 9 12 1 7 21 3 20 7 13 15
split_gain=22.7199 20.7676 18.8576 19.0967 16.3624 31.5387 25.6682 22.7444 22.7164 23.3424 21.1213 20.085 19.0212 18.6194 16.8617 17.1202 14.8186 14.5818 14.4482 14.3047 14.2908 13.1783 12.8052 12.4525 12.3604 10.2742
threshold=-1.1221267580986021 2.7159427404403691 -0.22458234429359433 2.4149299860000615 2.1212114095687871 1.039731562137604 0.80121040344238292 1.2082579731941225 -0.20034690201282498 -0.55079886317253102 0.98133826255798351 -0.64926207065582264 -0.22729136794805524 -1.2444202899932859 1.4267010688781741 -0.91096931695938099 1.6193911433219912 1.7956600189208987 -0.99198380112647999 -0.88725098967552174 -0.69190976023674 -2.5859609842300411 -1.714456260204315 -1.1079336404800413 1.218043386936188 -1.8570877313613889
decision_type=2 2 8 2 10 2 2 2 2 2 2 2 2 8 2 10 2 2 2 2 2 2 2 2 8 2
left_child=1 2 16 21 5 14 8 13 9 -6 -9 20 -10 -7 17 -16 22 -2 -5 23 -8 -4 -1 25 -13 -3
right_child=4 19 3 18 6 7 11 10 12 -11 -12 24 -14 -15 15 -17 -18 -19 -20 -21 -22 -23 -24 -25 -26 -27
leaf_value=0.018599627962052244 -0.00044839839127212866 0.0033137163998655122 -0.0083424284006028519 0.016509791655745065 0.00014173538624687488 -0.0087653742559018477 0.011140955685923347 -0.00013863860068357095 0.019919477814047751 0.02086542257682299 0.013821749439687694 0.0057775353753415056 -0.0041250038456703778 -0.0029783303372788025 0.0016689965897261391 -0.0041616755052244891 0.02801410398683157 0.002890520140696276 -1.0838023923972679e-06 0.00073808365695065051 0.035195667186105922 -0.003572399397654294 -0.00050202697474639681 -0.038312220658295426 -0.0035580799030686941 -0.02080183260876154
leaf_weight=32.370359852910042 24782.544946089387 21.910232692956924 690.98837947845459 56.695478856563568 135.62584574520588 557.70196485519409 91.137174159288406 693.33560562133789 30.660401687026024 76.512191638350487 113.50398445129395 617.38341026008129 864.92409916222095 4867.6700581163168 586.87844085693359 1990.1357498168945 17.165071845054626 1235.8865852355957 300.62964476644993 41.82003977894783 29.397992849349976 2122.2578082680702 1302.3772657215595 25.371187210083008 160.90722744166851 57.962810337543488
leaf_count=98 107167 46 1441 156 381 2548 214 2587 58 207 438 1703 2217 22702 1665 6716 43 5803 1069 91 59 6370 3802 49 399 115
internal_value=-0.00103867 -0.00301004 -0.00264926 -0.00391424 -0.000788754 -0.000940522 0.0018455 -0.00287431 -0.00121095 0.00761618 0.00182527 0.00561229 -0.00330184 -0.00357321 -0.000519065 -0.00283382 0.000317411 -0.000289798 0.00261864 -0.0141046 0.0170078 -0.00474401 -3.87728e-05 -0.0200026 0.00384745 -0.0141866
internal_weight=41503.8 4669.55 4522.48 3170.57 36834.2 34827.7 2006.55 6232.21 1107.72 212.138 806.84 898.826 895.585 5425.37 28595.4 2577.01 1351.91 26018.4 357.325 147.064 120.535 2813.25 1334.75 105.244 778.291 79.873
internal_count=168144 13280 12979 9036 154864 149626 5238 28275 2863 588 3025 2375 2275 25250 121351 8381 3943 112970 1225 301 273 7811 3900 210 2102 161
is_linear=0
shrinkage=0.03


end of trees

feature_importances:
regime_p_trending=26
rsi_14=22
cvd_slope_5bar=20
vpin_12bar=17
regime_p_highvol=17
return_3=16
autocorr_6=16
regime_p_ranging=16
tod_sin=15
bb_pctb_20=14
ofi_1bar=13
realized_vol_12=13
cvd_1bar=12
cvd_3bar=12
ofi_3bar=10
return_1=10
tod_cos=9
hl_range_zscore=8
donchian_pos_20=7
microprice_drift=5
return_6=5
stoch_k_14=5
aggressive_ratio=4
obi_1bar=3
session_segment=1

parameters:
[boosting: gbdt]
[objective: binary]
[metric: binary_logloss]
[tree_learner: serial]
[device_type: gpu]
[data_sample_strategy: bagging]
[data: ]
[valid: ]
[num_iterations: 300]
[learning_rate: 0.03]
[num_leaves: 31]
[num_threads: 0]
[seed: 42]
[deterministic: 0]
[force_col_wise: 1]
[force_row_wise: 0]
[histogram_pool_size: -1]
[max_depth: 5]
[min_data_in_leaf: 50]
[min_sum_hessian_in_leaf: 0.001]
[bagging_fraction: 0.7]
[pos_bagging_fraction: 1]
[neg_bagging_fraction: 1]
[bagging_freq: 0]
[bagging_seed: 400]
[bagging_by_query: 0]
[feature_fraction: 0.8]
[feature_fraction_bynode: 1]
[feature_fraction_seed: 30056]
[extra_trees: 0]
[extra_seed: 12879]
[early_stopping_round: 0]
[early_stopping_min_delta: 0]
[first_metric_only: 0]
[max_delta_step: 0]
[lambda_l1: 0]
[lambda_l2: 0]
[linear_lambda: 0]
[min_gain_to_split: 0]
[drop_rate: 0.1]
[max_drop: 50]
[skip_drop: 0.5]
[xgboost_dart_mode: 0]
[uniform_drop: 0]
[drop_seed: 17869]
[top_rate: 0.2]
[other_rate: 0.1]
[min_data_per_group: 100]
[max_cat_threshold: 32]
[cat_l2: 10]
[cat_smooth: 10]
[max_cat_to_onehot: 4]
[top_k: 20]
[monotone_constraints: ]
[monotone_constraints_method: basic]
[monotone_penalty: 0]
[feature_contri: ]
[forcedsplits_filename: ]
[refit_decay_rate: 0.9]
[cegb_tradeoff: 1]
[cegb_penalty_split: 0]
[cegb_penalty_feature_lazy: ]
[cegb_penalty_feature_coupled: ]
[path_smooth: 0]
[interaction_constraints: ]
[verbosity: -1]
[saved_feature_importance_type: 0]
[use_quantized_grad: 0]
[num_grad_quant_bins: 4]
[quant_train_renew_leaf: 0]
[stochastic_rounding: 1]
[linear_tree: 0]
[max_bin: 255]
[max_bin_by_feature: ]
[min_data_in_bin: 3]
[bin_construct_sample_cnt: 200000]
[data_random_seed: 175]
[is_enable_sparse: 1]
[enable_bundle: 1]
[use_missing: 1]
[zero_as_missing: 0]
[feature_pre_filter: 1]
[pre_partition: 0]
[two_round: 0]
[header: 0]
[label_column: ]
[weight_column: ]
[group_column: ]
[ignore_column: ]
[categorical_feature: ]
[forcedbins_filename: ]
[precise_float_parser: 0]
[parser_config_file: ]
[objective_seed: 16083]
[num_class: 1]
[is_unbalance: 1]
[scale_pos_weight: 1]
[sigmoid: 1]
[boost_from_average: 1]
[reg_sqrt: 0]
[alpha: 0.9]
[fair_c: 1]
[poisson_max_delta_step: 0.7]
[tweedie_variance_power: 1.5]
[lambdarank_truncation_level: 30]
[lambdarank_norm: 1]
[label_gain: ]
[lambdarank_position_bias_regularization: 0]
[eval_at: ]
[multi_error_top_k: 1]
[auc_mu_weights: ]
[num_machines: 1]
[local_listen_port: 12400]
[time_out: 120]
[machine_list_filename: ]
[machines: ]
[gpu_platform_id: -1]
[gpu_device_id: -1]
[gpu_use_dp: 0]
[num_gpu: 1]

end of parameters

pandas_categorical:null
