tree
version=v4
num_class=1
num_tree_per_iteration=1
label_index=0
max_feature_idx=32
objective=binary sigmoid:1
feature_names=trade_count avg_trade_size trade_size_cv large_trade_pct aggressive_buy_pct aggressive_imbalance obi book_depth_ratio microprice_vs_mid actual_spread spread_max tick_up_pct price_impact vwap_distance return_1 return_5 realized_vol_20 hl_range volume_zscore_20 close_position body_ratio aggressive_imbalance_5 aggressive_imbalance_10 obi_5 obi_10 ofi_real_10 ofi_real_30 cvd_real_10 cvd_real_30 cvd_real_slope_10 spread_zscore trade_intensity_zscore aggressive_buy_pct_5
feature_infos=[-3.2933464050292969:9.8641386032104492] [-5.2835474014282227:9.4371824264526367] [-4.5997786521911621:8.8363285064697266] [-8.0013236999511719:5.2477874755859375] [-5.3908486366271973:5.2336668968200684] [-5.3908486366271973:5.2336668968200684] [-7.7786002159118652:6.6998066902160645] [-6.4487199783325195:9.6202201843261719] [-9.8451738357543945:9.7233133316040039] [-3.6862208843231201:9.8908348083496094] [-9.8999996185302734:9.8999996185302734] [-5.4545149803161621:8.4002342224121094] [-1.7299855947494507:9.8370304107666016] [-9.6777915954589844:9.3739461898803711] [-9.869140625:9.7719831466674805] [-9.7842960357666016:9.6005306243896484] [-6.021428108215332:9.8776044845581055] [-2.6918566226959229:9.8599252700805664] [-3.3802616596221924:4.2463493347167969] [-2.2193977832794189:2.1170666217803955] [-2.3016047477722168:2.484156608581543] [-5.1406307220458984:5.0933070182800293] [-4.5105772018432617:4.8735661506652832] [-6.5572957992553711:5.4222893714904785] [-5.6892523765563965:5.4519662857055664] [-8.9962368011474609:9.2228469848632812] [-9.0051441192626953:9.1656732559204102] [-8.8863925933837891:6.8868241310119629] [-8.1976213455200195:6.3466715812683105] [-7.8445043563842773:6.5060877799987793] [-3.2157926559448242:6.9254508018493652] [-3.3368372917175293:4.2476177215576172] [-5.1406307220458984:5.0933070182800293]
tree_sizes=3451 2851 3547 3314 3421

Tree=0
num_leaves=31
num_cat=0
split_feature=14 17 14 31 23 10 8 18 18 23 15 13 12 18 4 11 22 10 17 14 7 3 30 15 10 13 10 14 24 18
split_gain=17.9695 15.169 18.9763 12.6035 12.4384 11.9058 11.6869 9.76211 10.1141 10.3746 10.4921 9.49739 10.9615 9.90702 9.11332 12.2807 9.02017 9.12196 8.91262 8.49633 9.20321 9.4486 7.29811 7.1836 18.4228 9.63998 6.93755 6.174 6.79445 6.3623
threshold=-0.11507816612720488 -1.0241937637329099 -0.29684425890445704 -0.22083129733800885 1.1527659893035891 -0.37304101884365076 0.64019128680229198 -0.3293881863355636 -0.21724816411733625 0.90348154306411754 1.5947121381759646 1.2160211205482485 -0.79481846094131459 1.3371864557266238 0.21180792152881625 0.42137843370437628 -0.66657727956771839 -0.51245853304862965 -1.10232537984848 1.7918958067893984 -0.64508238434791554 0.13399563729763034 0.84476166963577282 -0.11889186874032019 0.93735253810882579 -1.0354431867599485 -3.1679387092590328 1.3212653994560244 0.69898226857185375 -0.2423065975308418
decision_type=2 2 2 2 2 2 2 2 2 2 2 2 2 2 2 2 2 2 2 2 2 2 2 2 2 2 2 2 2 2
left_child=1 2 14 4 -4 16 -5 19 27 18 -11 13 -13 -7 15 -1 17 -3 -10 23 -21 -22 -16 24 -2 -25 -18 28 -9 -29
right_child=7 5 3 6 -6 11 -8 8 9 10 -12 12 -14 -15 22 -17 26 -19 -20 20 21 -23 -24 25 -26 -27 -28 29 -30 -31
leaf_value=0.01290108778562093 0.015838429192615782 0.018319705994225378 0.020579173342780865 0.016407076030445524 0.033544433788875935 0.019873201402081198 -0.008101505914249723 0.020044758492304728 0.026423777844430153 0.015651354712934103 0.028883151450575979 0.027882372216006167 0.0047311854392624794 0.022801499922916968 0.024804486724549837 -0.00088095473455009066 0.044890706221263905 0.031902741366166089 0.019372312401778651 0.036205146113200123 0.027954243353923502 0.0079638530344397669 0.0021027879648050293 0.034757581322862621 0.031694287373632661 0.018291491503027897 0.024397401771156992 0.034258654118837023 0.026887312121211194 0.012783668867479201
leaf_weight=283.57899740338326 2159.6531794667244 430.03511571884155 319.56531405448914 127.8138815164566 84.127190470695496 6375.1431925296783 20.290544897317886 526.09268420934677 166.43614313006401 1012.7874532938004 56.968480587005615 24.95937043428421 70.105582386255264 1242.4627895653248 72.898485362529755 73.211200892925262 15.084247589111326 49.633445262908936 5248.3871293067932 46.073282301425934 51.178710848093033 36.42513182759285 15.445186793804167 32.233865916728973 68.02790829539299 4393.5501561462879 1032.5041129589081 68.502641677856445 173.73586612939835 15.164947509765623
leaf_count=1122 8549 1703 1266 506 334 25253 80 2084 660 4009 226 99 277 4924 289 289 60 197 20788 183 203 144 61 128 270 17399 4093 272 689 60
internal_value=0.019377 0.0203331 0.0168173 0.0205348 0.0232811 0.0207124 0.0130494 0.0186807 0.0194447 0.0190557 0.016356 0.0202332 0.0108095 0.0203508 0.0122091 0.0100731 0.0231324 0.0197252 0.0195891 0.0178625 0.0253509 0.0196424 0.0208355 0.0177121 0.0163226 0.0184114 0.0246925 0.0226643 0.0217435 0.0303663
internal_weight=24292.1 10236.9 996.931 551.797 403.693 9239.93 148.104 14055.2 7268.08 6484.58 1069.76 7712.67 95.065 7617.61 445.134 356.79 1527.26 479.669 5414.82 6787.14 133.677 87.6038 88.3437 6653.47 2227.68 4425.78 1047.59 783.496 699.829 83.6676
internal_count=96217 40553 3947 2186 1600 36606 586 55664 28788 25683 4235 30553 376 30177 1761 1411 6053 1900 21448 26876 530 347 350 26346 8819 17527 4153 3105 2773 332
is_linear=0
shrinkage=1


Tree=1
num_leaves=25
num_cat=0
split_feature=19 17 16 23 6 16 15 28 32 28 24 29 32 17 2 28 31 16 9 15 32 11 21 29
split_gain=14.6535 14.1354 12.9082 13.7997 13.0719 10.8382 10.0798 9.5913 8.8362 8.66425 12.8617 11.0674 9.95846 9.73 8.65854 7.81749 9.24257 9.99587 8.23976 7.25722 7.23929 9.44132 6.01467 7.04452
threshold=0.32565988600254064 -1.0241937637329099 3.5879907608032231 1.4843974113464358 2.0816872119903569 -1.2042908668518064 3.0329207181930546 -3.8831865787506099 -2.865756511688232 3.0221121311187749 -0.040547758340835564 -0.63532355427741993 0.34851430356502539 1.0546556711196902 -0.076775252819061265 2.3473913669586186 -1.7301473021507261 3.7509170770645146 -0.40261429548263544 1.5947121381759646 -1.229017376899719 -0.21324785798788068 2.5346766710281377 -0.041259981691837304
decision_type=2 2 2 2 2 2 2 2 2 2 2 2 2 2 2 2 2 2 2 2 2 2 2 2
left_child=1 15 3 4 6 -6 -2 20 14 11 -11 13 -13 -4 -9 16 18 -18 -1 -10 -3 -22 23 -5
right_child=2 7 9 22 5 -7 -8 8 19 10 -12 12 -14 -15 -16 -17 17 -19 -20 -21 21 -23 -24 -25
leaf_value=-0.0011568333422615094 -0.0011952535074590956 0.02629380215959623 0.014435948554703837 -0.0026778325411668008 0.026816119817821643 0.0043075993490493056 0.0094094285522085715 -0.027660718738603478 0.00023424881214059514 0.027381450456320351 -0.012753782854165348 -0.022413311095210154 -0.0067955657363071497 -0.0087823568498429528 -0.00053593865349551499 -0.022827089866339155 -0.0022953405082013429 0.010423231246890055 -0.027078166753079686 0.0040110734150101872 0.014637929569911343 -0.010839986119545104 0.012745261620714109 -0.0086047235486527412
leaf_weight=19.694803327322006 8815.5413395017385 20.358626246452332 25.183832958340645 360.91842792928219 24.379079207777977 91.574328675866127 81.412574797868729 20.035511583089828 11845.554735451937 14.324333995580675 14.420029073953627 77.031567692756653 70.259665563702583 45.760310858488083 22.469586759805679 16.725652784109116 1733.4990000724792 57.457632675766945 25.10585181415081 476.29892748594284 36.263203158974648 20.484818086028099 16.374769687652588 361.02025580406189
leaf_count=78 34913 81 100 1429 97 363 323 79 46925 57 57 304 278 181 89 66 6864 228 99 1888 144 81 65 1428
internal_value=-0.000581347 3.48839e-05 -0.00146234 -0.00129079 -0.000967784 0.00903999 -0.00109821 0.000398917 0.000333138 -0.00823552 0.00724703 -0.0102748 -0.0149635 -0.000540296 -0.0133217 -0.00241 -0.00222398 -0.0018873 -0.0156829 0.000380241 0.0109468 0.00544095 -0.0052339 -0.0056417
internal_weight=24292.1 14293.9 9998.2 9751.22 9012.91 115.953 8896.95 12441.5 12364.4 246.98 28.7444 218.235 147.291 70.9441 42.5051 1852.48 1835.76 1790.96 44.8007 12321.9 77.1066 56.748 738.313 721.939
internal_count=96217 56622 39595 38618 35696 460 35236 49287 48981 977 114 863 582 281 168 7335 7269 7092 177 48813 306 225 2922 2857
is_linear=0
shrinkage=0.03


Tree=2
num_leaves=31
num_cat=0
split_feature=14 17 14 31 10 10 29 19 26 18 18 5 30 12 4 4 11 14 6 18 22 32 21 30 22 8 14 18 31 6
split_gain=16.3146 13.6724 17.8294 11.8598 11.5692 11.2458 10.5017 10.4875 12.5883 9.09054 9.53369 9.45048 14.3195 11.8079 8.74619 8.58675 11.5314 7.98184 8.97921 7.45664 12.1949 8.97568 7.02615 6.85907 6.00456 8.14816 5.83236 5.97662 5.93506 5.35294
threshold=-0.11507816612720488 -1.0241937637329099 -0.29684425890445704 -0.22083129733800885 -1.7220059037208555 -0.37304101884365076 -0.71720552444457997 -1.3846250176429746 -0.86590382456779469 -0.3293881863355636 -0.21724816411733625 -0.78636246919631947 -1.1538290381431577 -0.21287029981613156 0.029734674841165546 0.21180792152881625 0.42137843370437628 1.7918958067893984 -0.70724299550056446 1.3371864557266238 0.52473679184913646 -2.3818385601043697 0.21190087497234347 0.84476166963577282 2.633116722106934 0.49624796211719518 1.3212653994560244 -0.2423065975308418 -0.12706074118614194 -1.3168449401855467
decision_type=2 2 2 2 2 2 2 2 2 2 2 2 2 2 2 2 2 2 2 2 2 2 2 2 2 2 2 2 2 2
left_child=1 2 15 6 -5 7 -4 8 -3 17 26 12 -12 -13 -9 16 -1 24 29 21 -21 -7 -20 -17 -2 -26 28 -28 -11 -19
right_child=9 5 3 4 -6 19 -8 14 -10 10 11 13 -14 -15 -16 23 -18 18 22 20 -22 -23 -24 -25 25 -27 27 -29 -30 -31
leaf_value=-0.0067902505642694145 -0.0022570611049024642 0.010645581878270657 -0.010692782065131688 0.018468564719906801 -0.0094471277730002311 -0.010647899769988336 0.0049528760453553932 0.0029592502545756514 -0.0040948233736263859 0.0041074555844417028 0.026048864493310321 0.00094819534124910838 -0.0061439479682489717 -0.0017241066835014781 0.0090014158606491028 0.0047642630351361929 -0.020144637085424296 0.0026060622513742475 0.0085890654601715778 0.0036498958273936972 -0.0040912747625787256 -5.6381341098891158e-05 -0.0077607215136958401 -0.017243236526437677 0.00033755545084587926 0.023090666859872211 0.013895413626866027 -0.0069182441513649584 -0.0014843284680726315 0.025729465775058784
leaf_weight=283.59864914417267 6581.5217442512512 63.500747829675674 43.243700996041298 14.850184321403502 133.26189565658569 72.836084842681885 360.43943105638027 887.36999988555908 291.50676140189171 403.63276214897633 12.819558143615721 2630.625531733036 414.69899094104767 3426.5197765529156 284.81914854049683 72.896466836333275 73.217648893594742 14.126303017139433 46.382107570767403 1068.659867733717 221.0310480594635 6350.0857880413532 48.278629377484322 15.446561440825461 52.76054210960865 19.363960787653923 68.490816593170166 15.165961742401121 296.18736533820629 24.878007441759109
leaf_count=1122 26060 252 171 59 527 288 1429 3517 1154 1600 51 10422 1641 13569 1130 289 289 56 184 4236 875 25154 191 61 209 77 272 60 1173 99
internal_value=-0.000563904 0.000347094 -0.00299067 0.000612792 -0.00664821 0.000707231 0.00327687 0.00305924 -0.00145818 -0.00122739 -0.000490117 -0.000867785 -0.00517862 -0.000563523 0.00442738 -0.00745733 -0.00953053 -0.0020169 0.00524156 0.000241503 0.00232319 -0.000176489 0.000250389 0.000916306 -0.00216272 0.0064463 0.00263575 0.0101221 0.00174082 0.0173548
internal_weight=24292.2 10236.8 996.955 551.795 148.112 9239.81 403.683 1527.2 355.008 14055.5 7268.14 6484.66 427.519 6057.15 1172.19 445.159 356.816 6787.31 133.665 7712.61 1289.69 6422.92 94.6607 88.343 6653.65 72.1245 783.477 83.6568 699.82 39.0043
internal_count=96217 40553 3947 2186 586 36606 1600 6053 1406 55664 28788 25683 1692 23991 4647 1761 1411 26876 530 30553 5111 25442 375 350 26346 286 3105 332 2773 155
is_linear=0
shrinkage=0.03


Tree=3
num_leaves=29
num_cat=0
split_feature=13 20 30 23 15 20 4 1 16 26 11 8 6 23 4 4 31 0 11 8 18 28 20 25 23 16 31 20
split_gain=13.5226 10.4608 10.5529 16.9549 13.4347 13.8207 12.4702 11.2972 10.9733 9.14569 14.0783 11.3221 11.2155 14.9217 9.89301 9.88371 9.24875 9.09665 9.08276 12.073 12.3744 9.6702 8.7636 8.40101 7.99493 7.03871 6.87 5.2112
threshold=-0.71669867634773243 0.0095885149203240889 -0.90894684195518483 -0.26550726592540735 1.2371961474418642 0.057222407311201103 1.5982869863510134 -1.5245082974433897 -2.0661189556121822 0.048621544614434249 -1.6759741902351377 -2.573749184608459 1.2856826186180117 0.99837249517440807 1.3440409302711489 -1.6723591685295103 2.1228379011154179 0.40238901972770696 -0.90538936853408802 0.74467405676841747 -0.35192175209522242 -2.0159939527511592 -0.356117233633995 0.38483007252216345 1.6218035817146303 -0.4525447785854339 0.97000500559806835 1.3228811025619509
decision_type=2 2 2 2 2 2 2 2 2 2 2 2 2 2 2 2 2 2 2 2 2 2 2 2 2 2 2 2
left_child=9 18 3 6 8 -6 -3 -5 -4 11 15 -1 13 -12 23 27 -14 -17 19 22 -21 24 -2 -13 -20 -16 -23 -11
right_child=1 2 4 7 5 -7 -8 -9 -10 10 12 14 16 -15 25 17 -18 -19 21 20 -22 26 -24 -25 -26 -27 -28 -29
leaf_value=0.024134830034606359 0.0013097235972961497 0.0040636245679576523 -0.011495103073808218 0.012820796968647458 -0.017442461825730587 0.0015898847262305381 0.019682697345250948 -0.0032841097726401388 -0.0023660925513380548 0.011903115744867795 -4.2095448683233345e-05 0.0013856403960425189 -0.0036086388640795366 0.0070282589077303101 -0.021144061506550363 -0.018481794343630398 -0.025677069507215013 -0.0016333281870137839 0.0037919067564808071 -0.028639940440085453 -0.0011471430778515648 -0.00051474644849820131 0.0071978840209649484 0.0059526248352404941 -0.011875661840490579 0.0005108497723827454 -0.0028643551898887595 -0.0068683283920868941
leaf_weight=20.868194818496704 1094.3823210597038 315.85727035999298 120.65137204527855 42.573884725570679 35.444683790206909 1100.8935480117798 53.848113775253296 494.82661759853363 6658.0635062754154 26.45341469347477 1762.8017199039459 1963.0217219293118 338.7242049574852 316.94510453939438 28.11994756758213 86.854898527264595 17.999847292900085 43.177965089678764 584.30941168963909 22.575821995735168 42.419517993927002 6971.5956292301416 287.19103783369064 444.61067308485508 30.860731914639473 25.999141097068787 1334.3315715789795 26.789545282721519
leaf_count=83 4336 1252 477 169 140 4362 214 1959 26363 105 6983 7778 1341 1257 111 343 71 171 2316 89 168 27613 1139 1763 122 103 5283 106
internal_value=-0.000546985 -0.000911965 -0.00167128 0.00139363 -0.00202253 0.000996227 0.00633856 -0.00200825 -0.00252858 0.00082569 -0.000410738 0.00213041 0.00019243 0.0010354 0.00194388 -0.00842926 -0.00472218 -0.0128872 -0.000265843 0.00193926 -0.0106966 -0.000623404 0.00253371 0.00222901 0.00300592 -0.0107409 -0.000892207 0.00245814
internal_weight=24292.2 19189.8 8822.16 907.106 7915.05 1136.34 369.705 537.401 6778.71 5102.37 2619.75 2482.62 2436.47 2079.75 2461.75 183.276 356.724 130.033 10367.7 1446.57 64.9953 8921.1 1381.57 2407.63 615.17 54.1191 8305.93 53.243
internal_count=96217 76002 34936 3594 31342 4502 1466 2128 26840 20215 10377 9838 9652 8240 9755 725 1412 514 41066 5732 257 35334 5475 9541 2438 214 32896 211
is_linear=0
shrinkage=0.03


Tree=4
num_leaves=30
num_cat=0
split_feature=14 17 14 29 18 21 10 19 2 13 18 18 23 19 19 30 17 2 14 7 3 15 10 7 12 9 12 18 27
split_gain=14.9583 12.6282 16.7346 11.3292 11.6893 10.73 11.6741 9.2664 9.25526 8.99918 8.51369 8.99451 9.41287 12.3534 8.50906 10.497 8.43619 7.9893 7.50846 8.15003 8.8651 6.7056 17.3097 9.20527 5.6605 9.23914 8.86508 5.02902 4.64867
threshold=-0.11507816612720488 -1.0241937637329099 -0.29684425890445704 0.81273809075355541 -0.41330483555793757 -2.865756511688232 -0.37304101884365076 -1.3846250176429746 -1.1972630023956297 1.2160211205482485 -0.3293881863355636 -0.21724816411733625 0.90348154306411754 1.5688313841819765 -1.0501858592033384 0.87075692415237438 -1.10232537984848 -0.076775252819061265 1.7918958067893984 -0.64508238434791554 0.13399563729763034 -0.11889186874032019 0.93735253810882579 -1.0509480237960813 -1.0440793633460996 1.2163286209106448 -1.246695816516876 -1.0813359022140501 0.33129368722438818
decision_type=2 2 2 2 2 2 2 2 2 2 2 2 2 2 2 2 2 2 2 2 2 2 2 2 2 2 2 2 2
left_child=1 2 14 4 -4 17 7 -7 -5 -8 18 24 16 -14 27 -16 -13 -3 21 28 -21 22 -2 -23 26 -26 -12 -1 -20
right_child=10 5 3 8 -6 6 9 -9 -10 -11 11 12 13 -15 15 -17 -18 -19 19 20 -22 23 -24 -25 25 -27 -28 -29 -30
leaf_value=-0.0035563519816501073 -0.0038829921304771703 -0.029659076650423277 0.0046739537471557017 0.0069735943246191168 -0.0061217800625184022 -0.0011143076276124075 0.00039444133032209296 0.004443631944774506 -0.019743826235031198 -0.0088932653135931228 0.0076607148596520491 0.006338536214841468 -0.0027406527978167503 -0.019379167850771362 0.00041024223029142325 -0.018362278238996315 -0.00052202503867786849 -0.0024923889352746601 0.0064652932002668998 0.007791322429246083 -0.01157196481017124 0.0020361833865538354 0.011487120033379225 -0.001941087935653725 0.0046717948765130453 -0.007964130079691531 -0.010197244244679949 -0.013430607403297131 0.025579889626928556
leaf_weight=62.146458506584167 2159.7871567159891 18.016238197684288 376.09418535232544 16.388110414147377 118.77325446903706 351.20360517501831 7586.8787398189306 1167.3020760267973 40.525855794548988 95.068497985601425 39.078063488006592 166.42818464338779 1028.0166090726852 41.793390274047852 167.63246859610081 31.911240577697754 5248.4877486228943 21.215271964669228 24.694624006748199 51.173786744475365 36.427729532122612 606.97026053071022 68.02147875726223 3819.0028980672359 617.96376846730709 56.871481910347939 69.538088798522949 183.45889580249786 21.351785570383072
leaf_count=246 8549 71 1491 65 470 1391 30056 4628 160 376 155 660 4070 165 664 126 20788 84 98 203 144 2405 270 15122 2450 225 275 725 85
internal_value=-0.000530574 0.000341746 -0.00286608 0.000625051 0.00208287 0.000687859 0.000754617 0.00315818 -0.0120507 0.000279501 -0.00116588 -0.000452376 -0.0008192 -0.00339066 -0.00719348 -0.00259188 -0.000311165 -0.0149681 -0.00192992 0.00511048 -0.0002606 -0.00207133 -0.0034137 -0.00139565 0.00258387 0.00360691 -0.00377228 -0.0109321 0.0153288
internal_weight=24292.2 10236.6 996.93 551.781 494.867 9239.68 9200.45 1518.51 56.914 7681.95 14055.6 7268.18 6484.73 1069.81 445.149 199.544 5414.92 39.2315 6787.43 133.648 87.6015 6653.78 2227.81 4425.97 783.451 674.835 108.616 245.605 46.0464
internal_count=96217 40553 3947 2186 1961 36606 36451 6019 225 30432 55664 28788 25683 4235 1761 790 21448 155 26876 530 347 26346 8819 17527 3105 2675 430 971 183
is_linear=0
shrinkage=0.03


end of trees

feature_importances:
volume_zscore_20=13
return_1=11
spread_max=8
hl_range=7
obi_5=7
aggressive_buy_pct=6
return_5=6
trade_intensity_zscore=6
tick_up_pct=5
realized_vol_20=5
close_position=5
spread_zscore=5
obi=4
microprice_vs_mid=4
price_impact=4
vwap_distance=4
body_ratio=4
cvd_real_30=4
cvd_real_slope_10=4
aggressive_buy_pct_5=4
trade_size_cv=3
book_depth_ratio=3
aggressive_imbalance_5=3
aggressive_imbalance_10=3
large_trade_pct=2
actual_spread=2
obi_10=2
ofi_real_30=2
trade_count=1
avg_trade_size=1
aggressive_imbalance=1
ofi_real_10=1
cvd_real_10=1

parameters:
[boosting: gbdt]
[objective: binary]
[metric: binary_logloss]
[tree_learner: serial]
[device_type: gpu]
[data_sample_strategy: bagging]
[data: ]
[valid: ]
[num_iterations: 300]
[learning_rate: 0.03]
[num_leaves: 31]
[num_threads: 0]
[seed: 42]
[deterministic: 0]
[force_col_wise: 1]
[force_row_wise: 0]
[histogram_pool_size: -1]
[max_depth: 5]
[min_data_in_leaf: 50]
[min_sum_hessian_in_leaf: 0.001]
[bagging_fraction: 0.7]
[pos_bagging_fraction: 1]
[neg_bagging_fraction: 1]
[bagging_freq: 0]
[bagging_seed: 400]
[bagging_by_query: 0]
[feature_fraction: 0.8]
[feature_fraction_bynode: 1]
[feature_fraction_seed: 30056]
[extra_trees: 0]
[extra_seed: 12879]
[early_stopping_round: 0]
[early_stopping_min_delta: 0]
[first_metric_only: 0]
[max_delta_step: 0]
[lambda_l1: 0]
[lambda_l2: 0]
[linear_lambda: 0]
[min_gain_to_split: 0]
[drop_rate: 0.1]
[max_drop: 50]
[skip_drop: 0.5]
[xgboost_dart_mode: 0]
[uniform_drop: 0]
[drop_seed: 17869]
[top_rate: 0.2]
[other_rate: 0.1]
[min_data_per_group: 100]
[max_cat_threshold: 32]
[cat_l2: 10]
[cat_smooth: 10]
[max_cat_to_onehot: 4]
[top_k: 20]
[monotone_constraints: ]
[monotone_constraints_method: basic]
[monotone_penalty: 0]
[feature_contri: ]
[forcedsplits_filename: ]
[refit_decay_rate: 0.9]
[cegb_tradeoff: 1]
[cegb_penalty_split: 0]
[cegb_penalty_feature_lazy: ]
[cegb_penalty_feature_coupled: ]
[path_smooth: 0]
[interaction_constraints: ]
[verbosity: -1]
[saved_feature_importance_type: 0]
[use_quantized_grad: 0]
[num_grad_quant_bins: 4]
[quant_train_renew_leaf: 0]
[stochastic_rounding: 1]
[linear_tree: 0]
[max_bin: 255]
[max_bin_by_feature: ]
[min_data_in_bin: 3]
[bin_construct_sample_cnt: 200000]
[data_random_seed: 175]
[is_enable_sparse: 1]
[enable_bundle: 1]
[use_missing: 1]
[zero_as_missing: 0]
[feature_pre_filter: 1]
[pre_partition: 0]
[two_round: 0]
[header: 0]
[label_column: ]
[weight_column: ]
[group_column: ]
[ignore_column: ]
[categorical_feature: ]
[forcedbins_filename: ]
[precise_float_parser: 0]
[parser_config_file: ]
[objective_seed: 16083]
[num_class: 1]
[is_unbalance: 1]
[scale_pos_weight: 1]
[sigmoid: 1]
[boost_from_average: 1]
[reg_sqrt: 0]
[alpha: 0.9]
[fair_c: 1]
[poisson_max_delta_step: 0.7]
[tweedie_variance_power: 1.5]
[lambdarank_truncation_level: 30]
[lambdarank_norm: 1]
[label_gain: ]
[lambdarank_position_bias_regularization: 0]
[eval_at: ]
[multi_error_top_k: 1]
[auc_mu_weights: ]
[num_machines: 1]
[local_listen_port: 12400]
[time_out: 120]
[machine_list_filename: ]
[machines: ]
[gpu_platform_id: -1]
[gpu_device_id: -1]
[gpu_use_dp: 0]
[num_gpu: 1]

end of parameters

pandas_categorical:null
