tree
version=v4
num_class=3
num_tree_per_iteration=3
label_index=0
max_feature_idx=29
objective=multiclass num_class:3
feature_names=ofi_10 ofi_30 obi_1 obi_5 microprice microprice_vs_mid cvd_delta_10 cvd_delta_30 cvd_slope volume_imbalance_10 volume_zscore_20 return_1 return_5 return_10 realized_vol_20 return_autocorr_10 spread spread_zscore_50 regime_p_trending regime_p_ranging regime_p_highvol regime_bars_in bb_pctb_1m rsi_14_1m atr_ratio_1m obv_slope_1m donchian_pos_5m stoch_k_14_5m bb_width_5m ema_cross_5m
feature_infos=[-9.4300804138183594:8.9617195129394531] [-9.4103994369506836:8.8453559875488281] [-5.9460697174072266:5.3323574066162109] [-4.5003242492675781:4.9683747291564941] [-9.8876352310180664:9.5353965759277344] [-5.9460697174072266:5.3323574066162109] [-3.4190998077392578:9.8301773071289062] [-4.1438994407653809:9.3568239212036133] [-3.7502186298370361:8.5267391204833984] [-4.5903429985046387:4.5595302581787109] [-2.3800134658813477:4.7982430458068848] [-9.8973722457885742:9.8852529525756836] [-9.891810417175293:9.8262090682983398] [-9.8866510391235352:9.7466936111450195] [-4.6626887321472168:9.8976516723632812] [-3.7000985145568848:4.9911708831787109] [-2.5869672298431396:9.6459369659423828] [-3.0922620296478271:6.2541418075561523] [-26.787710189819336:20.881301879882812] [-9.9447994232177734:11.852939605712891] [-23.862585067749023:88.104049682617188] [-9.8999996185302734:9.9000043869018555] [-9.899998664855957:9.8999996185302734] [-9.9000005722045898:9.9000005722045898] [-9.8999996185302734:9.9000005722045898] [-9.8999900817871094:9.8997516632080078] [-9.9000053405761719:9.9001026153564453] [-9.9000082015991211:9.90203857421875] [-10.23249340057373:26.229282379150391] [-9.901057243347168:9.9027633666992188]
tree_sizes=7107 246 7076 7213 228 7214 7187 228 7185 7186 229 7173 7212 229 7190 7163 229 7187 7205 229 7196 7209 229 7230 7248 229 7184 7214 229 7186 7192 229 7203 7219 229 7209 7256 229 7216 7196 229 7225 7211 229 7215 7242 229 7219 7237 229 7234 7227 229 7205 7268 229 7222 7241 229 7233 7246 229 7197 7213 229 7252 7226 229 7218 7245 229 7224 7214 229 7205 7254 229 7208 7233 229 7225 7232 229 7262 7247 229 7240 7254 229 7281 7234 229 7263 7259 229 7227 7244 229 7238 7282 230 7220 7241 230 7256 7245 230 7254 7216 230 7266 7285 230 7271 7245 230 7241 7242 230 7269 7245 230 7291 7275 230 7298 7253 230 7278 7223 230 7278 7266 230 7275 7268 230 7248 7307 230 7222 7223 230 7271 7233 230 7268 7261 230 7298 7238 230 7255 7211 230 7213 7246 230 7281 7286 230 7270 7259 230 7242 7279 230 7335 7281 230 7263 7269 230 7292 7289 230 7287 7278 230 7314 7312 230 7305 7277 230 7299 7234 230 7280 7266 230 7249 7297 230 7266 7298 230 7277 7307 230 7272 7252 230 7288 7285 230 7261 7232 230 7262 7280 230 7282 7211 230 7283 7260 230 7288 7223 230 7234 7233 230 7235 7228 230 7198 7248 230 7268 7269 230 7262 7242 230 7290 7241 230 7255 7242 230 7228 7254 230 7263 7270 230 7229 7274 230 7284 7265 230 7273 7296 230 7281 7251 230 7244 7237 230 7281 7272 230 7273 7233 230 7284 7253 230 7227 7222 230 7271 7315 230 7273 7296 230 7266 7294 230 7272 7237 230 7220 7230 230 7261 7240 230 7261 7255 230 7260 7310 230 7294 7262 230 7250 7274 230 7277 7271 230 7278 7221 230 7257 7277 230 7235 7242 230 7291 7238 230 7245 7226 230 7239 7245 230 7259 7260 230 7228 7239 230 7262 7227 230 7235 7164 230 7211 7248 230 7253 7316 230 7272 7263 230 7193 7249 230 7263 7197 230 7234 7209 230 7252 7271 230 7280 7226 230 7300 7251 230 7284 7260 230 7346 7259 230 7284 7226 230 7237 7237 230 7268 7240 230 7177 7245 230 7249 7267 230 7303 7253 230 7213 7320 230 7352 7210 230 7216 7273 230 7302 7286 230 7284 7249 230 7282 7212 230 7228 7220 230 7243 7264 230 7329 7246 230 7244 7296 230 7299 7268 230 7322 7238 230 7227 7283 230 7254 7196 230 7223 7274 230 7278 7316 230 7304 7222 230 7267 7290 230 7304 7235 230 7245 7243 230 7266 7215 230 7201 7286 230 7280 7268 230 7307 7197 230 7317 7276 230 7288 7249 230 7278 7164 230 7226 7238 230 7199 7271 230 7324 7167 230 7319 7208 230 7267 7312 230 7335 7214 230 7172 7295 230 7217 7207 230 7284 7179 230 7311 7246 230 7200 7225 230 7233 7135 230 7205 7261 230 7259 7250 230 7225 7277 230 7200 7262 230 7265 7219 230 7242 7204 230 7256 7221 230 7233 7201 230 5159 7250 230 7279 7163 230 7221 5049 230 7271 7260 230 7274 7136 230 7148 7234 230 7238 7196 230 7208 7198 230 7261 7191 230 7203 7220 230 7161 7082 230 7126 7240 230 7243 7186 230 7185 7314 230 7286 7255 230 7231 7232 230 7165 7302 230 7304 7161 230 6858 7085 230 6994 7277 230 7270 7201 230 7245 7303 230 7208 7189 230 7165 7151 230 7233 7342 230 7308 7189 230 7198 7252 230 7221 7090 230 7185 7238 230 7222 7280 230 7259 7131 230 6900 7285 230 7303 7252 230 7180 7234 230 7221 7281 230 7305 7243 230 7280 7067 230 7105 7187 230 7239 7126 230 7128 7232 230 5142 7263 230 7227 7231 230 7178 7295 230 7331 7174 230 6889 7165 230 7142 7248 230 7191 7198 230 7243 7174 230 7204 7271 230 7290 5000 230 5021 7250 230 7185 7247 230 7281 7258 230 7262 7217 230 7208 7265 230 7268 7155 230 7204 7176 230 7178 7266 230 7266 7288 230 7294 7253 230 7219 7302 230 7291 7212 230 7218 7193 230 7192 7117 230 5230 7183 230 7208 7262 230 7243 4326 230 7264 7182 230 7196 7241 230 7260 7125 230 7103 7234 230 7250 7240 230 7242 7234 230 7129 7158 230 7178 7241 230 7252 7265 230 7212 7270 230 7285 7218 230 7053 7106 230 7139 7237 230 7195 7243 230 7159 7212 230 7223 7262 230 7241

Tree=0
num_leaves=63
num_cat=0
split_feature=26 27 23 25 23 23 25 20 4 4 4 23 18 23 27 25 19 27 25 25 25 19 28 26 25 25 20 27 20 23 23 23 27 26 27 28 23 23 27 14 4 20 4 19 28 4 25 20 26 13 19 23 18 26 28 25 20 28 28 8 23 7
split_gain=105014 63429.5 24931.5 6304.41 4159.75 3863.09 3296.2 2290.5 2118.42 1320.12 1274.02 1162.97 1079.26 1073.61 1040.31 1021.38 915.026 912.727 845.928 804.567 772.128 740.678 680.823 660.77 593.041 569.82 550.882 541.503 504.678 501.795 495.854 490.254 475.695 452.572 450.354 444.452 442.195 422.614 419.193 383.267 374.412 346.141 342.636 318.234 302.292 301.952 342.655 301.281 386.221 298.247 290.553 272.921 267.327 259.262 248.551 246.519 236.344 234.175 230.467 224.728 223.53 227.417
threshold=9.0977940736536328e-09 -0.099999997764825807 -0.2477910369634628 -1.3346390128135679 1.23242723941803 1.0356158614158633 -1.3472693562507627 -0.0023321254411712285 0.82891452312469494 0.45544037222862249 -0.42037875950336451 -1.037741959095001 -1.0000000180025095e-35 -0.72304695844650257 0.79558211565017711 0.80603536963462841 2.0166105059615805e-05 9.5647695319556213e-10 1.0347111821174624 1.574439585208893 -2.0320737361907955 0.00072294313577003788 6.8389425234016707e-09 -1.8470173478126524 0.80603536963462841 -1.9000761508941648 -0.0047823009081184855 -0.80400192737579335 -1.1405297817290714e-09 -1.2195402979850767 -1.2646450996398924 1.1935804486274721 9.5647695319556213e-10 -1.0000000180025095e-35 -5.9436339183704935e-10 -1.3126301169395445 0.29231773316860205 -1.0780355334281919 0.68255576491355907 3.1000926494598393 0.5235891342163087 0.77905064821243297 -0.42037875950336451 -6.4595116105757503e-32 -1.0000000180025095e-35 0.43919830024242407 -1.2360558509826658 -4.7642918161727712e-06 1.5955294966697695 -0.16766367107629773 -1.2097429395035995e-11 -0.8124038279056548 -0.82808467745780934 -7.5945683075673277e-10 -0.82100775837898243 1.0000000180025095e-35 1.3678508366865573e-05 -1.0759157453854582e-09 -5.0008639451704076e-09 2.9213240146636967 0.34979933500289923 2.2978154420852666
decision_type=2 2 2 10 2 2 10 2 2 2 2 2 2 2 2 10 2 2 10 10 10 2 2 2 10 10 2 2 2 2 2 2 2 2 2 2 2 2 2 2 2 2 2 2 2 2 10 2 2 2 2 2 2 2 2 8 2 2 2 10 2 2
left_child=1 7 3 11 18 6 13 10 27 16 23 20 21 26 32 28 24 -10 25 45 -3 31 -12 60 36 55 52 -7 -5 -14 -17 -9 -11 -23 -27 -29 -8 -30 -26 47 57 54 -20 -33 -28 46 -6 48 -19 -49 -32 53 -2 -25 -31 -4 -16 -15 -47 -41 -1 -62
right_child=5 2 4 15 19 8 9 12 17 14 22 -13 29 40 56 30 -18 39 42 -21 -22 33 -24 51 38 34 44 35 37 41 50 43 -34 -35 -36 -37 -38 -39 -40 59 -42 -43 -44 -45 -46 58 -48 49 -50 -51 -52 -53 -54 -55 -56 -57 -58 -59 -60 -61 61 -63
leaf_value=-0.50161089665565362 -0.54512113463273981 -0.50640606085525874 -0.5196121629597571 -0.53163665084950973 -0.53057899694693889 -0.53445144764489372 -0.53821631701710915 -0.49619804666338024 -0.52456296576787043 -0.52138835617244728 -0.50022481843421707 -0.51755642520121969 -0.50083440693844761 -0.5495540170904234 -0.54081721230649826 -0.51967563523660409 -0.55209486410226327 -0.53983603265311897 -0.53324727328114407 -0.53734593990536306 -0.51243250309736565 -0.50382009109014314 -0.50832762878120474 -0.51176274434349445 -0.54139111523541472 -0.5376481606437622 -0.52977198661671787 -0.56302720587100319 -0.51708214344035719 -0.50333766184322759 -0.52920278963998069 -0.50083366549179775 -0.53576289068933769 -0.55299076130959957 -0.52575805196780212 -0.55409568254710428 -0.54982893562999335 -0.52010766959814958 -0.55263430465454999 -0.55385191775496856 -0.53057468171875144 -0.50191154758618084 -0.52831097895611223 -0.51600204972347741 -0.51932474906561221 -0.51368463182938928 -0.53616048336197064 -0.54306136928132509 -0.55111607387215344 -0.55081163734663707 -0.52324929871768022 -0.51790731404391199 -0.53080201927788295 -0.54906228577350336 -0.51014231490098172 -0.49497164178279229 -0.54686564068588528 -0.5383833538356908 -0.5305079766684031 -0.52569707202487348 -0.50979569361277477 -0.54304215278483714
leaf_weight=5980.1333632320166 1452.6409406661987 32195.737060546875 9959.19189453125 2749.8179903030396 17039.059097290039 1090.1561930328608 16156.486458003521 42602.196445941925 1916.2753062397242 2399.9861884266138 17745.249555513263 23735.216915130615 17902.114379882812 3115.9591854661703 13439.878098577261 37373.846313476562 17570.000350952148 9922.2715946733952 15545.971405029297 35720.928527832031 47164.277103424072 19278.667797878385 19686.032060697675 20180.328093856573 4658.5786506682634 2921.8650969713926 3854.7543461024761 6348.9883862137794 78729.763317108154 6222.8168623298407 8221.5387741923332 4109.3071274757385 15159.979081764817 169.95332036912441 152636.22762238979 23854.197248145938 3610.7281284630299 87989.615653038025 8305.4931810349226 319.47440338134766 2867.4909801483154 9213.079029083252 68061.137269020081 1785.8041682243347 7054.4335385560989 745.79258543252945 23624.116775512695 6240.7644763886929 3769.7628154754639 15738.047457918525 71886.758222877979 11179.306459888816 6104.6584448814392 169.12133929133415 21601.537773832679 379.33999633789062 10247.732757329941 3688.0656540840864 42289.957109391689 1267.1896820068359 1394.0745641887188 213.534836769104
leaf_count=14470 4070 70644 28430 7671 49563 3345 38595 83296 5785 7839 59081 57879 40549 8982 42466 115589 54929 32553 47148 109035 106397 54925 62077 49988 14380 9129 9289 20457 199868 17355 27487 11603 48819 619 454080 74097 10123 214556 25240 675 8922 26201 212656 4201 13782 2638 71713 16381 11966 45147 217100 31551 15434 525 54438 539 31247 9309 134932 1424 4276 437
internal_value=-0.523466 -0.519425 -0.523381 -0.518093 -0.528972 -0.543831 -0.54055 -0.504369 -0.549404 -0.54331 -0.508443 -0.51173 -0.501832 -0.53157 -0.539332 -0.520379 -0.546572 -0.544755 -0.526768 -0.533577 -0.509988 -0.499304 -0.504486 -0.512229 -0.543608 -0.525528 -0.527329 -0.555223 -0.518889 -0.504958 -0.522529 -0.49732 -0.533798 -0.50425 -0.525981 -0.555973 -0.540338 -0.518679 -0.548594 -0.545793 -0.539667 -0.506952 -0.529229 -0.505429 -0.523016 -0.531968 -0.533822 -0.546435 -0.542942 -0.548611 -0.52386 -0.514142 -0.533554 -0.512073 -0.50862 -0.518708 -0.543434 -0.543499 -0.530216 -0.531366 -0.504281 -0.514212
internal_weight=1.14856e+06 958403 758970 390047 368924 190154 119687 199433 70467.1 91548.9 76547.8 103095 122885 28138 41247.6 286951 50301.3 39173.8 249504 119420 79360 67945.9 37431.3 39116.5 32731.3 165897 18466.5 31293.3 169469 54939.5 117482 48497.3 17560 19448.6 155558 30203.2 19767.2 166719 12964.1 37257.5 9671.52 37037.4 83607.1 5895.11 10909.2 83698.9 40663.2 35670.8 13692 21978.8 80108.3 31528.8 7557.3 20349.4 27824.4 10338.5 23687.6 6804.02 43035.7 1586.66 7587.74 1607.61
internal_count=3207902 2652646 2137054 1017191 1119863 555256 343426 515592 211830 273638 222405 234920 293187 69788 130371 782271 143267 113931 751982 367881 177041 154644 121158 101247 88338 492178 42575 97899 422095 138543 360176 99100 56658 55544 463209 94554 48718 414424 39620 108146 27213 97994 259804 15804 23071 258846 121276 106047 44519 61528 244587 82064 19504 50513 71793 28969 73713 18291 137570 2099 19183 4713
is_linear=0
shrinkage=1


Tree=1
num_leaves=1
num_cat=0
split_feature=
split_gain=
threshold=
decision_type=
left_child=
right_child=
leaf_value=-34.538776391283193
leaf_weight=
leaf_count=3207902
internal_value=
internal_weight=
internal_count=
is_linear=0
shrinkage=1


Tree=2
num_leaves=63
num_cat=0
split_feature=26 27 22 22 22 29 29 22 22 22 22 28 23 28 28 23 25 27 27 25 23 25 23 22 27 28 23 23 13 27 26 25 23 23 25 22 27 9 18 21 27 19 25 22 22 22 14 7 25 14 18 22 25 18 22 7 28 13 7 26 23 25
split_gain=105014 63429.5 37121.4 7275.77 7250.46 7011.83 6998.3 4556.37 2533.82 2047.51 1964.87 1590.88 1520.2 1468.04 1452.35 1282.54 1232.63 1158.98 909.719 807.452 770.214 737.08 718.718 688.444 640.802 608.967 538.255 530.401 529.261 517.861 482.698 482.276 454.559 448.288 455.895 447.155 431.755 423.502 398.395 392.748 361.97 360.919 360.563 350.929 330.373 308.451 461.163 296.307 332.021 290.579 276.328 274.449 269.952 263.293 255.939 255.516 248.111 238.572 236.473 235.607 231.074 230.33
threshold=9.0977940736536328e-09 -0.099999997764825807 -0.39022763073444361 -1.4253687262535093 1.2186058163642886 -0.099999997764825807 4.5454859320948065e-10 -1.2186056971549986 0.97528311610221874 -1.253161549568176 1.2714642286300661 -0.8040107488632201 -0.75306445360183705 -0.8040107488632201 3.6612771148192285e-10 1.6995466947555544 -1.1224971413612364 0.79558211565017711 0.099999997764825835 -1.6985605359077451 0.97528281807899486 1.3823857903480532 0.76031756401062023 -1.443442106246948 0.79558211565017711 6.8389425234016707e-09 0.29231773316860205 -0.21480012685060498 3.0139379501342778 1.1283862177968731e-09 -0.8554488718509673 0.19542933255434039 -0.57184696197509755 -0.75306445360183705 0.68583887815475475 -1.4761329889297483 1.3539149246177831e-09 0.11542981863021852 0.0044916088227182635 0.099999982863664641 -5.9436339183704935e-10 0.10558575019240381 -1.2186056971549986 2.2677736282348637 1.9995891451835635 1.8102261424064638 2.1164819002151494 -0.15336389839649198 2.4621080160140996 3.51808774471283 -2.0526504801443577e-10 0.4971089661121369 1.1692487597465517 -7.0809611646405189e-11 -1.9749803543090818 -0.60384291410446156 2.0543919801712041 0.68296742439270031 -0.21214884519577024 -7.5945683075673277e-10 1.3128201961517336 -0.063649505376815782
decision_type=2 2 2 2 2 2 2 2 2 2 2 2 2 2 2 2 10 2 2 10 2 10 2 2 2 2 2 2 2 2 2 10 2 2 10 2 2 2 2 2 2 2 10 2 2 2 2 2 10 2 2 2 10 2 2 2 2 2 2 2 2 10
left_child=1 5 3 12 20 30 7 14 17 38 13 59 19 24 36 27 32 29 -10 54 37 50 40 57 -9 -23 -16 31 44 -8 -1 -6 58 34 -15 -32 -2 52 41 -29 -18 49 -39 -17 53 -20 -47 -25 -49 -7 -13 -31 -4 -12 -3 -35 -48 -19 -5 -11 -14 -24
right_child=6 2 4 16 15 9 8 10 18 11 28 21 60 33 26 43 22 23 45 -21 -22 25 61 47 -26 -27 -28 39 -30 51 35 -33 -34 55 -36 -37 -38 42 -40 -41 -42 -43 -44 -45 -46 46 56 48 -50 -51 -52 -53 -54 -55 -56 -57 -58 -59 -60 -61 -62 -63
leaf_value=-0.92325787266891712 -0.90799780051171186 -0.91843936192794584 -0.89445228712703817 -0.90374962322096286 -0.89568755146881096 -0.92342354447258335 -0.88972667329828481 -0.8976020192802957 -0.88534120617708167 -0.91531013335011246 -0.8712057710113339 -0.90898145230079719 -0.90669423568942165 -0.8970068679083556 -0.90981321811225813 -0.88286094200820564 -0.88881801082604583 -0.87890442251656864 -0.86775373484517127 -0.91033934251045023 -0.89163756517364834 -0.91074396460379059 -0.89925057140578979 -0.86718788938010249 -0.87394549887812145 -0.890360389422861 -0.88446220771274775 -0.88514522281598806 -0.90111390971511174 -0.88052297553170666 -0.924235189001963 -0.88681038215142438 -0.9011578184861192 -0.88029981510575073 -0.88309936958927993 -0.91770154776598611 -0.88370810225677243 -0.90092796093324501 -0.91227684602634274 -0.89995074706391431 -0.90140370665909975 -0.91345237837033411 -0.89568073491096112 -0.87699331709926243 -0.86851681479503851 -0.86008771499670511 -0.86723081289877813 -0.87249518770058587 -0.89445437244626513 -0.90023109360872999 -0.90318785701689985 -0.8714775656348086 -0.8902470245424734 -0.8792385619204669 -0.91312154241837318 -0.8876539937250526 -0.8881498402089324 -0.89383679101134195 -0.90735623805341281 -0.89133994162274244 -0.90079608616385487 -0.89454993220983614
leaf_weight=64714.12187859416 771.5266680419445 21562.588073730469 60125.608503624797 28548.831382751465 10363.100296616554 11134.175324440002 4980.0991927236319 1129.268849119544 2314.4644151031971 15337.446480020881 6347.0395927131176 12152.596603870392 18520.862073898315 7545.0751005113125 7645.2236655801535 20956.135375976562 2086.3180224001408 4923.3840160369873 30409.977395504713 45048.914133071899 90506.724634170532 1706.1373483985662 16651.347179412842 12169.726016521454 11787.24788865447 5814.7288396507502 836.21852657198906 59393.426853716373 625.73834228515625 17765.802373632789 12577.923904418945 11756.447039961815 26246.558748364449 6057.7893733978271 2951.0334806442261 37636.609978705645 4500.5803646594286 14135.039844512939 12286.081577301025 1657.5358194708824 144634.85382631421 6204.5153837203979 70918.723888397217 16315.796875 8723.0120692253113 11986.083564758301 1355.3850645422935 16053.809413582087 644.57213306427002 508.39925384521484 18982.36967176199 3636.9072494506836 17807.662170410156 8714.7307172119617 13090.313247680664 14263.828813359141 818.38226944208145 1197.0869922637939 38327.194299578667 378.15093372762203 8827.3234481811523 21488.852992594242
leaf_count=165612 1986 48404 180170 74551 28550 21285 15556 3375 7309 44440 20158 32507 51912 16841 13483 64019 6649 14581 93233 121668 278369 5386 47097 36893 36760 16076 2371 182994 1064 53704 27930 39384 73612 19368 9374 95035 13181 37373 35001 5324 381455 18717 213583 50308 26984 37109 2271 44053 1088 267 51979 11162 57403 26620 27378 41686 1504 3542 74415 1357 27032 65404
internal_value=-0.897625 -0.901666 -0.89771 -0.904248 -0.890977 -0.916722 -0.87726 -0.883877 -0.872254 -0.910162 -0.880698 -0.906685 -0.910894 -0.884504 -0.899628 -0.884917 -0.901689 -0.876266 -0.867003 -0.912988 -0.893857 -0.903413 -0.900271 -0.872686 -0.876014 -0.894984 -0.907314 -0.886989 -0.873879 -0.881013 -0.921545 -0.890969 -0.904504 -0.888062 -0.893097 -0.919338 -0.887263 -0.895089 -0.916434 -0.885547 -0.901225 -0.919296 -0.896553 -0.880292 -0.873163 -0.866051 -0.862393 -0.870748 -0.873343 -0.922411 -0.905449 -0.878986 -0.893491 -0.875854 -0.916431 -0.885462 -0.875106 -0.881825 -0.905817 -0.914733 -0.90479 -0.896602
internal_weight=1.14856e+06 958403 758970 385034 373936 199433 190154 81898.3 108256 84504.6 68144.8 54371.4 107050 43734.2 13753.5 120442 277984 61371.4 46884.3 79701.8 253494 38655.8 184861 34988.6 12916.5 7520.87 8481.44 83170.5 24410.5 26382.8 114929 22119.5 93122.6 30817.7 10496.1 50214.5 5272.11 162987 30133.2 61051 146721 17847.1 85053.8 37271.9 23784.8 44569.8 14159.9 28868.1 16698.4 11642.6 31135 21402.7 77933.3 15061.8 34652.9 20321.6 2173.77 6120.47 66876 15715.6 27348.2 38140.2
internal_count=3207902 2652646 2137054 999577 1137477 515592 555256 233251 322005 227015 202230 151745 276394 127404 31021 370579 723183 180579 141426 197450 766898 105948 500605 100157 40135 21462 15854 256252 74826 80422 288577 67934 222578 87269 26215 122965 15167 488529 75270 188318 388104 40269 250956 114327 73762 134117 40884 82034 45141 21552 84486 64866 237573 46778 75782 61054 3775 18123 148966 45797 78944 112501
is_linear=0
shrinkage=1


Tree=3
num_leaves=63
num_cat=0
split_feature=26 27 23 29 29 25 23 23 27 25 4 4 23 4 20 23 19 23 25 23 25 25 25 18 19 25 25 20 23 20 27 23 27 18 4 26 4 27 26 4 25 23 25 4 23 14 4 27 20 23 18 4 25 19 18 21 4 18 4 4 25 23
split_gain=96217.9 59004.5 23024.6 6812.83 6622.63 5879.72 3810.89 3154.3 2064.18 2010.92 1866.78 1731.41 1523.61 1301.77 1150.1 1092.63 1066.85 986.269 955.342 885.56 779.693 741.312 730.471 645.795 576.383 541.624 524.673 514.123 490.239 489.703 461.426 443.302 437.731 433.993 416.691 414.411 400.217 398.789 396.347 393.199 391.143 376.809 374.648 357.102 352.476 345.976 337.673 320.338 313.765 311.73 307.615 295.128 310.348 278.598 278.216 270.913 254.44 250.08 247.83 243.169 233.42 219.784
threshold=9.0977940736536328e-09 -0.099999997764825807 -0.2477910369634628 -0.099999997764825807 4.5454859320948065e-10 -1.3346390128135679 1.23242723941803 1.0000000180025095e-35 1.1283862177968731e-09 -1.2360558509826658 0.50618240237236034 1.0311174392700198 -1.2979543209075926 -0.18148986250162122 -4.7642918161727712e-06 -1.037741959095001 0.00072294313577003788 0.65142819285392772 0.76855996251106273 1.1629478335380556 1.035615921020508 1.5413954854011538 -1.9279534220695493 1.6011931225357048e-09 0.00072294313577003788 -1.9608563780784605 -1.9943011999130247 0.00036669334804173564 -1.2646450996398924 -1.1405297817290714e-09 -9.3062288430978402e-10 1.1692488789558413 -5.9436339183704935e-10 -7.0809611646405189e-11 0.21116779744625094 0.79558208584785473 0.30128450691699987 -5.9436339183704935e-10 -1.6158163547515867 -0.68485713005065907 1.3127837777137759 1.2186058163642886 0.80603536963462841 -0.42037875950336451 1.3252110481262209 3.1000926494598393 -0.75383624434471119 9.5647695319556213e-10 -0.012328396551311014 1.1000000834465029 -1.0000000180025095e-35 0.43919830024242407 -1.2360558509826658 -1.2097429395035995e-11 2.1560211280302614e-05 0.47403359413146978 -0.18148986250162122 -1.0000000180025095e-35 -0.84163582324981678 1.2795265316963198 1.0000000180025095e-35 0.73199942708015453
decision_type=2 2 2 2 2 10 2 2 2 10 2 2 2 2 2 2 2 2 10 2 10 10 10 2 2 10 10 2 2 2 2 2 2 2 2 2 2 2 2 2 10 2 10 2 2 2 2 2 2 2 2 2 10 2 2 2 2 2 2 2 8 2
left_child=1 3 5 13 7 15 20 9 36 27 17 41 48 14 38 22 42 26 29 35 25 51 -3 24 31 60 -10 33 -20 -7 -13 -14 -27 -2 -26 61 -6 -31 -1 -28 43 58 -11 -25 50 49 -22 -43 -5 -32 -16 52 -8 -30 -42 -53 -18 -49 -9 -21 -4 -12
right_child=4 2 6 12 8 18 21 11 10 16 19 30 23 -15 44 -17 56 -19 28 59 46 -23 -24 40 34 32 39 -29 53 37 45 -33 -34 -35 -36 -37 -38 -39 -40 -41 54 47 -44 -45 -46 -47 -48 57 -50 -51 -52 55 -54 -55 -56 -57 -58 -59 -60 -61 -62 -63
leaf_value=0.022188330055036329 -0.013970155673156334 0.016145567174462336 0.0039975481573724572 0.014026067817892366 -0.016261783557022895 -0.008190210035525225 -0.0068514233861446706 -0.025649405896967858 -0.015205478127638348 -0.0028534012193891147 -0.011815277476913334 0.014771268299227126 0.019195638181040239 0.027841290739269654 0.02613624473121573 0.0056823163819254979 -0.026526143938418498 -0.03560121883399453 0.003718349225464396 -0.030897935534479691 -0.010465139417911874 -0.013177423663746345 0.010357818940428492 0.0041322089285811461 0.0036675771379348532 -0.013726260605840958 -0.03120719852831853 0.0084860095714939937 -0.0056265520257572305 -0.0080466765649570698 -0.007855125798995272 0.0063342488534734653 -0.0022156434101244394 0.0015713132550767602 0.014353677528031454 -0.021179360252455086 -0.002209305299278686 0.004799792851807763 0.013360302131448518 -0.023920347154511259 -0.015848774222637921 -0.006308297151174317 -0.01261727636648664 0.011352960867838678 0.01426747944638245 0.0097267844360516536 -0.0048312948326513349 -0.033073214397103291 0.021053296371733352 -0.015975409476853469 0.021295673187099268 -0.0066458755952392406 -0.012178449284089836 0.00017799511232879638 0.0022849703564106426 0.012006310998918536 -0.015098668667335613 -0.02428117117639397 -0.017146974468010959 -0.024119321499574402 0.028080526058522182 -0.020569712546992247
leaf_weight=6132.2558082342148 2258.788916349411 36449.4130859375 9067.2570190429688 9294.5937690734863 3465.7639670819044 2726.3281655311584 17076.964859008789 4425.637035369873 3287.0763168334961 7576.1535655409098 9222.171477586031 594.60728590190411 12243.664219707251 37369.13720703125 28992.940529286861 23681.576112747192 4080.7558574676514 16727.928665161133 37881.84619140625 6940.398063659668 11124.6803855896 37464.506286621094 42520.267026901245 11200.600214004517 7832.2218017578125 3030.6174627542496 14695.601868629456 6594.2641363143921 8295.7953944206238 2204.1625871062279 6925.7295153588057 3003.6389980316162 157467.97474730015 5692.4969809055328 5655.5088043212891 19966.83534437418 3850.6085948944092 163212.60202080011 18048.384160637856 12195.311426594853 888.96207332611084 651.87977312505245 6633.8854808807373 13708.257391452789 3468.888069152832 632.76437783241272 68725.619211196899 4949.5226998925209 14862.630229949951 11032.698644667864 19943.194396555424 41355.693374320865 23235.393493652344 72298.645828723907 5309.2216386795044 712.91073639690876 3074.9701285362244 7071.8575825244188 10188.343627929688 15180.65364074707 377.28060913085938 3583.999386459589
leaf_count=15314 5580 80551 25889 27380 10587 7587 49563 12329 8488 17965 29348 1862 28450 118351 55699 57879 11919 52321 117315 22249 33019 113821 96490 28981 23673 9428 38808 12163 27713 6845 22178 8491 468286 11898 19662 59695 12265 404396 46310 37650 563 1959 20695 41143 8962 899 214821 15429 31404 34548 43941 131812 70215 218415 17268 2470 10566 21370 31891 40165 539 10429
internal_value=1.37733e-06 0.00388618 8.14348e-05 0.0184727 -0.0194097 0.0051734 -0.00528096 -0.0129891 -0.0242573 -0.00631127 -0.0253635 -0.0181493 0.0119904 0.023251 0.0210112 0.0113343 -0.0121687 -0.0297583 0.0029669 -0.0216082 -0.00317104 -0.00967866 0.0130292 0.00942328 0.0126658 -0.00202215 -0.0265195 0.00229266 0.000903556 0.00442077 -0.0112435 0.016662 -0.00243299 -0.00284368 0.00814834 -0.0184777 -0.00886596 0.00462861 0.0155991 -0.0279025 0.00642797 -0.0230047 -0.00741162 0.00810605 0.0235085 -0.0120756 -0.0056162 -0.0267904 0.0183495 -0.0128438 0.0241635 -0.00808752 -0.00992184 -0.000419482 -0.000315826 -0.00632979 -0.0216155 -0.0279011 -0.0197218 -0.0262461 0.00495959 -0.0142653
internal_weight=1.14836e+06 956864 758910 197954 191501 389271 369639 82384.4 109116 35911.3 101800 46473 83999.3 113955 76585.7 102651 21365.8 46905.9 286619 54894.1 249793 119845 78969.7 59842.1 28735 169943 30178 14545.6 118476 168143 19185.8 15247.3 160499 7951.29 13487.7 32773 7316.37 165417 24180.6 26890.9 31107 27287.2 14210 24908.9 52405 18591.2 79850.3 12673.3 24157.2 17958.4 48936.1 82381 40312.4 80594.4 6198.18 42068.6 7155.73 12021.4 14614 22121.1 9444.54 12806.2
internal_count=3207902 2652646 2137054 515592 555256 1017191 1119863 233251 322005 90786 299153 142465 227015 288577 170226 234920 61145 137267 782271 161886 751982 367881 177041 168231 80276 504142 84946 29641 363443 418828 59487 36941 477714 17478 43335 99472 22852 411241 61624 76458 87955 82978 38660 70124 108602 57625 247840 38758 58784 56726 99640 254060 119778 246128 17831 134282 22485 36799 44220 62414 26428 39777
is_linear=0
shrinkage=0.03


Tree=4
num_leaves=1
num_cat=0
split_feature=
split_gain=
threshold=
decision_type=
left_child=
right_child=
leaf_value=0
leaf_weight=
leaf_count=3207902
internal_value=
internal_weight=
internal_count=
is_linear=0
shrinkage=1


Tree=5
num_leaves=63
num_cat=0
split_feature=26 27 23 29 29 25 23 23 28 24 27 28 23 24 24 23 24 27 25 24 20 25 25 25 20 27 20 28 23 25 23 28 23 27 25 18 23 18 26 27 14 25 26 25 18 18 25 14 25 27 25 27 25 18 28 13 20 25 26 23 18 25
split_gain=96217.9 59004.5 23024.6 6812.83 6622.63 5879.72 3810.89 3154.3 2842.57 2460.75 2064.18 1631.54 1524.75 1340.25 1245.24 1071.68 1061 900.128 779.693 758.042 744.474 736.586 704.6 689.738 667.213 663.096 624.034 585.096 583.833 541.624 511.516 490.809 450.475 437.731 416.842 402.988 400.044 396.988 376.691 368.895 367.874 361.779 359.44 326.582 370.952 325.621 316.424 306.233 346.327 285.572 283.823 273.299 246.158 243.119 237.399 260.111 235.294 233.42 229.028 225.619 223.204 221.388
threshold=9.0977940736536328e-09 -0.099999997764825807 -0.2477910369634628 -0.099999997764825807 4.5454859320948065e-10 -1.3346390128135679 1.23242723941803 1.0000000180025095e-35 3.6612771148192285e-10 1.2618330121040346 1.1283862177968731e-09 -1.0000000180025095e-35 -0.63081288337707508 1.281980633735657 1.395229756832123 1.23242723941803 1.1161473393440249 9.5647695319556213e-10 1.035615921020508 0.28773693740367895 -4.7642918161727712e-06 1.3127837777137759 0.7280268967151643 -1.3472693562507627 2.1974762504442528e-12 -1.8851500360739233e-09 -0.0081134592182934267 -1.2709299921989439 -1.1047992706298826 -1.9608563780784605 -1.5555112957954405 0.45030112564563757 1.3964449763298037 -5.9436339183704935e-10 0.84669747948646557 1.6011931225357048e-09 -1.7209514975547788 -2.0526504801443577e-10 -7.5945683075673277e-10 -5.9436339183704935e-10 3.1000926494598393 -0.8124038279056548 -1.5761915445327757 -1.3472693562507627 -0.79558202624320973 -1.0000000180025095e-35 -1.2628085017204282 2.4316312074661259 1.3700422048568728 0.79558211565017711 1.1224971413612368 -5.9436339183704935e-10 0.76855996251106273 -1.6614695397265674e-08 -2.123675942420959 3.0139379501342778 -0.38347569108009333 1.0000000180025095e-35 -1.0000000180025095e-35 -1.621360123157501 2.1560211280302614e-05 1.8892973065376284
decision_type=2 2 2 2 2 10 2 2 2 2 2 2 2 2 2 2 2 2 10 2 2 10 10 10 2 2 2 2 2 10 2 2 2 2 10 2 2 2 2 2 2 10 2 10 2 2 10 2 10 2 10 2 10 2 2 2 2 8 2 2 2 10
left_child=1 3 5 20 7 9 18 8 17 36 56 35 26 24 46 19 22 -2 29 49 42 -14 39 -21 37 -9 59 40 50 57 -11 -25 -29 -31 -15 38 -3 -10 -5 -7 -27 -26 -1 -19 -45 -28 -8 48 -16 -12 -18 -24 58 -22 -17 -56 -6 -4 -44 -13 -34 -30
right_child=4 2 6 11 10 16 14 25 13 30 15 12 21 34 47 54 28 43 -20 23 53 -23 51 31 41 27 45 32 61 33 -32 -33 60 -35 -36 -37 -38 -39 -40 -41 -42 -43 52 44 -46 -47 -48 -49 -50 -51 -52 -53 -54 -55 55 -57 -58 -59 -60 -61 -62 -63
leaf_value=-0.024492670474526985 -0.0043078992548423621 -0.010544157367136637 -0.0039975454717575964 -0.019794438990739949 0.016220106800552397 0.010117810325309161 0.004470633650822493 1.6024219085569427e-05 0.02184390888542093 -0.019675922755447346 0.023145454959892647 -0.014110238575045923 -0.0056697621580417967 -0.014559446214065474 0.012369002682604437 0.036872181062777974 -0.009277567847292079 0.011152040823922254 0.0056161971247924262 0.011696419614739384 -0.026510823729645673 0.0068728313474701918 0.01237685751282162 0.019099723449427369 -0.0073789927403614631 0.027511118217900199 -0.021487945827114985 0.014856238633261668 -0.0022493343814393445 0.013726260605840958 -0.013207028990188052 0.026764716194697682 0.025567415175432873 0.002215643258775375 0.010919594220561228 -0.013132711568201585 -0.005397284845845794 0.0063567883163082265 0.0076401244007826162 -0.0036125935984573938 -0.0031224562764023706 0.0067666957595790382 -0.016280275533059607 0.03193783765586574 0.01848460037302229 -0.01240641906175253 0.0088060170516524768 0.002192115391269863 0.018836022261570402 0.028692007506209677 -0.0044092204985286794 -0.00020478742806760651 -0.021823500583401316 -0.023050727207688179 0.029625180769428144 0.009968607860483307 0.0049302339494640092 -0.028080533183204678 0.026854472660865006 -0.0042619445954601241 0.017473931467456891 0.009811269671385292
leaf_weight=11114.882071077824 1659.8316185325384 21514.525024414062 9067.2562255859375 20960.11583904922 2550.5369758605957 1786.0434500575066 19419.631969451904 1746.7430901676416 2019.4831899702549 23694.878540039062 13522.622845992446 3037.8060607910156 14414.042250096798 5854.4904951155186 15415.832670927048 4166.1126168966293 35844.905849382281 3389.0005254745483 79850.302892684937 6662.1403884887695 42309.440272390842 5954.8918838500977 1580.6091433316469 17774.014046892524 4563.1002149581909 7786.6071512103081 7466.5210882127285 24198.203698441386 12726.912985861301 3030.6174627542496 20535.719879150391 13030.469780996442 6756.0213315486908 157467.97602903843 641.18435534834862 18189.80468082428 36906.133270263672 5677.5899866521358 460.32685647904873 125987.89858841896 369.5589599609375 2529.0385888814926 17926.929810881615 2494.1171585321426 7083.4789477884769 6779.9255746901035 68938.826526641846 1643.0301818847656 14428.146119356155 21858.798183232546 15411.651126936078 91746.338715478778 10317.785975933075 32174.288456857204 24164.357908844948 621.46041870117188 4765.835845515132 377.28057861328125 111.47272926568985 6735.8657608032227 5615.9060366153717 1535.0173683166504
leaf_count=31070 4543 53786 25889 55853 8485 5539 60046 5369 5732 47049 44674 8980 41883 8934 45605 11446 82073 8633 247840 16761 97850 16406 5410 46895 9060 24868 14624 74320 34863 9428 41026 34331 20413 468286 1970 52345 93059 14341 1673 318974 531 7392 46822 8031 22150 15556 219564 3121 39545 71455 43730 287351 32346 80117 72572 1019 14367 539 372 19695 16964 4331
internal_value=-1.37733e-06 -0.00388618 -8.14348e-05 -0.0184727 0.0194097 -0.0051734 0.00528096 0.0129891 0.00631127 -0.0113343 0.0242573 -0.0119904 -0.00804081 -0.000685457 0.00967866 0.0253635 -0.0029669 0.0164931 0.00317104 0.023423 -0.023251 -0.00200291 -0.0019733 0.0204491 0.0043036 0.0181493 -0.0131609 0.0188575 -0.00631995 0.00202215 -0.0166725 0.0223421 0.017237 0.00243299 -0.0120444 -0.0164164 -0.00729272 0.0104201 -0.0192049 -0.00342067 0.0261231 -0.00233468 -0.01992 0.0191559 0.021988 -0.017166 0.00785318 0.0148013 0.0154955 0.0265721 -0.00781377 8.29854e-06 -0.0181277 -0.0250162 0.0302461 0.0291323 0.00886596 -0.00495959 -0.0160137 -0.00732294 0.0218936 -0.000951247
internal_weight=1.14836e+06 956864 758910 197954 191501 389271 369639 82384.4 35911.3 102651 109116 83999.3 44389.1 21284.9 119845 101800 286619 14626.4 249793 72848 113955 20368.9 221101 37466.6 14789.2 46473 24020.1 44726.3 65518.5 169943 44230.6 30804.5 36570.1 160499 6495.67 39610.2 58420.7 7697.07 21420.4 127774 8156.17 7092.14 39471.1 12966.6 9577.6 14246.4 88358.5 31487 29844 35381.4 51256.6 93326.9 28356.2 74483.7 28951.9 24785.8 7316.37 9444.54 18038.4 9773.67 12371.9 14261.9
internal_count=3207902 2652646 2137054 515592 555256 1017191 1119863 233251 90786 234920 322005 227015 117144 47429 367881 299153 782271 43357 751982 214116 288577 58289 617274 97987 36525 142465 58855 137096 164997 504142 88075 81226 111697 477714 10904 109871 146845 20073 57526 324513 25399 16452 110610 38814 30181 30180 279610 88271 85150 116129 125803 292761 79540 177967 85037 73591 22852 26428 47194 28675 37377 39194
is_linear=0
shrinkage=0.03


Tree=6
num_leaves=63
num_cat=0
split_feature=27 27 22 22 22 22 24 22 22 24 4 24 4 18 19 22 19 23 4 4 4 23 23 27 24 4 23 24 27 25 24 25 19 28 22 18 25 4 25 4 22 25 18 19 23 25 23 22 25 18 19 14 22 18 18 18 24 28 23 23 28 28
split_gain=85246.5 48724.1 33438.1 6603.55 6560.37 6556.89 3530.91 2268.34 2164.58 1957.57 1860.86 1590.88 1495.06 1215.24 1394.43 1107.98 1067.88 914.754 871.795 763.281 729.648 662.325 650.041 620.89 587.01 580.373 577.588 571.331 544.291 538.031 537.93 528.732 497.699 442.927 422.782 419.995 392.141 387.628 377.154 371.201 439.518 369.089 365.75 418.894 365.668 358.312 348.949 344.235 343.007 319.09 317.622 304.297 301.798 291.724 283.376 362.924 272.045 281.223 269.083 267.766 264.362 248.863
threshold=8.5159312934735009e-10 -0.099999997764825807 -0.39022763073444361 1.2186058163642886 0.93697628378868114 -1.4933329224586485 1.4246392846107485 -1.3930305838584898 -0.84669741988182057 1.6227066516876223 0.93857723474502575 1.1161473393440249 0.76772898435592662 1.6986735843350749e-14 -6.4595116105757503e-32 1.7768632769584658 2.0166105059615805e-05 0.58977815508842479 -1.0615606307983396 -0.34802392125129694 0.62272292375564586 0.81240388751029979 -0.72304695844650257 -5.9436339183704935e-10 -0.1222625896334648 -1.1139650940895078 0.93697628378868114 -0.3994851410388946 0.79558211565017711 1.3335914611816408 -0.28220671415328974 -0.8124038279056548 0.040731366723775871 -0.82100775837898243 -0.52729848027229298 -7.8902592792751126e-10 -1.9000761508941648 1.6420891284942629 -1.2915554046630857 1.7897652387619021 1.3932361006736758 -1.9279534220695493 0.0044916088227182635 3.1867331529156223e-07 -0.60167688131332386 inf -0.21480012685060498 0.36515085399150854 -1.9279534220695493 2.1560211280302614e-05 -0.84668162465095509 2.1680939197540288 1.5976898074150088 0.17498158663511279 -2.2310999980845733e-07 -0.26766000688076014 0.14640241861343387 -1.0000000180025095e-35 -1.0150901675224302 0.22833309322595599 6.8389425234016707e-09 8.0538617441838777e-10
decision_type=2 2 2 2 2 2 2 2 2 2 2 2 2 2 2 2 2 2 2 2 2 2 2 2 2 2 2 2 2 10 2 10 2 2 2 2 10 2 10 2 2 10 2 2 2 8 2 2 10 2 2 2 2 2 2 2 2 2 2 2 2 2
left_child=1 7 5 18 6 9 12 42 36 30 29 23 16 14 -9 37 17 27 22 32 41 38 48 -7 -17 34 47 -2 -14 35 -3 -25 -16 -27 -15 -6 -8 46 -13 40 -12 -10 43 -1 53 -24 -5 -20 -4 -35 -36 52 -41 -11 55 -22 57 -37 -32 -26 -21 -18
right_child=4 2 3 15 10 11 8 13 20 44 39 21 28 25 19 24 61 -19 26 60 54 -23 45 31 59 33 -28 -29 -30 -31 58 -33 -34 49 50 56 -38 -39 -40 51 -42 -43 -44 -45 -46 -47 -48 -49 -50 -51 -52 -53 -54 -55 -56 -57 -58 -59 -60 -61 -62 -63
leaf_value=0.026249797145750334 -0.016443970448251508 0.0078219686446014992 0.0097373565179637335 -0.0062933396793884502 -0.030189457684495654 -0.009697740670658473 0.013357019490196935 0.022984082683870335 -0.004271500211314303 0.021258799418017879 -0.01844435423616406 0.012776315665465877 -0.0044892306547579383 0.010241217441389729 0.016060462042085812 -0.011779267673937192 -0.025577039053360787 -0.022147697414277259 0.0014587949084661528 0.021009461263763581 -0.005751389493428195 0.00022639079131815473 -0.012087336142192774 0.0043194800819292547 -0.01216773823076658 0.018407228632137465 -0.0046234458840641035 -0.0086670543226630894 -0.013193351981236889 -0.033021184061436212 0.015193194126132428 0.001189979906142484 0.0082171040434598532 0.0029814242560042112 0.014124913805523713 -0.025833038676898495 0.0023564796380363259 -0.0060247144860999212 0.0076742568472617564 -0.015242097055555133 -0.026232576613473016 -0.02648135262108324 0.01865853000586138 0.01955291873155177 0.011971184153908913 0.026104683993023587 -0.012449716392851076 -0.0023230221326538359 -0.0048074704052246094 0.012785946402365658 -0.0030832922106110248 -0.0085446301521865994 -0.022960761231354904 -0.044494790603245495 -0.011074461485146608 0.027104189438218913 -0.026526787212498733 -0.014884086476880009 0.0086156942514635636 -0.019729569949252495 0.015012668634210488 -0.019258365524457692
leaf_weight=21812.383615016937 15943.783010840416 33486.140523076057 1676.2083740234375 10668.799370452762 11664.186212778091 3416.0650005638599 4721.261100769043 25801.487838357687 838.75236511230469 25621.799911439419 14747.051528930664 20152.766736984253 12690.314935162663 14764.932098388672 12076.583503723145 21351.433452516794 12398.619938611984 11287.904066234827 27954.537978202105 14554.849196195602 700.84569877386093 7937.5503341555595 18803.284042358398 135246.27097988129 5145.5910545289516 12666.786776721478 90445.205768585205 18214.727577507496 13182.320778414607 13287.377502441406 20866.403799533844 75830.351325958967 18337.014167785645 3301.9485912919044 1230.6976566314697 3456.4140156507492 7629.3341059684753 19167.394119262695 36944.706437885761 12135.878368377686 11691.746139526367 3416.2170777320862 20796.318298339844 13677.347891330719 4663.131551861763 223.71522521972656 37103.295920684934 96230.966658473015 11273.861663818359 31366.894918441772 4477.230016708374 3510.4150238037109 7302.294132232666 60.870477616786957 1467.6871438622475 532.46152877807617 9094.1565244793892 5425.1762915253639 7649.8273204565048 23290.532743930817 12130.02312092483 10245.498556852341
leaf_count=41212 47243 99498 2976 32223 36285 11045 8572 59918 1767 56192 46048 40167 40817 33746 25152 69285 38419 33308 87330 48855 2297 21163 49791 334388 15182 39673 279426 41401 39813 42495 49834 232018 50822 3635 3345 11072 17473 57588 87732 36568 36017 9518 55739 38836 12485 269 115007 297005 27113 97148 11274 6396 21414 189 4264 432 25134 16096 21614 67485 38373 30320
internal_value=2.63358e-06 0.00382164 0.000201766 -0.00627087 -0.0175001 0.00652575 -0.0126621 0.0166789 -0.000976931 0.0134563 -0.0234364 0.00423607 -0.015063 0.0147596 0.017196 -0.0121495 -0.0173957 -0.0147437 -0.00348835 0.0145805 -0.014362 0.00834625 -0.00810951 0.00298986 -0.0155386 0.011781 -0.00279986 -0.012297 -0.00892405 -0.028005 0.0104006 0.00319519 0.0113315 0.0136062 0.00756073 -0.0257562 0.00656166 -0.00962879 0.00947505 -0.0194653 -0.0218885 -0.0221033 0.0218177 0.0236689 0.0196997 -0.0116383 -0.0110748 -0.00147172 -0.00292484 0.0118521 0.000627003 -0.0166737 -0.0181418 0.021103 -0.00216688 0.0084335 -0.0228796 -0.019145 0.0134287 -0.0183612 0.0182835 -0.0227181
internal_weight=1.14779e+06 942205 735211 363335 205584 371876 113270 206994 19306.6 92348.2 92314.7 279528 93963.2 150708 82900 116727 68090.5 45446.4 246608 57098.5 6955.96 65035 31977.1 214493 49787.6 67808.5 214631 34158.5 25872.6 42927.3 62002.4 211077 30413.6 47335.6 20472.9 29639.9 12350.6 66939.5 57097.5 49387.4 26438.8 4254.97 56286 35489.7 30345.8 19027 47772.1 124186 12950.1 34668.8 5707.93 22948.6 19438.2 25682.7 2700.99 1233.31 17975.7 8881.59 28516.2 28436.1 26684.9 22644.1
internal_count=3207902 2614733 2067005 1100680 593169 966325 315644 547728 44323 239812 277525 726513 271321 411941 223120 356770 190691 121952 743910 163202 18278 149062 80149 577451 151952 188821 663761 88644 80630 131082 170946 566406 75974 140456 48365 88587 26045 204818 127899 146443 82065 11285 135787 80048 68866 50060 147230 384335 30089 100783 14619 64378 57982 56381 6993 2729 52302 27168 71448 82667 87228 68739
is_linear=0
shrinkage=0.03


Tree=7
num_leaves=1
num_cat=0
split_feature=
split_gain=
threshold=
decision_type=
left_child=
right_child=
leaf_value=0
leaf_weight=
leaf_count=3207902
internal_value=
internal_weight=
internal_count=
is_linear=0
shrinkage=1


Tree=8
num_leaves=63
num_cat=0
split_feature=26 26 22 22 22 22 22 20 4 4 4 22 25 22 23 22 25 22 4 28 23 23 22 22 20 23 25 23 18 21 14 4 4 19 23 28 19 23 25 23 18 19 26 23 20 25 25 4 23 23 22 18 4 7 22 18 22 25 4 25 19 4
split_gain=88257.2 52418.5 33459.9 6671.7 6645.49 5713.27 2796.82 2657.11 2003.38 1627.65 1413.8 1370.45 1164.09 1143.35 1082.82 944.913 885.667 883.863 866.887 692.226 673.538 631.506 575.058 565.304 554.838 508.471 537.884 507.201 471.125 470.09 468.183 452.903 430.836 456.715 434.365 402.205 390.611 381.357 358.318 354.218 352.765 387.615 352.027 343.685 340.982 338.546 337.618 330.52 324.436 300.112 287.151 287.087 278.181 275.737 263.46 252.368 242.924 239.567 239.039 232.849 302.277 227.834
threshold=9.0977940736536328e-09 -0.099999997764825807 -0.39022763073444361 1.2186058163642886 -1.4933329224586485 -1.2648855447769163 1.2496209144592287 -0.0023321254411712285 0.82891452312469494 1.4423632025718691 -0.38448175787925715 -1.0356157422065733 -1.1935803294181822 1.8435528278350832 -0.78122290968894947 0.76409253478050243 -1.9000761508941648 -1.6173213720321653 -1.0615606307983396 -0.90948340296745289 0.78388431668281566 -0.72304695844650257 0.36515085399150854 -2.0170171260833736 0.81157347559928905 0.65142819285392772 -1.0356157422065733 -1.0000000180025095e-35 1.6986735843350749e-14 0.82092052698135387 2.1680939197540288 1.6420891284942629 0.60639849305152904 2.0166105059615805e-05 0.89998406171798717 6.8389425234016707e-09 4.5667174930486005e-08 -0.57184696197509755 inf -0.21480012685060498 -1.0000000180025095e-35 0.00072294313577003788 0.79558208584785473 -0.57184696197509755 -4.7642918161727712e-06 1.5240928530693056 -2.0320737361907955 0.87583026289939891 0.95595303177833568 1.2186058163642886 -0.8124038279056548 -2.0526504801443577e-10 -1.6143253445625303 2.0258517265319829 1.9995891451835635 4.4758426298585625e-08 -1.5336547493934629 -0.063649505376815782 0.7832717001438142 -0.12914255261421201 2.0166105059615805e-05 0.97018903493881237
decision_type=2 2 2 2 2 2 2 2 2 2 2 2 10 2 2 2 10 2 2 2 2 2 2 2 2 2 10 2 2 2 2 2 2 2 2 2 2 2 8 2 2 2 2 2 2 10 10 2 2 2 2 2 2 2 2 2 2 10 2 10 2 2
left_child=1 7 4 18 14 16 8 10 19 45 17 40 43 31 23 42 37 -1 21 59 36 46 47 -3 28 26 -21 -15 49 50 54 39 33 34 -18 58 -14 -2 -23 -5 41 -9 -10 61 -17 51 -4 -20 -24 -13 -19 -8 -31 -32 -11 -30 -42 -22 -12 60 -7 -6
right_child=5 2 3 13 12 6 9 11 15 30 35 24 20 27 -16 44 32 29 22 25 57 38 48 -25 -26 -27 -28 -29 55 52 53 -33 -34 -35 -36 -37 -38 -39 -40 -41 56 -43 -44 -45 -46 -47 -48 -49 -50 -51 -52 -53 -54 -55 -56 -57 -58 -59 -60 -61 -62 -63
leaf_value=-0.017448390059836023 -0.0059289430302338943 -0.017903053269143855 -0.010509947974615373 0.0067087395402042364 -0.0080076440652463079 0.018909981939775874 0.03179634088998131 -0.026765495925054728 0.00236435512509813 0.019372663754821877 -0.01675372674097737 -0.018612801309667814 -0.0038062152576281492 0.0094039739186375041 -0.0078003264585841271 0.01185274011595807 0.0059917160940267692 -0.0066470515363549025 0.0015871618350789571 0.012199484803161407 -0.0018164040026343203 0.012085282025241971 0.0025206469659087506 -0.012491564935124891 -0.021041532466957138 0.023402743746031379 0.020163324774751759 0.017399885849552925 -0.00091207889211918211 -0.0051960496229932667 0.028560594112235809 0.0061195924986252358 0.0010634354290309264 0.018750990237779149 0.02492742206094551 -0.0138998059851066 0.021564393391945141 0.010186221759575382 -0.026104686304897717 0.012684965464871254 -0.02331996805798963 -0.019736086124931908 0.011708579206638575 -0.0040321258892271885 0.01893309570754113 0.033933491818576959 0.0048020349373878437 -0.0042940584110053633 0.0050889917238210701 -0.011176044141318229 0.0019547255306313332 0.024998860997701256 -0.01271158578463062 0.005779669065407134 0.027328830582385159 -0.012155949854252241 -0.017531055693199234 0.0027257652554380902 -0.02341294580445261 0.030048959880939235 0.029226643668491082 -0.016956951954642845
leaf_weight=8775.6846466064453 6130.8533555269241 34115.382934570312 1459.2749786376953 11462.111448988318 52389.490983128548 6245.0427702963352 9527.3533969521523 26601.14084482193 8303.2820470482111 13966.200881958008 9925.2509867399931 23972.029453232884 164409.78958201408 8806.7288413047791 24388.991256713867 10436.815525054932 9750.1819789409637 7369.6913189888 25100.852628469467 12996.732395172119 20152.679527282715 19002.883651733398 103018.43497610092 35403.033767700195 18982.115859985352 16309.231510639191 18494.426065921783 37721.465494632721 2084.7038229703903 7183.3514022827148 572.52450561523438 20773.620544433594 4408.3439083099365 5422.3173285126686 1227.5352022051811 19384.248120620847 547.98717266321182 1684.802924990654 223.71524047851562 40342.304444566369 12614.947296142578 9610.7107553482056 6445.0201628059149 22320.864066004753 14805.665523529053 12524.514709472656 11583.246391296387 13082.502891540527 77615.911810398102 6133.3553810119629 6639.6197053939104 13537.52010768652 11574.734927460551 2901.9305267333984 5118.7111206054688 12998.744831085205 13512.14244890213 21707.58586281538 9489.9870071411133 7480.4169243872166 4327.0941567420959 2691.7977523803711
leaf_count=21750 13083 87960 2558 34702 114011 15787 30105 47988 26388 41490 32908 61289 431988 27013 70468 33980 23343 19169 77995 31688 56986 50343 318151 86458 54027 48435 53016 115237 2222 17405 1554 62462 13638 15960 3829 61914 1904 4884 269 124827 30188 25773 18417 62083 43311 39727 27799 42578 238483 18032 18721 40017 32499 4661 15303 34825 32715 65701 32982 23897 12743 8263
internal_value=-2.63358e-06 -0.00373832 -4.33721e-05 0.0063679 -0.00632012 0.0185224 0.020681 -0.0171054 0.0177771 0.0259667 -0.0128388 -0.019815 -0.00403405 0.0122154 -0.0132391 0.0124808 0.00615545 -0.00899278 0.00359407 0.0209935 -0.00285951 0.00818434 0.00291714 -0.0151472 -0.0167375 0.0191033 0.0168766 0.0158864 -0.0149295 -0.00672822 0.0196626 0.00986198 0.00938956 0.0116276 0.00810912 -0.0169567 -0.00372193 -0.00245503 0.0116409 0.0113627 -0.022983 -0.0248999 0.00644779 -0.00717243 0.0160056 0.0299628 0.00308884 -0.000427881 0.00362423 -0.0170977 -0.0025703 0.0278067 -0.00983353 0.00953353 0.0215066 -0.0106019 -0.0203261 0.00053904 -0.0200087 0.0259985 0.0231325 -0.00844499
internal_weight=1.14779e+06 955173 748321 370193 378128 192617 163992 206852 105844 58148.8 80342.6 126510 284220 119106 93907.4 39990.8 28624 41543.1 251087 65852.9 206818 32269.1 218818 69518.4 64170.9 47800.4 31491.2 46528.2 45188.8 32767.4 22559.4 72578 20808.4 16400 10977.7 38799.5 164958 7815.66 19226.6 51804.4 62338.9 36211.9 14748.3 77402.2 25242.5 35589.4 13042.5 38183.4 180634 30105.4 14009.3 23064.9 18758.1 3474.46 19084.9 15083.4 26127.1 41860.3 19415.2 18052.6 10572.1 55081.3
internal_count=3207902 2652646 2108239 1122417 985822 555256 480519 544407 307662 172857 237348 307059 740936 364241 244886 122096 74737 109544 758176 185566 556579 80969 677207 174418 170395 133139 84704 142250 116368 87794 63008 221991 56770 43132 27172 127804 433892 17967 50612 159529 136664 73761 44805 184357 77291 109849 30357 120573 556634 79321 37890 70122 49904 6215 56793 37047 62903 122687 65890 52427 28530 122274
is_linear=0
shrinkage=0.03


Tree=9
num_leaves=63
num_cat=0
split_feature=26 27 22 29 22 29 22 22 24 22 4 22 24 22 28 4 24 4 28 4 4 22 27 24 24 22 24 22 28 23 4 27 24 27 26 23 23 4 13 27 23 4 23 23 23 14 28 11 22 4 28 23 23 4 9 27 28 19 22 28 22 24
split_gain=81558.7 51344.1 30900.9 6461.54 6238.08 6017.69 5978.19 3749.11 2255.89 2054.97 2309.51 1876.64 1707.93 1499.12 1457.8 1349.31 1325.04 1274.62 1170.17 909.614 896.031 836.416 819.98 813.047 806.006 772.514 733.771 695.542 683.946 646.998 603.907 584.713 578.746 566.601 525.737 504.08 420.892 413.072 409.427 401.723 401.37 400.906 508.287 399.706 398.433 398.242 392.346 389.898 380.229 355.577 337.175 330.159 325.669 311.545 288.134 287.735 286.804 372.794 283.69 278.997 276.863 361.145
threshold=9.0977940736536328e-09 -0.099999997764825807 -0.39022763073444361 -0.099999997764825807 -1.4253687262535093 4.5454859320948065e-10 1.3371881842613222 -1.1224972605705259 1.5826821923255923 0.99498745799064647 0.05239111743867398 -1.0842310190200803 1.303459703922272 1.2714642286300661 -0.8040107488632201 0.93857723474502575 1.1161473393440249 -0.18148986250162122 -0.82100775837898243 -1.0615606307983396 1.3922029733657839 -1.443442106246948 0.79558211565017711 1.0944677591323855 1.6438126564025881 0.93697628378868114 1.4414748549461367 -1.145567715167999 3.6612771148192285e-10 -0.47294883430004114 0.73596382141113292 0.099999997764825835 -0.28220671415328974 -5.9436339183704935e-10 -0.80400377511978138 0.81240388751029979 1.1692488789558413 -0.54381939768791188 -0.097051188349723802 -1.0000000180025095e-35 -0.037826841697096818 1.1398805379867556 -0.57184696197509755 -0.2477910369634628 -0.34226682782173151 3.1000926494598393 6.8389425234016707e-09 0.12154308706521989 -1.765855014324188 2.3087762594223027 -0.77300110459327687 -0.99498739838600148 0.65142819285392772 0.45544037222862249 0.056622786447405822 -0.92765444517135609 0.34979932010173803 7.9177784167758308e-27 0.76409253478050243 0.10000009462237359 0.23615152388811114 0.25285956263542181
decision_type=2 2 2 2 2 2 2 2 2 2 2 2 2 2 2 2 2 2 2 2 2 2 2 2 2 2 2 2 2 2 2 2 2 2 2 2 2 2 2 2 2 2 2 2 2 2 2 2 2 2 2 2 2 2 2 2 2 2 2 2 2 2
left_child=1 3 4 17 8 7 19 12 32 10 21 48 28 18 37 -11 33 27 30 29 -15 23 60 -7 38 54 -24 -1 53 -4 -9 -17 -3 -6 -29 50 -16 -13 -8 -32 -26 42 -20 -10 -27 -22 -14 -35 -5 -42 -18 -34 -40 55 -21 -2 57 -23 -43 -38 61 -12
right_child=5 2 6 11 16 9 24 13 43 15 22 14 46 20 36 31 35 -19 41 25 45 56 26 -25 40 44 -28 34 -30 -31 39 -33 51 47 -36 -37 59 -39 52 -41 49 58 -44 -45 -46 -47 -48 -49 -50 -51 -52 -53 -54 -55 -56 -57 -58 -59 -60 -61 -62 -63
leaf_value=0.022763198699675427 0.010902701144943584 0.0067726284063587055 -0.0038192516398971518 0.01978251727670927 -0.0097327401258381629 -0.024376548820532497 -0.013910800565425459 -0.02446819386100341 0.019919419695215147 -0.033282720566134176 -0.011013726622637431 0.0085718090421106133 0.0020751470608534328 -0.024671512537232477 0.0054894004200143273 -0.0027462475932709942 -0.017518223807229186 0.026637075056674051 -0.0047059390123698292 -0.0030309079368602198 -0.014412772215988233 -0.020250597297841084 -0.020016633431492761 -0.0039034643263938704 -0.0079236431747457831 -0.001481358770395815 0.00035321705975631818 0.019938685664080993 0.0003603098971958498 -0.011988505258296386 0.020799852926401335 -0.023848382688878213 0.013976394608357078 0.0018353461481352288 0.012816991930907939 0.00052646307939489346 0.0069025140570875276 0.019649723722689298 -0.0053786017069994583 -0.013226296429728121 -0.020367377488318263 0.0071333784494153132 -0.013827392592989785 0.010220812846476078 -0.0056338939200967454 0.011391791955174443 0.01792511569091219 0.0045322375726025354 0.013576873253154145 -0.0086074903359916258 0.0088113241370152175 0.0072327554186889164 -0.010764779140317451 0.0011257961990079053 -3.1766210107801038e-05 -0.022380812812025017 -0.03145694529932376 -0.030157064768708736 -0.0058622880991871665 -0.0056980651841288385 -0.013948866416583159 0.00011325839270937154
leaf_weight=36783.878761291504 252.70409640669823 38656.151516675949 16014.127632141113 14425.936553955078 3304.6770679205656 4160.857519865036 25646.373226165771 7458.5814186036587 29461.120216071606 18981.143493652344 5367.768978625536 4882.3544273376465 2027.0892489403486 16496.70613861084 24384.645239502192 1236.639812707901 441.32029421627522 36635.237579345703 9349.6303323209286 51626.804979890585 7831.9609756469727 7578.4160379320383 15216.914464861155 3007.7726147174835 3589.7532542943954 26397.968331336975 1777.4870796203613 22557.195491448045 5255.1880242675543 19170.230438232422 335.42518852651119 26633.977893590927 24373.23967218399 136855.18377475441 15908.755916938186 7988.76518034935 2146.1039100289345 7981.9594516009092 14066.179223895073 4525.5583396106958 17491.886650681496 2167.7716498374939 13347.505890533328 4394.9240954518318 97987.420767784119 577.98928833007812 4584.354018881917 74516.534655094147 23140.102203369141 2666.8350706100464 53880.776168778539 8927.1687476634979 35859.700540661812 782.4778773188591 65289.136077880859 3118.8232240527868 9668.8906084746122 6228.735314309597 4995.7902412414551 6010.9804901480675 5363.5267066955566 5138.2088676095009
leaf_count=76940 673 115365 37343 37177 10667 12947 81018 22295 65685 58780 18692 12651 4817 49918 67158 3818 1151 118351 22614 164676 24201 18915 45326 6825 10231 82719 4576 54699 12049 50775 950 75618 58446 383026 38587 21105 6919 26208 43997 14554 49955 6988 38835 11745 301213 707 6760 185650 60016 6173 121584 25153 111300 2727 198077 9459 27864 18710 15704 16886 16272 13662
internal_value=3.71987e-06 0.00360735 7.90567e-05 0.0173435 0.00607828 -0.017756 -0.00603181 -0.0116589 0.0122744 -0.0223474 -0.0188312 0.0109997 0.00138005 -0.0147727 0.00689586 -0.0271135 0.00371127 0.022048 -0.0113266 -0.00376399 -0.0206087 -0.0247557 -0.0133069 -0.0157866 -0.0123449 -0.00310693 -0.0178861 0.0198138 -0.00683079 -0.00827028 -0.019106 -0.0229121 0.00926978 0.00259339 0.0169933 0.00756266 0.00351609 0.0154454 -0.0108299 -0.0108784 -0.0171658 -0.00811713 -0.01007 0.0186604 -0.00475261 -0.0126393 0.0130655 0.0027861 0.0159599 -0.0188116 0.00859742 0.0121686 -0.00924727 -0.0159282 -0.0013561 -0.0198861 -0.0274945 -0.0247196 -0.00192966 -0.00238289 -0.00840305 -0.0055718
internal_weight=1.14693e+06 953463 758606 194857 382800 193468 375806 83107.6 105813 110360 63508.6 82972.1 16020.6 67086.9 45406 46851.8 276987 111885 42180.3 276486 24906.7 30644.7 32863.9 7168.63 99320.7 241301 16994.4 75249.8 9409.19 35184.4 12319.6 27870.6 71956.6 214676 38466 62310.9 32541.7 12864.3 75572.3 4860.98 23748.5 29860.7 22697.1 33856 124385 8409.95 6611.44 211372 37566 20158.7 54322.1 33300.4 49925.9 4154.01 116916 3371.53 23476 13807.2 7163.56 8157.08 15869.5 10506
internal_count=3207902 2652646 2137054 515592 999577 555256 1137477 233251 276394 322005 183789 227015 36485 196766 129822 138216 723183 288577 121940 834803 74826 85261 98528 19772 302674 746685 49902 170226 24908 88118 37799 79436 198964 579343 93286 143840 90963 38859 236315 15504 66359 84141 61449 77430 383932 24908 11577 568676 97193 56128 122735 83599 155297 12859 362753 10132 65489 37625 22692 23805 48626 32354
is_linear=0
shrinkage=0.03


Tree=10
num_leaves=1
num_cat=0
split_feature=
split_gain=
threshold=
decision_type=
left_child=
right_child=
leaf_value=0
leaf_weight=
leaf_count=3207902
internal_value=
internal_weight=
internal_count=
is_linear=0
shrinkage=1


Tree=11
num_leaves=63
num_cat=0
split_feature=26 27 22 29 22 29 22 22 24 22 4 22 24 22 28 4 24 4 28 20 4 4 22 27 24 24 22 24 20 28 4 27 24 27 25 28 25 25 25 4 27 4 25 14 28 22 22 22 22 25 4 4 26 4 25 26 25 27 28 19 22 28
split_gain=81558.7 51344.1 30900.9 6461.54 6238.08 6017.69 5978.19 3749.11 2255.89 2054.97 2309.51 1876.64 1707.93 1499.12 1457.8 1349.31 1325.04 1274.62 1170.17 1036.67 909.614 896.032 836.416 819.98 813.047 806.006 772.514 733.77 686.342 683.946 603.907 584.714 578.746 566.601 561.93 559.677 520.168 454.767 446.447 413.072 401.723 400.906 597.101 398.242 392.346 377.296 332.007 330.559 328.993 320.7 313 311.545 309.114 307.815 296.347 295.928 290.95 287.735 286.804 372.794 283.69 279.615
threshold=9.0977940736536328e-09 -0.099999997764825807 -0.39022763073444361 -0.099999997764825807 -1.4253687262535093 4.5454859320948065e-10 1.3371881842613222 -1.1224972605705259 1.5826821923255923 0.99498745799064647 0.05239111743867398 -1.0842310190200803 1.303459703922272 1.2714642286300661 -0.8040107488632201 0.93857723474502575 1.1161473393440249 -0.18148986250162122 -0.82100775837898243 -4.7642918161727712e-06 -1.0615606307983396 1.3922029733657839 -1.443442106246948 0.79558211565017711 1.0944677591323855 1.6438126564025881 0.93697628378868114 1.4414748549461367 -0.0081134592182934267 3.6612771148192285e-10 0.73596382141113292 0.099999997764825835 -0.28220671415328974 -5.9436339183704935e-10 1.3823857903480532 6.8389425234016707e-09 -0.8124038279056548 -1.1224971413612364 -2.4099702835083003 -0.54381939768791188 -1.0000000180025095e-35 1.1398805379867556 -0.8124038279056548 3.1000926494598393 6.8389425234016707e-09 -1.4933329224586485 -1.1224971413612364 2.0965691804885869 -1.765855014324188 -0.44446764886379236 0.10473203286528589 0.45544037222862249 -0.80400377511978138 2.7708030939102177 -1.7419345974922178 -0.80400377511978138 -0.8124038279056548 -0.92765444517135609 0.34979932010173803 7.9177784167758308e-27 0.76409253478050243 -0.79558202624320973
decision_type=2 2 2 2 2 2 2 2 2 2 2 2 2 2 2 2 2 2 2 2 2 2 2 2 2 2 2 2 2 2 2 2 2 2 10 2 10 10 10 2 2 2 10 2 2 2 2 2 2 10 2 2 2 2 10 2 10 2 2 2 2 2
left_child=1 3 4 17 8 7 20 12 32 10 22 28 29 18 39 -11 33 19 30 45 38 49 24 -12 -7 47 -22 -25 48 51 -9 -17 -3 -6 50 -36 -35 61 -4 -13 -32 42 -20 -23 -14 -1 -21 -8 -5 -15 -16 57 -47 -27 -10 -48 -40 -2 59 -24 -43 -18
right_child=5 2 6 11 16 9 25 13 54 15 23 14 44 21 34 31 37 -19 41 46 26 43 58 27 -26 53 -28 -29 -30 -31 40 -33 -34 36 35 -37 -38 -39 56 -41 -42 60 -44 -45 -46 52 55 -49 -50 -51 -52 -53 -54 -55 -56 -57 -58 -59 -60 -61 -62 -63
leaf_value=-0.021360194776023484 -0.010902701144943584 -0.0067726284545124287 -0.0058295268494747976 -0.016824817532718823 0.0097327401258381629 0.024376548873170978 0.0095494475480939773 0.024468193801261272 -0.021366955339267458 0.033282721823652696 0.0084030542848749119 -0.0085718090765397516 -0.0020751467095113589 0.019271578713893137 -0.0023810904871734116 0.0027462416680189131 0.018006847494765707 -0.026637073926124064 0.0053999838563826806 -0.024489615434434012 0.0013561034708027249 0.014412771991659291 0.02025059687281211 0.020016632393331884 0.0039034643667092408 0.01800764967343834 0.0047526130097191388 -0.00035321145085694062 -0.01944903027820731 -0.0003603098971958498 -0.020799852926401335 0.023848382688878213 -0.012168560506193471 -0.0039008101143665455 -0.011618667797556548 0.008340575318771656 -0.00079919052562926187 -0.0040370015130710684 0.006506479297470124 -0.019649723664569799 0.01322629647133293 -0.0071333782815787925 0.015139916828236474 -0.011391790371187746 -0.01792511569091219 -0.015733185953612672 -0.022568842609056526 0.013904337537498127 -0.0079253105581121655 0.027911590014938256 -0.0090582747719583842 -0.0011257962480822996 -0.0077447965111043489 0.0033083852519075136 -0.015749749968450355 -0.015874408832079669 0.012137986151338152 0.022380812783010212 0.03145694529932376 0.030157064992711587 0.0058622882001321073 -0.0096507374979862906
leaf_weight=5731.493034362793 252.70409640669823 38656.151469945908 1911.3022994995117 5965.0381927490234 3304.6770679205656 4160.8575365543365 53352.069000244141 7458.5814414918423 17543.222412109375 18981.142776489258 15869.504583448172 4882.3544006347656 2027.0892336815596 6186.4037507772446 12999.169413238764 1236.6399805545807 331.68200488388538 36635.239624023438 11814.533531188965 27184.133605957031 116915.93803653121 7831.9609069824219 7578.4161569029093 15216.914750963449 3007.7726285457611 22388.428314208984 124385.38641357422 1777.4867935180664 21585.317691802979 5255.1880242675543 335.42518852651119 26633.977893590927 33300.407673120499 135405.72079396248 1631.7195685356855 5617.1691052466631 75966.000884100795 21542.98244908452 18066.488708496094 7981.9594783037901 4525.5583167225122 2167.7717499732971 10882.602972045541 577.98928833007812 4584.354018881917 10876.131643667817 13665.771029904485 22220.1845703125 10015.682994842529 10310.302456498146 12293.670454025269 782.47787815332413 7276.1038223356009 1360.0463562011719 16312.821716308594 10516.195965334773 15206.56965637207 3118.8231774419546 9668.8906084746122 6228.7353793978691 4995.790225982666 40436.197755858302
leaf_count=13831 673 115365 3691 18195 10667 12947 165659 22295 35787 58780 48626 12651 4817 17358 34354 3818 778 118351 28105 53037 362753 24201 18915 45326 6825 63539 383932 4576 49537 12049 950 75618 83599 335851 5231 15585 232825 58326 42342 26208 14554 6988 33344 707 6760 28316 31659 70656 29461 32560 35793 2727 19477 2820 41643 23906 42085 9459 27864 18710 15704 84736
internal_value=-3.71987e-06 -0.00360735 -7.90567e-05 -0.0173435 -0.00607828 0.017756 0.00603181 0.0116589 -0.0122744 0.0223474 0.0188312 -0.0109997 -0.00138005 0.0147727 -0.00689586 0.0271135 -0.00371127 -0.022048 0.0113266 -0.0198138 0.00376399 0.0206087 0.0247557 0.0133069 0.0157866 0.0123449 0.00310693 0.0178861 -0.0159599 0.00683079 0.019106 0.0229121 -0.00926978 -0.00259339 -0.00351609 0.00384776 -0.0027861 -0.00756266 0.00827028 -0.0154454 0.0108784 0.00811713 0.01007 0.0126393 -0.0130655 -0.0146499 -0.0222148 0.0108299 -0.0112472 0.0246715 -0.00562656 0.0159282 -0.0125311 0.0171658 -0.0186604 -0.0196576 0.00908021 0.0198861 0.0274945 0.0247196 0.00192966 -0.00942572
internal_weight=1.14693e+06 953463 758606 194857 382800 193468 375806 83107.6 105813 110360 63508.6 82972.1 16020.6 67086.9 45406 46851.8 276987 111885 42180.3 75249.8 276486 24906.7 30644.7 32863.9 7168.63 99320.7 241301 16994.4 37566 9409.19 12319.6 27870.6 71956.6 214676 32541.7 7248.89 211372 62310.9 35184.4 12864.3 4860.98 29860.7 22697.1 8409.95 6611.44 23883.7 51366.1 75572.3 15980.7 16496.7 25292.8 4154.01 18152.2 23748.5 33856 24182 33273.1 3371.53 23476 13807.2 7163.56 40767.9
internal_count=3207902 2652646 2137054 515592 999577 555256 1137477 233251 276394 322005 183789 227015 36485 196766 129822 138216 723183 288577 121940 170226 834803 74826 85261 98528 19772 302674 746685 49902 97193 24908 37799 79436 198964 579343 90963 20816 568676 143840 88118 38859 15504 84141 61449 24908 11577 61624 108602 236315 47656 49918 70147 12859 47793 66359 77430 55565 84427 10132 65489 37625 22692 85514
is_linear=0
shrinkage=0.03


Tree=12
num_leaves=63
num_cat=0
split_feature=26 27 22 29 22 29 22 22 22 4 22 22 28 4 4 28 28 23 25 20 4 4 22 27 22 25 22 23 23 27 4 25 28 4 23 20 23 20 23 27 23 26 25 14 27 4 23 25 4 20 25 25 18 4 20 23 22 28 19 18 25 14
split_gain=74953 47837.8 28503.9 6119.59 6037.46 5486.01 5247.64 3441.64 1877.15 2119.85 1763.46 1469.28 1367.86 1266.21 1225.54 1190 1177.56 1064.11 1043.68 1024.06 852.236 821.156 753.175 729.281 691.484 659.605 641.765 611.839 607.085 593.684 589.553 577.075 538.106 444.545 442.791 440.754 435.495 419.32 400.192 382.519 374.166 367.985 364.862 364.74 359.806 357.347 352.725 343.817 660.01 432.808 300.49 293.456 287.222 283.968 278.081 261.803 291.546 256.657 355.474 245.667 242.65 327.805
threshold=9.0977940736536328e-09 -0.099999997764825807 -0.25176095962524409 -0.099999997764825807 -1.4933329224586485 4.5454859320948065e-10 1.3371881842613222 -1.2186056971549986 0.97528311610221874 0.05239111743867398 -1.2980470061302183 1.2714642286300661 -0.8040107488632201 0.76772898435592662 -0.34802392125129694 3.6612771148192285e-10 -0.8040107488632201 -0.78122290968894947 -1.1935803294181822 -4.7642918161727712e-06 -1.0615606307983396 1.602903485298157 -1.4253687262535093 0.79558211565017711 1.918430030345917 1.3823857903480532 1.0150902867317202 1.0000000180025095e-35 0.78388431668281566 0.099999997764825835 0.73596382141113292 -1.6985605359077451 6.8389425234016707e-09 -0.54381939768791188 0.29231773316860205 -0.012328396551311014 -0.037826841697096818 -0.023472817614674565 -0.60167688131332386 -1.0000000180025095e-35 -0.34226682782173151 -1.6785972714424131 -2.1067124605178829 2.886909127235413 1.3539149246177831e-09 1.6812230944633486 1.3128201961517336 -0.8124038279056548 0.017479752190411094 0.81157347559928905 -0.44446764886379236 -1.2433437705039976 -1.0000000180025095e-35 0.82891452312469494 -0.001008005521725863 0.73199942708015453 0.33409562706947332 0.2934058159589768 6.5120257980186533e-30 -1.6614695397265674e-08 2.4621080160140996 0.73078012466430675
decision_type=2 2 2 2 2 2 2 2 2 2 2 2 2 2 2 2 2 2 10 2 2 2 2 2 2 10 2 2 2 2 2 10 2 2 2 2 2 2 2 2 2 2 10 2 2 2 2 10 2 2 10 10 2 2 2 2 2 2 2 2 10 2
left_child=1 3 4 14 17 7 20 15 9 22 35 16 33 -10 19 44 30 31 38 41 27 50 -7 55 45 -14 51 42 37 -15 -9 -3 -27 -12 -17 -5 -26 -20 54 -32 -28 -1 -4 -23 -2 -8 52 49 -49 -18 59 -22 -21 -46 -6 56 -11 58 -24 -13 -25 -62
right_child=5 2 6 10 18 8 24 11 13 23 12 21 25 29 -16 34 47 -19 28 46 26 43 57 60 36 32 40 -29 -30 -31 39 -33 -34 -35 -36 -37 -38 -39 -40 -41 -42 -43 -44 -45 53 -47 -48 48 -50 -51 -52 -53 -54 -55 -56 -57 -58 -59 -60 -61 61 -63
leaf_value=0.020542123862699307 0.010387647228460768 0.017132501743075325 0.0084553459210028603 0.012318800731407058 -0.014838910624444585 -0.015258065912192023 -0.011091655562716971 -0.023126664220837277 -0.032320376382140671 -0.0022886306848665314 0.009241259152257297 -0.025623458272412251 0.006432677273668916 -0.0028896735606385305 0.025630905987824498 0.011815968639063193 -0.0065393252967967637 0.0069379952913610852 -0.01399590600141499 0.024145816052534477 0.0017653918678388742 -0.013145914327139834 -0.018997288167724384 -0.017767812798811254 -0.0083580614739831999 0.011472015237260354 -0.0013317523188507673 -0.01289559958412396 -0.00066235126580370407 -0.023069808776640565 0.020417319904366897 0.011670810051980278 -0.0077793238364544399 0.019404176678262091 -0.011023835206786041 0.020066381676474582 -0.016102681388240832 0.0034320851258782281 0.0033169471857225174 -0.012317682053849366 -0.0060103589982916121 0.01155084489429674 -0.0060033489493513869 0.010605258130748125 -0.014709473572595774 -0.0057484842646729675 0.011811309032591626 -0.018607406217887996 -0.0060838234052769044 0.0067642155475548284 -0.025999106527123197 -0.0023541609719621233 0.019291426118039912 0.0072320153498768303 0.0080451170847543781 -0.012897098766426002 -0.015184528552421056 -0.029910235111637942 -0.028824068937458161 -0.01352659880502086 -0.021227127528177459 0.018266768406158811
leaf_weight=5406.2879196554422 771.27496485412121 32269.565505981445 1739.3591747283936 11266.471879959106 481.96404725313187 7418.055290222168 40946.412139892578 8136.1284163445234 17239.873565673828 7787.8812063038349 6829.9964485168457 2378.1979448795319 32003.938620299101 1373.0068023502827 39716.732055664062 7608.823824301362 11727.994043588638 24642.683153152466 1251.6689567565918 26906.74487477541 17808.858543395996 6349.187629699707 7188.2261990010738 15654.518553465605 8025.7780450582504 1685.6195623874664 19415.648247003555 14453.010009765625 43594.466299891472 29551.57127687335 344.72719557583332 37812.206663131714 5813.6080491542816 8949.269024476409 849.19453591108322 15984.639814376831 35173.143463730812 169436.0429507494 25202.267196416855 4721.4410516470671 74090.336494207382 16911.333097800612 16205.897699356079 640.62344360351562 3955.6730115264654 15540.594146728516 3166.7222881317139 5744.2424996346235 11117.379825115204 2709.3640213012695 11502.660201758146 123392.57887154818 18520.032913386822 613.14618171751499 56850.508609235287 5918.987557888031 1978.6396427154541 9859.1756360381842 6145.4982322901487 4143.2059326469898 358.6304831802845 400.23693510890007
leaf_count=13636 1986 72501 3145 33719 1283 20381 125591 24041 52824 24020 17458 7154 88168 4274 129109 13483 29561 71680 4148 52479 53864 19561 17923 46389 24433 5436 60698 38763 128292 84328 981 105249 16185 29647 2371 36402 106703 447875 70371 15113 227046 43800 39220 846 11091 45947 8239 16809 35265 5634 36160 383437 41314 2090 126808 17354 6567 28312 18078 11105 1160 395
internal_value=4.84349e-06 0.00347135 7.63911e-05 0.0167996 0.00570582 -0.0169806 -0.00593289 -0.0111636 -0.0213516 -0.0179306 0.0106175 -0.0138801 0.00753862 -0.0258057 0.0214118 0.0025224 -0.0106102 0.0123002 0.00360134 0.0190487 -0.00374075 -0.0196975 -0.0235788 -0.0125442 -0.0118067 0.00455615 -0.00311116 -0.00830177 0.0024973 -0.0221738 -0.0181241 0.0141857 -0.00345215 0.0150052 0.00952283 0.0168633 -0.0146638 0.00330428 0.00646772 -0.0100902 -0.00503889 0.0137289 -0.00460193 -0.0109691 -0.00856536 -0.00962165 0.0214919 -0.00744076 -0.0103502 -0.00404274 -0.0230825 -0.00183459 0.0221667 -0.0117649 0.00785274 -0.00791852 -0.00490126 -0.0262402 -0.0235264 -0.017938 -0.0169647 -0.000397513
internal_weight=1.14568e+06 951494 758333 193161 391541 194188 366792 83313.3 110874 62709.8 82533.5 69515.2 55282.4 48164.5 110628 13798.1 44501.3 94724.5 296817 70911.1 267106 25013.9 30611 32098.9 99685.9 39503.2 234707 32398.3 214282 30924.6 13202.3 70081.8 7499.23 15779.3 8458.02 27251.1 43198.9 170688 82534.7 5066.17 93506 22317.6 17945.3 6989.81 5340.09 56487 48593.5 31299 16861.6 14437.4 18024.1 141201 45426.8 4568.82 57332.5 15685.5 9766.52 23192.9 13333.7 6521.4 16413.4 758.867
internal_count=3207902 2652646 2137054 515592 1028207 555256 1108847 233251 322005 180579 227015 202230 156894 141426 288577 31021 127404 249430 778777 159468 806173 74826 84694 95885 302674 109789 725045 81128 580315 88602 40135 177750 21621 47105 15854 70121 131136 452023 198462 16094 287744 57436 42365 20407 15167 171538 102032 87269 52074 35195 54419 437301 93793 13181 128091 47941 30587 64313 36001 18259 47944 1555
is_linear=0
shrinkage=0.03


Tree=13
num_leaves=1
num_cat=0
split_feature=
split_gain=
threshold=
decision_type=
left_child=
right_child=
leaf_value=0
leaf_weight=
leaf_count=3207902
internal_value=
internal_weight=
internal_count=
is_linear=0
shrinkage=1


Tree=14
num_leaves=63
num_cat=0
split_feature=26 27 22 29 22 29 22 22 22 4 22 22 28 4 4 28 28 23 25 20 4 4 22 27 22 25 22 23 23 27 4 25 28 4 23 20 23 20 23 27 23 26 25 14 27 4 23 25 4 20 25 25 18 4 20 23 22 28 19 18 25 14
split_gain=74953 47837.8 28503.9 6119.59 6037.46 5486.01 5247.64 3441.64 1877.15 2119.85 1763.46 1469.28 1367.86 1266.21 1225.54 1190 1177.56 1064.11 1043.68 1024.06 852.236 821.156 753.175 729.28 691.484 659.605 641.765 611.839 607.085 593.684 589.553 577.075 538.106 444.545 442.791 440.754 435.495 419.32 400.192 382.519 374.166 367.984 364.862 364.74 359.806 357.347 352.725 343.817 660.01 432.808 300.49 293.457 287.222 283.968 278.081 261.803 291.546 256.657 355.474 245.667 242.65 327.805
threshold=9.0977940736536328e-09 -0.099999997764825807 -0.25176095962524409 -0.099999997764825807 -1.4933329224586485 4.5454859320948065e-10 1.3371881842613222 -1.2186056971549986 0.97528311610221874 0.05239111743867398 -1.2980470061302183 1.2714642286300661 -0.8040107488632201 0.76772898435592662 -0.34802392125129694 3.6612771148192285e-10 -0.8040107488632201 -0.78122290968894947 -1.1935803294181822 -4.7642918161727712e-06 -1.0615606307983396 1.602903485298157 -1.4253687262535093 0.79558211565017711 1.918430030345917 1.3823857903480532 1.0150902867317202 1.0000000180025095e-35 0.78388431668281566 0.099999997764825835 0.73596382141113292 -1.6985605359077451 6.8389425234016707e-09 -0.54381939768791188 0.29231773316860205 -0.012328396551311014 -0.037826841697096818 -0.023472817614674565 -0.60167688131332386 -1.0000000180025095e-35 -0.34226682782173151 -1.6785972714424131 -2.1067124605178829 2.886909127235413 1.3539149246177831e-09 1.6812230944633486 1.3128201961517336 -0.8124038279056548 0.017479752190411094 0.81157347559928905 -0.44446764886379236 -1.2433437705039976 -1.0000000180025095e-35 0.82891452312469494 -0.001008005521725863 0.73199942708015453 0.33409562706947332 0.2934058159589768 6.5120257980186533e-30 -1.6614695397265674e-08 2.4621080160140996 0.73078012466430675
decision_type=2 2 2 2 2 2 2 2 2 2 2 2 2 2 2 2 2 2 10 2 2 2 2 2 2 10 2 2 2 2 2 10 2 2 2 2 2 2 2 2 2 2 10 2 2 2 2 10 2 2 10 10 2 2 2 2 2 2 2 2 10 2
left_child=1 3 4 14 17 7 20 15 9 22 35 16 33 -10 19 44 30 31 38 41 27 50 -7 55 45 -14 51 42 37 -15 -9 -3 -27 -12 -17 -5 -26 -20 54 -32 -28 -1 -4 -23 -2 -8 52 49 -49 -18 59 -22 -21 -46 -6 56 -11 58 -24 -13 -25 -62
right_child=5 2 6 10 18 8 24 11 13 23 12 21 25 29 -16 34 47 -19 28 46 26 43 57 60 36 32 40 -29 -30 -31 39 -33 -34 -35 -36 -37 -38 -39 -40 -41 -42 -43 -44 -45 53 -47 -48 48 -50 -51 -52 -53 -54 -55 -56 -57 -58 -59 -60 -61 61 -63
leaf_value=-0.020542123862699307 -0.010387646780350732 -0.017132501817393772 -0.0084553450243128776 -0.012318800650513941 0.014838910813182039 0.015258065900090675 0.011091655002471704 0.023126664218491425 0.03232037691524664 0.0022886307922023214 -0.0092412591126120602 0.02562345791377078 -0.0064326766817097078 0.0028896718218069778 -0.025630907318759343 -0.011815968640468667 0.0065393254156310542 -0.0069379953940878246 0.013995906569702879 -0.024145815304633788 -0.0017653935272091423 0.013145914165895098 0.018997284971399069 0.017767813215721847 0.0083580613335816102 -0.011472014697413676 0.0013317522908633836 0.012895599642035844 0.00066235125254135799 0.023069808776640565 -0.020417319904366897 -0.011670810204602587 0.0077793238364544399 -0.019404176717183003 0.011023834796156221 -0.020066381839789829 0.016102682047472724 -0.0034320852564087121 -0.003316946839738418 0.01231768204042554 0.0060103587084682003 -0.011550845457425671 0.0060033495843310834 -0.010605256513940075 0.014709473553196128 0.0057484839897801133 -0.01181130845528032 0.018607407363455911 0.0060838236848207057 -0.0067642154483731586 0.025999106352208395 0.0023541614229554979 -0.019291425257502701 -0.0072320154636124874 -0.0080451169487473027 0.012897098807274899 0.015184528532688417 0.029910235111637942 0.028824069075198171 0.013526599265548672 0.021227108500227777 -0.018266768388288002
leaf_weight=5406.2879196554422 771.27499537169933 32269.565414428711 1739.3591976165771 11266.47190284729 481.96404582262039 7418.055305480957 40946.414703369141 8136.128423973918 17239.873550415039 7787.8806379139423 6829.9964561462402 2378.1979591846466 32003.939104765654 1373.0071533024311 39716.730743408203 7608.8238085657358 11727.993997812271 24642.682083129883 1251.668924331665 26906.745320141315 17808.857831954956 6349.1876754760742 7188.2267743051052 15654.518469542265 8025.7781537771225 1685.6195051670074 19415.648273706436 14453.009979248047 43594.466060519218 29551.57127687335 344.72719557583332 37812.206359863281 5813.6080491542816 8949.2690168470144 849.19455164670944 15984.639852523804 35173.14237844944 169436.04613697529 25202.267013311386 4721.4410440176725 74090.339504003525 16911.332350119948 16205.8932056427 640.62351226806641 3955.6730182021856 15540.594451904297 3166.7222957611084 5744.2423747032881 11117.379645824432 2709.3640060424805 11502.660100668669 123392.57787400484 18520.034032046795 613.14617504179478 56850.508625924587 5918.9875674247742 1978.6396217346191 9859.1756360381842 6145.4982511252165 4143.2058744728565 358.63056710362434 400.23693510890007
leaf_count=13636 1986 72501 3145 33719 1283 20381 125591 24041 52824 24020 17458 7154 88168 4274 129109 13483 29561 71680 4148 52479 53864 19561 17923 46389 24433 5436 60698 38763 128292 84328 981 105249 16185 29647 2371 36402 106703 447875 70371 15113 227046 43800 39220 846 11091 45947 8239 16809 35265 5634 36160 383437 41314 2090 126808 17354 6567 28312 18078 11105 1160 395
internal_value=-4.84349e-06 -0.00347135 -7.63911e-05 -0.0167996 -0.00570582 0.0169806 0.00593289 0.0111636 0.0213516 0.0179306 -0.0106175 0.0138801 -0.00753862 0.0258057 -0.0214118 -0.0025224 0.0106102 -0.0123002 -0.00360134 -0.0190487 0.00374075 0.0196975 0.0235788 0.0125442 0.0118067 -0.00455615 0.00311116 0.00830177 -0.0024973 0.0221738 0.0181241 -0.0141857 0.00345215 -0.0150052 -0.00952283 -0.0168633 0.0146638 -0.00330428 -0.00646772 0.0100902 0.00503889 -0.0137289 0.00460193 0.0109691 0.00856536 0.00962165 -0.0214919 0.00744076 0.0103502 0.00404274 0.0230825 0.00183459 -0.0221667 0.0117649 -0.00785274 0.00791852 0.00490126 0.0262402 0.0235264 0.017938 0.0169647 0.000397506
internal_weight=1.14568e+06 951494 758333 193161 391541 194188 366792 83313.3 110874 62709.8 82533.5 69515.2 55282.4 48164.5 110628 13798.1 44501.3 94724.5 296817 70911.1 267106 25013.9 30611 32098.9 99685.9 39503.2 234707 32398.3 214282 30924.6 13202.3 70081.8 7499.23 15779.3 8458.02 27251.1 43198.9 170688 82534.7 5066.17 93506 22317.6 17945.3 6989.81 5340.09 56487 48593.5 31299 16861.6 14437.4 18024.1 141201 45426.8 4568.82 57332.5 15685.5 9766.52 23192.9 13333.7 6521.4 16413.4 758.868
internal_count=3207902 2652646 2137054 515592 1028207 555256 1108847 233251 322005 180579 227015 202230 156894 141426 288577 31021 127404 249430 778777 159468 806173 74826 84694 95885 302674 109789 725045 81128 580315 88602 40135 177750 21621 47105 15854 70121 131136 452023 198462 16094 287744 57436 42365 20407 15167 171538 102032 87269 52074 35195 54419 437301 93793 13181 128091 47941 30587 64313 36001 18259 47944 1555
is_linear=0
shrinkage=0.03


Tree=15
num_leaves=63
num_cat=0
split_feature=26 27 22 29 24 22 29 22 22 4 22 22 24 28 22 4 22 28 4 22 22 24 4 4 22 24 22 23 24 28 28 23 25 26 18 19 28 24 23 27 4 23 4 27 23 4 25 24 4 4 28 27 25 23 14 25 4 27 28 22 14 27
split_gain=68943.3 44591.8 26304.6 5805.15 5498.65 5053.98 5017.22 3161.73 1725.59 1868.37 1673.14 1654.91 1546.05 1273.66 1259.09 1176.1 1082.19 984.104 973.625 898.057 842.444 793.203 747.138 727.286 712.767 699.024 681.264 599.538 597.683 575.281 548.467 511.175 492.188 491.008 488.125 482.569 479.958 478.968 476.329 464.065 458.195 417.677 412.77 409.641 395.084 392.647 460.291 378.396 372.068 346.584 335.354 331.558 321.71 321.049 308.676 301.605 298.664 295.975 287.565 283.592 279.248 277.848
threshold=9.0977940736536328e-09 -0.099999997764825807 -0.39022763073444361 -0.099999997764825807 1.411061763763428 1.2186058163642886 4.5454859320948065e-10 -1.1224972605705259 1.1455647349357607 0.45544037222862249 -1.0842310190200803 -1.6824501752853391 1.303459703922272 -0.8040107488632201 1.3108752965927126 -0.34802392125129694 -1.6358280777931211 -0.881962090730667 1.0942625403404238 1.918430030345917 -1.5542785525321958 -0.32499736547470087 -1.2045484781265257 1.7665791511535647 0.76409253478050243 1.0351483225822451 -1.145567715167999 -1.0820888876914976 1.2165601253509524 3.6612771148192285e-10 0.97528281807899486 -0.47294883430004114 1.4081290960311892 -0.80400377511978138 0.001376986096147448 0.076672643423080458 6.8389425234016707e-09 -0.16142456233501432 0.9183318316936494 0.099999997764825835 1.0000000180025095e-35 0.93697622418403637 1.6420891284942629 -1.0000000180025095e-35 -0.2477910369634628 1.3753287792205813 -0.8124038279056548 -0.28220671415328974 -0.85904753208160389 -0.68485713005065907 6.8389425234016707e-09 0.099999997764825835 -2.1067124605178829 -0.21480012685060498 2.886909127235413 inf 0.086936157196760191 -5.9436339183704935e-10 -1.145567715167999 -1.765855014324188 3.51808774471283 0.6281908154487611
decision_type=2 2 2 2 2 2 2 2 2 2 2 2 2 2 2 2 2 2 2 2 2 2 2 2 2 2 2 2 2 2 2 2 10 2 2 2 2 2 2 2 2 2 2 2 2 2 10 2 2 2 2 2 8 2 2 8 2 2 2 2 2 2
left_child=1 3 4 15 11 22 7 12 9 20 34 47 29 48 17 26 44 40 -10 42 25 -13 31 -16 28 -8 -1 -23 30 -2 -11 52 56 -28 35 60 -34 -21 57 -26 -9 -18 53 -42 -6 46 -19 -3 -12 58 -14 -20 -4 -7 -25 -33 -15 -24 -22 -36 -5 -51
right_child=6 2 5 10 16 19 8 14 18 24 13 21 50 32 23 -17 41 45 51 37 49 27 38 54 39 -27 33 -29 -30 -31 -32 55 36 -35 59 -37 -38 -39 -40 -41 43 -43 -44 -45 -46 -47 -48 -49 -50 61 -52 -53 -54 -55 -56 -57 -58 -59 -60 -61 -62 -63
leaf_value=0.021459395081696159 -0.014788320315363573 0.0073984084890522132 0.010222720231563624 0.022134758702286796 0.019238096763627314 -0.0057720546857820011 -0.020762688577120162 -0.024505550795991333 -0.030714586731829089 -0.0085073231661918179 0.0068542931762031233 0.0014914638319602339 0.0023506122495116047 0.0019506958383708746 -0.022029769651744059 0.024972898520793888 0.011046143769677294 -0.0053441093914890509 -0.0035968400743344518 -0.010348414154901656 -0.02047913282054727 0.0072430481385467689 -0.011523215711989917 -0.012107080315869061 0.0049233665173761178 -0.0014616328414229311 0.018518431977987762 0.0033101762007076885 0.001090704988850997 0.00013283216344523322 -0.022594142901741082 -0.012214808126785296 0.010834564687905132 0.011338037751461805 0.016162457370680332 0.011962787361782811 -0.0080642790935662751 -0.016728428999642012 -0.0041217030596036614 -0.018973575772436614 0.014593972005190629 -0.0008861971071490349 -0.0052024828065926638 -0.014690273198497299 0.0091528538766654424 -0.00085097831885628215 -0.01332696144490806 0.01325258058966926 0.017923359762395744 -0.015413709381230141 0.017020740599937204 -0.022002375313067531 -0.0051166115559767005 -0.011218452811014912 0.010584639546420438 0.024893647377282131 0.0084508886933380833 -0.0011525941218293999 -0.029242906424587784 0.0077809347206536988 -0.00089744252881704823 -0.023928244005802558
leaf_weight=34840.305709838867 4179.0973628908396 26169.14044547081 1381.835823059082 13176.395051956177 26749.019039809704 12505.498880565166 3986.9414793252945 5269.8888238668442 17639.203887939453 11583.224511638284 3989.4943809509277 126624.1799890995 2030.9586585313082 12910.858938246965 18101.265243530273 39144.307830810547 25831.296097189188 12851.088199108839 919.93075135350227 18386.64305151999 4548.602940350771 54033.587226867676 2526.9048832058907 4988.0180358886719 775.3996721804142 2929.7574037313461 20715.349989324808 98439.310176610947 4377.595112323761 5243.0933872312307 3167.8192539066076 14246.882015228271 1557.2352473735809 14620.254609674215 5810.8081970214844 7821.0666217803955 5414.6923820972443 24975.486953362823 100359.47090530396 12879.764848083258 462.6036010235548 2940.7341152131557 22396.667953491211 6083.222639515996 4021.4768708348274 5969.9440088272095 13155.171638771892 16020.37078499794 8677.7724395394325 5526.9152711182833 4531.5561577528715 20738.240177601576 11238.527378082275 44060.823125660419 604.95826721191406 199.88807678222656 12541.310779571533 124876.29585275054 13002.051001757383 9695.0815811157227 491.43251419067383 9175.7666560858488
leaf_count=73493 12859 79270 2365 26724 61647 37635 12575 15264 54428 36384 10109 370913 4817 34254 54565 129109 58639 31032 2794 59090 11201 126355 7968 15232 2409 6920 50409 241997 11169 12049 9203 37625 5032 35566 17421 24360 15007 72046 308382 38253 1373 7722 66845 19441 10859 18761 40323 42175 28750 17081 6760 57021 26416 134963 775 234 36670 383908 34773 28413 275 27794
internal_value=5.82189e-06 0.00334099 7.38015e-05 0.0162793 0.00563543 -0.005542 -0.0162552 -0.0106958 -0.0204264 -0.0176652 0.0102501 0.00408357 0.00130119 0.00637055 -0.0135374 0.0208066 0.0140091 -0.0105232 -0.0254821 -0.0105544 -0.0220878 0.00324645 -0.00313592 -0.0191082 -0.0123811 -0.0125872 0.0184826 0.00470391 -0.00864367 -0.00648526 -0.0115325 -0.00784804 0.00321911 0.0155475 0.0149786 0.0179059 -0.00384307 -0.0140231 -0.00257593 -0.0176166 -0.0179214 0.00982656 -0.00864956 -0.0126207 0.01792 -0.00778943 -0.00938221 0.00962138 0.0144372 -0.0241252 0.0124806 -0.0212206 -0.00343707 -0.0100144 -0.00965265 -0.0117014 0.0051536 -0.00135828 -0.0269716 0.0109219 0.0213066 -0.0207275
internal_weight=1.14411e+06 949390 757984 191406 380829 377155 194722 83470.9 111251 71953.8 82086.1 321287 15984.7 45091.4 67486.2 109320 59542.5 43791.9 39297.4 122325 39170 279097 254830 23694.2 32783.8 6916.7 70175.9 152473 19128.6 9422.19 14751 27067.1 32424.1 35335.6 36994.8 21488.9 6971.93 43362.1 227763 13655.2 11815.7 28772 78963 6545.83 30770.5 31976.2 26006.3 42189.5 12667.3 32253.3 6562.51 21658.2 12620.4 56566.3 5592.98 14446.8 25452.2 127403 17550.7 15505.9 13667.8 14702.7
internal_count=3207902 2652646 2137054 515592 999577 1137477 555256 233251 322005 207762 227015 860710 36485 129822 196766 288577 138867 126194 114243 370579 110344 739265 766898 70572 97418 19495 159468 368352 56756 24908 45587 66640 90963 85975 97193 51359 20039 131136 700258 40662 36078 66361 239443 20814 72506 90116 71355 121445 38859 90849 11577 59815 28781 172598 16007 37859 70924 391876 45974 45834 26999 44875
is_linear=0
shrinkage=0.03


Tree=16
num_leaves=1
num_cat=0
split_feature=
split_gain=
threshold=
decision_type=
left_child=
right_child=
leaf_value=0
leaf_weight=
leaf_count=3207902
internal_value=
internal_weight=
internal_count=
is_linear=0
shrinkage=1


Tree=17
num_leaves=63
num_cat=0
split_feature=26 27 22 29 24 22 29 22 22 4 22 22 24 22 4 22 20 4 22 22 24 4 4 22 4 24 20 23 24 23 24 23 27 27 19 23 23 4 4 26 23 24 22 19 4 23 23 27 27 23 4 22 14 22 27 20 26 27 18 23 21 18
split_gain=68943.3 44591.8 26304.6 5805.15 5498.65 5053.98 5017.21 3161.73 1725.59 1868.37 1673.14 1654.91 1546.05 1259.09 1176.1 1082.19 976.375 973.626 898.057 842.444 793.203 747.138 727.286 712.767 702.562 699.024 646.793 599.538 597.683 511.175 478.968 476.329 464.065 454.824 431.45 525.348 417.677 412.77 399.905 422.398 395.084 378.396 363.274 347.176 346.584 336.048 335.637 331.558 328.382 321.049 320.225 311.454 308.676 303.697 295.975 294.61 283.928 277.849 276.189 274.805 263.841 254.74
threshold=9.0977940736536328e-09 -0.099999997764825807 -0.39022763073444361 -0.099999997764825807 1.411061763763428 1.2186058163642886 4.5454859320948065e-10 -1.1224972605705259 1.1455647349357607 0.45544037222862249 -1.0842310190200803 -1.6824501752853391 1.303459703922272 1.3108752965927126 -0.34802392125129694 -1.6358280777931211 -4.7642918161727712e-06 1.0942625403404238 1.918430030345917 -1.5542785525321958 -0.32499736547470087 -1.2045484781265257 1.7665791511535647 0.76409253478050243 1.047351658344269 1.0351483225822451 -0.0081134592182934267 -1.0820888876914976 1.2165601253509524 -0.47294883430004114 -0.16142456233501432 0.9183318316936494 0.099999997764825835 0.98513510823249828 2.0166105059615805e-05 0.43882869184017187 0.93697622418403637 1.6420891284942629 0.10473203286528589 -0.80400377511978138 -0.2477910369634628 -0.28220671415328974 -1.4933329224586485 0.00072294313577003788 -0.68485713005065907 1.3128201961517336 0.55916255712509166 0.099999997764825835 -9.3062288430978402e-10 -0.21480012685060498 -1.0969620943069456 1.8102261424064638 2.886909127235413 0.79084056615829479 -5.9436339183704935e-10 -1.1318478931876539e-09 -0.82943663001060475 0.6281908154487611 -1.0000000180025095e-35 -0.95595303177833546 1.0000000180025095e-35 4.4758426298585625e-08
decision_type=2 2 2 2 2 2 2 2 2 2 2 2 2 2 2 2 2 2 2 2 2 2 2 2 2 2 2 2 2 2 2 2 2 2 2 2 2 2 2 2 2 2 2 2 2 2 2 2 2 2 2 2 2 2 2 2 2 2 2 2 2 2
left_child=1 3 4 14 11 21 7 12 9 19 26 41 43 24 16 40 42 -10 37 25 55 29 -15 28 34 -8 50 -22 33 -4 -20 54 -25 -11 35 -9 -17 49 39 -12 -6 -3 -1 -2 59 58 -40 -19 -26 -7 -5 -48 -24 -50 -23 -13 -44 -46 -18 -21 -39 -28
right_child=6 2 5 10 15 18 8 13 17 23 38 20 -14 22 -16 36 45 47 30 44 27 31 52 32 48 -27 61 -29 -30 -31 -32 -33 -34 -35 -36 -37 -38 60 46 -41 -42 -43 56 -45 57 -47 51 -49 53 -51 -52 -53 -54 -55 -56 -57 -58 -59 -60 -61 -62 -63
leaf_value=-0.020059061760540713 0.0027485939032713775 -0.007398408469136206 0.0034370688597533915 -0.0054727358267473852 -0.019238097237288507 0.0057720546763461609 0.020762688454604387 0.0061265739104526887 0.030714588757910999 0.0075397577932483518 -0.0070676720066380084 0.0083026122313565459 -0.012480648106305899 0.022029769419009582 -0.024972897979445862 -0.01104614330784197 -0.023507451700643764 0.0035968358941760644 0.010348414086013264 0.022772432818271265 -0.0072430482090041267 0.011523215711989917 0.012107080433779678 -0.004923370460638273 -0.019942272464249483 0.0014616327890060604 -0.020402684129130801 -0.0033101765567195639 -0.0010907049783053528 0.011701367996816144 0.016728429352225863 0.0041217033455390045 0.018973575772436614 0.018482608159048678 0.017481633506927351 0.016141320807643241 0.00088619707782911156 0.0056814551949876321 -0.013404878787674639 0.0014098528560836261 -0.009152852278622536 -0.013252581136968764 -0.01436028206781275 0.015360010799961346 0.015413703805637021 -0.011410519820528041 -0.0079994440003101786 0.022002375313067531 -0.0026307360728214887 0.011218452383484212 -0.014099115945604857 0.0045216342757979835 -0.010584639500654552 0.008278315537175486 0.0011525941601841147 -0.0017052649185305933 -0.0064302118754673418 0.023928244005802558 -0.018719000050534899 0.030327511838519831 -0.016933073881003395 -0.012996016008348236
leaf_weight=5378.5195388793945 6630.4660595655441 26169.140384435654 12620.363178253174 6804.1898727416992 26749.018883883953 12505.498825728893 3986.9415594339371 11589.265317186713 17639.203201293945 9368.799630522728 12299.297911673784 2705.1072938591242 6562.5148315429688 18101.265289306641 39144.308532714844 25831.296837240458 26539.387930035591 919.93067505955696 18386.643019095063 7795.8749863803387 54033.58667755127 2526.9048832058907 4988.0179672241211 775.39974847435951 475.01344873011112 2929.7573999166489 15475.087858557701 98439.307277441025 4377.5951218605042 14446.772403717041 24975.486741647124 100359.46772956848 12879.764848083258 5382.2443696260452 11716.690829277039 7946.7544793188572 2940.7341075837612 21922.30960431695 9566.5211361795664 9281.3124833703041 4021.4764164090157 16020.371578454971 9883.2677834779024 2791.7246600389481 5526.916937187314 3147.235330581665 11838.22157202661 20738.240177601576 3086.2413239330053 44060.824904739857 8990.0975074768066 2106.011079788208 604.95829010009766 8977.9525809288025 124876.29991349578 123919.07092522085 6900.6325690001249 9175.7666560858488 18326.866454958916 9754.7786028683186 474.35805925726891 5725.4087120294571
leaf_count=13067 16381 79270 28781 17193 61647 37635 12575 28708 54428 29313 32905 8854 11577 54565 129109 58639 52479 2794 59090 18922 126355 7968 15232 2409 1462 6920 33585 241997 11169 37859 72046 308382 38253 16274 33955 23871 7722 65255 29901 25639 10859 42175 25867 8527 17081 8239 35217 57021 10083 134963 30463 6160 775 28115 383908 362059 18502 27794 41314 27052 1590 15952
internal_value=-5.82189e-06 -0.00334099 -7.38015e-05 -0.0162793 -0.00563543 0.005542 0.0162552 0.0106958 0.0204264 0.0176652 -0.0102501 -0.00408357 -0.00130118 0.0135374 -0.0208066 -0.0140091 -0.0184826 0.0254821 0.0105544 0.0220878 -0.00324645 0.00313592 0.0191082 0.0123811 0.0105232 0.0125872 -0.0149786 -0.00470391 0.00864367 0.00784804 0.0140231 0.00257593 0.0176166 0.0115325 0.0129301 0.0102003 -0.00982656 0.00864956 -0.00637055 -0.00342169 -0.01792 -0.00962138 -0.0132741 0.00648526 0.0241252 -0.0208867 -0.00907732 0.0212206 0.00452424 0.0100144 -0.0103829 -0.00610837 0.00965265 0.00548758 0.00135828 -0.00149146 -0.0110999 0.0207275 -0.0215515 0.0269716 0.00520248 -0.0184024
internal_weight=1.14411e+06 949390 757984 191406 380829 377155 194722 83470.9 111251 71953.8 82086.1 321287 15984.7 67486.2 109320 59542.5 70175.9 39297.4 122325 39170 279097 254830 23694.2 32783.8 43791.9 6916.7 36994.8 152473 19128.6 27067.1 43362.1 227763 13655.2 14751 31252.7 19536 28772 78963 45091.4 21580.6 30770.5 42189.5 22162.4 9422.19 32253.3 48013.5 23510.8 21658.2 12539.2 56566.3 15794.3 13944.2 5592.98 12064.2 127403 126624 16783.9 14702.7 44866.3 17550.7 22396.7 21200.5
internal_count=3207902 2652646 2137054 515592 999577 1137477 555256 233251 322005 207762 227015 860710 36485 196766 288577 138867 159468 114243 370579 110344 739265 766898 70572 97418 126194 19495 97193 368352 56756 66640 131136 700258 40662 45587 86534 52579 66361 239443 129822 58544 72506 121445 57436 24908 90849 102032 71278 59815 39660 172598 47656 41377 16007 38198 391876 370913 44369 44875 93793 45974 66845 49537
is_linear=0
shrinkage=0.03


Tree=18
num_leaves=63
num_cat=0
split_feature=27 27 22 22 22 22 20 22 4 4 22 4 23 22 23 20 23 4 23 22 22 20 20 27 23 23 23 28 18 18 4 18 19 27 7 20 18 28 23 9 28 4 4 23 23 23 27 4 22 4 4 7 18 28 23 21 4 23 19 19 23 22
split_gain=62057.4 36947.4 24299.6 5070.65 4678.83 4562.2 2341.73 2022.56 1425.6 1403.69 1333.35 973.941 945.625 801.178 758.977 731.377 760.003 633.577 624.403 607.247 599.044 532.332 516.398 493.222 475.614 451.678 448.362 432.297 425.468 400.287 388.558 371.499 365.401 353.445 346.24 343.718 342.098 332.229 329.77 328.377 304.65 296.102 293.027 276.637 275.87 274.918 273.793 267.911 252.946 249.319 242.726 242.565 232.502 231.919 255.297 227.174 221.914 219.691 213.494 210.798 211.071 210.29
threshold=8.5159312934735009e-10 -0.099999997764825807 -0.35343691706657404 -1.4253687262535093 1.2186058163642886 0.93697628378868114 -0.0023321254411712285 -1.2980470061302183 0.93857723474502575 0.5235891342163087 -1.0150901079177854 -1.1139650940895078 -1.0150902867317197 1.7768632769584658 -1.0820888876914976 -1.1405297817290714e-09 1.0000000180025095e-35 -1.2045484781265257 0.76031756401062023 -1.765855014324188 -2.0170171260833736 0.81157347559928905 -0.0047823009081184855 -5.9436339183704935e-10 -0.72304695844650257 -1.0000000180025095e-35 0.93697628378868114 9.0204849145791865e-10 1.6986735843350749e-14 -2.0526504801443577e-10 0.40493161976337438 -1.0000000180025095e-35 0.00023334474826697263 0.79558211565017711 0.01588226389139891 0.12192051485180856 -0.31290905177593226 3.6612771148192285e-10 1.2186058163642886 0.4171204417943955 -2.9583865357452051e-09 1.0634006857872011 1.4423632025718691 -0.21480012685060498 -0.47294883430004114 1.4131984710693362 -5.9436339183704935e-10 -0.90945810079574574 -1.4589399099349973 2.7708030939102177 -3.3106387853622432 1.8883624672889712 4.4758426298585625e-08 -0.47520764172077173 -0.10851727798581122 1.4020109772682192 1.0160469412803652 1.3128201961517336 -1.0000000180025095e-35 -0.036572998389601701 1.0356158614158633 0.33409562706947332
decision_type=2 2 2 2 2 2 2 2 2 2 2 2 2 2 2 2 2 2 2 2 2 2 2 2 2 2 2 2 2 2 2 2 2 2 2 2 2 2 2 2 2 2 2 2 2 2 2 2 2 2 2 2 2 2 2 2 2 2 2 2 2 2
left_child=1 6 3 12 17 7 11 18 29 15 31 19 20 39 41 36 40 24 22 -1 -3 28 56 -16 -4 -15 46 30 38 -7 48 32 -8 61 -25 45 -9 -24 -12 -6 -17 50 -20 55 -41 58 -19 -33 -13 -37 -5 -45 -30 -31 -55 -21 -2 -14 -10 -29 -61 -11
right_child=5 2 4 14 13 8 10 9 35 33 21 27 57 25 23 16 -18 26 42 43 -22 -23 37 34 -26 -27 -28 59 52 53 -32 47 -34 -35 -36 49 -38 -39 -40 44 -42 -43 -44 51 -46 -47 -48 -49 -50 -51 -52 -53 -54 54 -56 -57 -58 -59 -60 60 -62 -63
leaf_value=0.015662936047323574 -0.0097452236988803224 0.016344822573821197 -0.0024769464699582857 0.017408502974831465 -0.01019143259597775 -0.027133816729732148 0.024394261810901378 -0.026281983598036816 -0.017093906116095417 -0.0018890375109805917 0.016215839693791246 0.020209559213127112 0.008513898498687977 -0.0072473993281568774 -0.010027969432061598 -0.01433127052916777 -0.019717619080826636 -0.010872314465428174 -0.018504361502202908 0.0038083634735152725 0.010767280812131583 0.01859229596660484 -0.003798067238000202 0.0015216583994052989 -0.010792406597236785 -0.014459351383034461 -0.00403006920539805 0.0049191470766610122 -0.0012322935059050936 -0.025026104309257051 0.019714096362399427 0.015370651501253718 0.017431067175841492 -0.011219455443691595 0.0042575725474142626 -0.020746240103151868 -0.017939616129443149 0.004809097822920853 0.0084047659525930199 0.00049785794179872341 -0.007029839277895516 0.012799950817415856 0.0035780096301974828 0.00068390632497208057 -0.0071325621047970853 -0.018312681938268977 -0.0010815908789754921 0.021678164010286553 0.01022404151512526 -0.009089253275047374 0.0050859558103403214 -0.017007661103153514 0.009768788924639565 -0.012700563330892636 -0.021317843109493164 0.012075933863014667 0.0043052716291872772 0.0028190151685241792 -0.010485414760842738 0.013681356565437145 0.0072143408387464938 -0.0090766463768521526
leaf_weight=4792.4494247436523 8035.1264737844467 31411.59423828125 10418.041355133057 1464.1676025390625 33641.916137695312 17875.147642493248 25344.031515598297 6160.407096862793 6220.8126479685307 9109.1394723206758 22697.130385816097 2899.2730083465576 21857.068771362305 9662.026784658432 2855.7733634114265 8527.4619961827993 10685.798052251339 2624.7128134965897 3395.457846224308 12199.178641706705 38661.189865112305 17778.894714355469 7368.1479844599962 111951.35009711981 15255.279956817627 40899.219675302505 92240.873266220093 5144.6555480957031 2003.5528563857079 9460.669793099165 12204.584213256836 15932.226547241211 9261.0282547473907 15446.513844177127 66276.829721689224 16305.647926330566 15695.322855234146 8924.8985329717398 6191.363338470459 4998.4700599908829 12959.047929465771 5021.702091217041 643.29044246673584 4658.3440012931824 29033.784700751305 10720.373123168945 124696.36516185105 9781.5154402256012 10743.191406220198 1837.3739013671875 82569.017364501953 820.31567573547363 12618.176208496094 4153.3542654812336 12133.422293066978 3962.8746100366116 1157.4106903076172 8454.8646545410156 15029.193890422583 14720.164711028337 6569.2381687164307 6127.976432800293
leaf_count=11409 22071 82548 23691 1405 103414 54970 48260 19483 19713 28734 60530 9489 61890 29162 9104 20863 30255 8243 10465 30450 95423 53078 20375 325008 39284 122790 282872 17823 2096 28145 43393 34281 26322 44920 150552 48348 43847 18703 18577 14999 31233 16330 1734 13833 86405 29785 382500 30416 34437 3900 205423 1801 34941 11745 36222 9789 3921 25962 44697 46199 20604 19040
internal_value=6.66237e-06 0.00330569 0.000189062 0.00559537 -0.00532215 -0.0148142 0.0147252 -0.0107893 -0.0197194 -0.0131459 0.0173348 0.0106936 0.0113525 -0.0102242 0.00345601 -0.0160562 -0.0131793 -0.00295875 -0.00402767 0.00600051 0.0132675 0.0142184 -0.00229091 0.00234086 -0.00741806 -0.0130812 -0.00243733 0.0130664 0.0124312 -0.0236848 0.0158252 0.0205013 0.0225308 -0.00802156 0.00253905 -0.0162676 -0.0202911 0.000916709 0.0145418 -0.00808959 -0.0099276 0.00572354 -0.0149871 0.00386071 -0.00601185 -0.014396 -0.00128343 0.01777 0.0123461 -0.0195657 0.00530066 -0.00196504 0.00826136 -0.0212903 -0.0191203 0.00583554 -0.00797616 0.00692543 -0.01242 0.0103689 0.0116858 -0.00477971
internal_weight=1.14229e+06 934316 733994 370524 363471 207972 200322 114236 93736 84711.7 121608 78714.3 100385 118235 270139 54028 32172.3 245235 29524.3 26433.2 70072.8 61289.1 25485.6 181084 25673.3 50561.2 219562 52281.1 43510.2 43622.6 25847 60318.8 34605.1 30683.6 178228 50113.4 21855.7 16293 28888.5 67674.2 21486.5 89054.9 4038.75 21640.7 34032.3 31970.4 127321 25713.7 13642.5 18143 84033.2 5478.66 14621.7 25747.4 16286.8 16162.1 9192.54 30311.9 21250 26434.1 21289.4 15237.1
