tree
version=v4
num_class=3
num_tree_per_iteration=3
label_index=0
max_feature_idx=29
objective=multiclass num_class:3
feature_names=ofi_10 ofi_30 obi_1 obi_5 microprice microprice_vs_mid cvd_delta_10 cvd_delta_30 cvd_slope volume_imbalance_10 volume_zscore_20 return_1 return_5 return_10 realized_vol_20 return_autocorr_10 spread spread_zscore_50 regime_p_trending regime_p_ranging regime_p_highvol regime_bars_in bb_pctb_1m rsi_14_1m atr_ratio_1m obv_slope_1m donchian_pos_5m stoch_k_14_5m bb_width_5m ema_cross_5m
feature_infos=[-9.4300804138183594:8.9617195129394531] [-9.4103994369506836:8.8453559875488281] [-5.9460697174072266:5.3323574066162109] [-4.5003242492675781:4.9683747291564941] [-9.8876352310180664:9.5353965759277344] [-5.9460697174072266:5.3323574066162109] [-3.4190998077392578:9.8301773071289062] [-4.1438994407653809:9.3568239212036133] [-3.7502186298370361:8.5267391204833984] [-4.5903429985046387:4.5595302581787109] [-2.3800134658813477:4.7982430458068848] [-9.8973722457885742:9.8852529525756836] [-9.891810417175293:9.8262090682983398] [-9.8866510391235352:9.7466936111450195] [-4.6626887321472168:9.8976516723632812] [-3.7000985145568848:4.9911708831787109] [-2.5869672298431396:9.6459369659423828] [-3.0922620296478271:6.2541418075561523] [-26.787710189819336:20.881301879882812] [-9.9447994232177734:11.852939605712891] [-23.862585067749023:88.104049682617188] [-9.8999996185302734:9.9000043869018555] [-9.899998664855957:9.8999996185302734] [-9.9000005722045898:9.9000005722045898] [-9.8999996185302734:9.9000005722045898] [-9.8999900817871094:9.8997516632080078] [-9.9000053405761719:9.9001026153564453] [-9.9000082015991211:9.90203857421875] [-10.23249340057373:26.229282379150391] [-9.901057243347168:9.9027633666992188]
tree_sizes=7108 246 7078 7217 228 7217 7185 228 7195 7187 229 7170 7217 229 7186 7166 229 7183 7212 229 7204 7209 229 7241 7242 229 7179 7215 229 7192 7197 229 7206 7208 229 7206 7250 229 7221 7193 229 7226 7207 229 7211 7240 229 7224 7229 229 7236 7222 229 7194 7265 229 7227 7244 229 7226 7239 229 7198 7224 229 7252 7219 229 7224 7243 229 7220 7217 229 7199 7244 229 7203 7225 229 7225 7237 229 7249 7253 229 7232 7265 229 7284 7235 229 7269 7264 229 7234 7241 229 7240 7284 230 7226 7246 230 7254 7237 230 7252 7214 230 7262 7275 230 7269 7244 230 7248 7234 230 7276 7258 230 7302 7277 230 7307 7256 230 7283 7232 230 7283 7275 230 7283 7257 230 7241 7296 230 7209 7222 230 7274 7230 230 7263 7267 230 7292 7248 230 7255 7221 230 7218 7251 230 7282 7286 230 7253 7266 230 7250 7279 230 7336 7278 230 7267 7272 230 7297 7285 230 7290 7290 230 7315 7308 230 7314 7278 230 7295 7232 230 7278 7256 230 7241 7294 230 7267 7287 230 7265 7306 230 7261 7249 230 7299 7280 230 7261 7231 230 7277 7272 230 7274 7210 230 7278 7260 230 7290 7226 230 7233 7237 230 7249 7226 230 7211 7250 230 7266 7277 230 7265 7248 230 7288 7240 230 7250 7240 230 7224 7258 230 7270 7259 230 7224 7281 230 7284 7263 230 7282 7298 230 7284 7268 230 7238 7238 230 7287 7274 230 7277 7237 230 7278 7255 230 7227 7218 230 7263 7308 230 7268 7305 230 7265 7287 230 7281 7239 230 7219 7229 230 7263 7232 230 7250 7255 230 7260 7312 230 7298 7269 230 7265 7282 230 7275 7270 230 7286 7239 230 7263 7280 230 7235 7237 230 7295 7251 230 7250 7221 230 7242 7242 230 7260 7260 230 7219 7247 230 7264 7229 230 7241 7162 230 7215 7246 230 7264 7303 230 7274 7270 230 7200 7238 230 7255 7194 230 7220 7209 230 7263 7269 230 7285 7231 230 7293 7258 230 7284 7257 230 7343 7249 230 7284 7227 230 7234 7248 230 7270 7238 230 7180 7250 230 7259 7273 230 7295 7259 230 7211 7313 230 7357 7199 230 7218 7276 230 7310 7294 230 7281 7250 230 7282 7200 230 7227 7226 230 7243 7271 230 7336 7245 230 7231 7286 230 7289 7266 230 7313 7243 230 7227 7285 230 7252 7200 230 7219 7273 230 7279 7320 230 7303 7227 230 7266 7283 230 7319 7237 230 7244 7250 230 7263 7217 230 7204 7284 230 7279 7281 230 7304 7195 230 7311 7274 230 7282 7236 230 7285 7174 230 7233 7242 230 7198 7273 230 7317 7169 230 7317 7209 230 7265 7309 230 7340 7211 230 7183 7289 230 7216 7212 230 7273 7171 230 7305 7247 230 7200 7222 230 7234 7142 230 7204 7264 230 7265 7235 230 7225 7279 230 7208 7261 230 7260 7218 230 7235 7200 230 7248 7222 230 7232 7192 230 5153 7248 230 7285 7163 230 7218 5059 230 7274 7257 230 7271 7139 230 7153 7224 230 7244 7194 230 7202 7189 230 7260 7202 230 7200 7219 230 7160 7080 230 7119 7243 230 7240 7194 230 7185 7317 230 7288 7247 230 7235 7227 230 7171 7302 230 7296 7154 230 6855 7088 230 6999 7276 230 7260 7201 230 7250 7302 230 7210 7188 230 7164 7146 230 7221 7347 230 7302 7181 230 7192 7256 230 7235 7080 230 7177 7249 230 7228 7277 230 7258 7131 230 6896 7277 230 7305 7253 230 7183 7228 230 7226 7281 230 7305 7250 230 7277 7071 230 7102 7180 230 7235 7129 230 7132 7227 230 5143 7262 230 7239 7229 230 7172 7292 230 7336 7172 230 6884 7163 230 7147 7235 230 7193 7199 230 7245 7177 230 7201 7270 230 7287 5007 230 5022 7246 230 7196 7239 230 7298 7255 230 7257 7218 230 7214 7257 230 7261 7151 230 7198 7185 230 7182 7275 230 7259 7287 230 7293 7244 230 7226 7297 230 7293 7217 230 7224 7196 230 7190 7107 230 5240 7187 230 7200 7263 230 7249 4329 230 7256 7182 230 7189 7247 230 7264 7124 230 7106 7235 230 7247 7252 230 7246 7232 230 7126 7153 230 7177 7237 230 7253 7268 230 7206 7274 230 7288 7217 230 7053 7101 230 7137 7234 230 7203 7242 230 7158 7202 230 7225 7260 230 7247

Tree=0
num_leaves=63
num_cat=0
split_feature=26 27 23 25 23 23 25 20 4 4 4 23 18 23 27 25 19 27 25 25 25 19 28 26 25 25 20 27 20 23 23 23 27 26 27 28 23 23 27 14 4 20 4 19 28 4 25 20 26 13 19 23 18 26 28 25 20 28 28 8 23 7
split_gain=105014 63429.5 24931.5 6304.41 4159.75 3863.09 3296.2 2290.5 2118.42 1320.12 1274.02 1162.97 1079.26 1073.61 1040.31 1021.38 915.026 912.727 845.928 804.567 772.128 740.678 680.823 660.77 593.041 569.821 550.882 541.503 504.678 501.795 495.854 490.254 475.695 452.571 450.354 444.452 442.195 422.614 419.193 383.267 374.412 346.141 342.636 318.234 302.292 301.952 342.655 301.281 386.221 298.247 290.553 272.921 267.327 259.262 248.551 246.519 236.344 234.175 230.467 224.728 223.53 227.417
threshold=9.0977940736536328e-09 -0.099999997764825807 -0.2477910369634628 -1.3346390128135679 1.23242723941803 1.0356158614158633 -1.3472693562507627 -0.0023321254411712285 0.82891452312469494 0.45544037222862249 -0.42037875950336451 -1.037741959095001 -1.0000000180025095e-35 -0.72304695844650257 0.79558211565017711 0.80603536963462841 2.0166105059615805e-05 9.5647695319556213e-10 1.0347111821174624 1.574439585208893 -2.0320737361907955 0.00072294313577003788 6.8389425234016707e-09 -1.8470173478126524 0.80603536963462841 -1.9000761508941648 -0.0047823009081184855 -0.80400192737579335 -1.1405297817290714e-09 -1.2195402979850767 -1.2646450996398924 1.1935804486274721 9.5647695319556213e-10 -1.0000000180025095e-35 -5.9436339183704935e-10 -1.3126301169395445 0.29231773316860205 -1.0780355334281919 0.68255576491355907 3.1000926494598393 0.5235891342163087 0.77905064821243297 -0.42037875950336451 -6.4595116105757503e-32 -1.0000000180025095e-35 0.43919830024242407 -1.2360558509826658 -4.7642918161727712e-06 1.5955294966697695 -0.16766367107629773 -1.2097429395035995e-11 -0.8124038279056548 -0.82808467745780934 -7.5945683075673277e-10 -0.82100775837898243 1.0000000180025095e-35 1.3678508366865573e-05 -1.0759157453854582e-09 -5.0008639451704076e-09 2.9213240146636967 0.34979933500289923 2.2978154420852666
decision_type=2 2 2 10 2 2 10 2 2 2 2 2 2 2 2 10 2 2 10 10 10 2 2 2 10 10 2 2 2 2 2 2 2 2 2 2 2 2 2 2 2 2 2 2 2 2 10 2 2 2 2 2 2 2 2 8 2 2 2 10 2 2
left_child=1 7 3 11 18 6 13 10 27 16 23 20 21 26 32 28 24 -10 25 45 -3 31 -12 60 36 55 52 -7 -5 -14 -17 -9 -11 -23 -27 -29 -8 -30 -26 47 57 54 -20 -33 -28 46 -6 48 -19 -49 -32 53 -2 -25 -31 -4 -16 -15 -47 -41 -1 -62
right_child=5 2 4 15 19 8 9 12 17 14 22 -13 29 40 56 30 -18 39 42 -21 -22 33 -24 51 38 34 44 35 37 41 50 43 -34 -35 -36 -37 -38 -39 -40 59 -42 -43 -44 -45 -46 58 -48 49 -50 -51 -52 -53 -54 -55 -56 -57 -58 -59 -60 -61 61 -63
leaf_value=-0.50161089666561431 -0.54512113463273981 -0.50640606090962681 -0.51961215949557737 -0.53163665169088514 -0.53057899684051557 -0.53445144764489372 -0.53821631712948415 -0.49619804742682144 -0.52456296575039585 -0.52138835541494966 -0.50022481753404802 -0.51755642610723851 -0.50083440681059577 -0.5495540170904234 -0.54081721210986278 -0.51967563522735249 -0.55209486462829682 -0.53983603248244694 -0.53324727317104381 -0.53734593977147316 -0.51243250293507525 -0.50382009109014314 -0.50832762878120474 -0.51176274434349445 -0.54139111869031387 -0.5376481606437622 -0.52977198661671787 -0.56302720587100319 -0.51708214338730984 -0.50333766184322759 -0.52920279010655968 -0.50083366561046627 -0.53576289068933769 -0.5529907322174179 -0.52575805208231408 -0.5540956828565633 -0.54982893893387119 -0.52010766896123972 -0.55263430465454999 -0.55385191726588001 -0.53057468178251121 -0.50191154799133775 -0.52831097890123868 -0.51600204760480828 -0.5193247492814338 -0.51368463182938928 -0.53616048487405399 -0.54306136889860579 -0.55111607387215344 -0.55081163754339169 -0.52324929864438852 -0.51790731440821669 -0.53080201929519755 -0.54906228160641346 -0.51014231508034114 -0.49497164878090977 -0.5468656410200422 -0.53838335102323542 -0.53050797658242665 -0.5256970722638048 -0.50979569362047084 -0.54304215282571533
leaf_weight=5980.1333651393652 1452.6409406661987 32195.737243652344 9959.1913757324219 2749.8178200721741 17039.059143066406 1090.1561930328608 16156.486797511578 42602.196644306183 1916.2753367573023 2399.987454906106 17745.249311372638 23735.217281341553 17902.114379882812 3115.9591854661703 13439.878227800131 37373.846252441406 17569.999809265137 9922.2715953886509 15545.97142791748 35720.928344726562 47164.277042388916 19278.667797878385 19686.032060697675 20180.328093856573 4658.5780975371599 2921.8650969713926 3854.7543461024761 6348.9883862137794 78729.764442443848 6222.8168623298407 8221.5383555293083 4109.3071641921997 15159.979081764817 169.95301519334316 152636.23537385464 23854.197156593204 3610.7276325523853 87989.605451107025 8305.4931810349226 319.47440052032471 2867.4909629821777 9213.0791358947754 68061.138772010803 1785.8038682937622 7054.4334536790848 745.79258543252945 23624.116729736328 6240.7644525468349 3769.7628154754639 15738.047510609031 71886.759251892567 11179.306631550193 6104.6583914756775 169.1212897002697 21601.538159117103 379.34005737304688 10247.732628107071 3688.0658553093672 42289.956682145596 1267.1896553039551 1394.0745641887188 213.53483486175537
leaf_count=14470 4070 70644 28430 7671 49563 3345 38595 83296 5785 7839 59081 57879 40549 8982 42466 115589 54929 32553 47148 109035 106397 54925 62077 49988 14380 9129 9289 20457 199868 17355 27487 11603 48819 619 454080 74097 10123 214556 25240 675 8922 26201 212656 4201 13782 2638 71713 16381 11966 45147 217100 31551 15434 525 54438 539 31247 9309 134932 1424 4276 437
internal_value=-0.523466 -0.519425 -0.523381 -0.518093 -0.528972 -0.543831 -0.54055 -0.504369 -0.549404 -0.54331 -0.508443 -0.51173 -0.501832 -0.53157 -0.539332 -0.520379 -0.546572 -0.544755 -0.526768 -0.533577 -0.509988 -0.499304 -0.504486 -0.512229 -0.543608 -0.525528 -0.527329 -0.555223 -0.518889 -0.504958 -0.522529 -0.49732 -0.533798 -0.50425 -0.525981 -0.555973 -0.540338 -0.518679 -0.548594 -0.545793 -0.539667 -0.506952 -0.529229 -0.505429 -0.523016 -0.531968 -0.533822 -0.546435 -0.542942 -0.548611 -0.52386 -0.514142 -0.533554 -0.512073 -0.50862 -0.518708 -0.543434 -0.543499 -0.530216 -0.531366 -0.504281 -0.514212
internal_weight=1.14856e+06 958403 758970 390047 368924 190154 119687 199433 70467.1 91548.9 76547.8 103095 122885 28138 41247.6 286951 50301.3 39173.8 249504 119420 79360 67945.9 37431.3 39116.5 32731.3 165897 18466.5 31293.3 169469 54939.5 117482 48497.3 17560 19448.6 155558 30203.2 19767.2 166719 12964.1 37257.5 9671.52 37037.4 83607.1 5895.11 10909.2 83698.9 40663.2 35670.8 13692 21978.8 80108.3 31528.8 7557.3 20349.4 27824.4 10338.5 23687.6 6804.03 43035.7 1586.66 7587.74 1607.61
internal_count=3207902 2652646 2137054 1017191 1119863 555256 343426 515592 211830 273638 222405 234920 293187 69788 130371 782271 143267 113931 751982 367881 177041 154644 121158 101247 88338 492178 42575 97899 422095 138543 360176 99100 56658 55544 463209 94554 48718 414424 39620 108146 27213 97994 259804 15804 23071 258846 121276 106047 44519 61528 244587 82064 19504 50513 71793 28969 73713 18291 137570 2099 19183 4713
is_linear=0
shrinkage=1


Tree=1
num_leaves=1
num_cat=0
split_feature=
split_gain=
threshold=
decision_type=
left_child=
right_child=
leaf_value=-34.538776391283193
leaf_weight=
leaf_count=3207902
internal_value=
internal_weight=
internal_count=
is_linear=0
shrinkage=1


Tree=2
num_leaves=63
num_cat=0
split_feature=26 27 22 22 22 29 29 22 22 22 22 28 23 28 28 23 25 27 27 25 23 25 23 22 27 28 23 23 13 27 26 25 23 23 25 22 27 9 18 21 27 19 25 22 22 22 14 7 25 14 18 22 25 18 22 7 28 13 7 26 23 25
split_gain=105014 63429.5 37121.4 7275.77 7250.46 7011.83 6998.3 4556.37 2533.82 2047.51 1964.87 1590.88 1520.2 1468.04 1452.35 1282.54 1232.64 1158.98 909.719 807.452 770.214 737.08 718.718 688.444 640.802 608.967 538.255 530.401 529.261 517.861 482.698 482.276 454.559 448.288 455.895 447.155 431.755 423.502 398.395 392.748 361.97 360.919 360.563 350.929 330.374 308.451 461.164 296.308 332.021 290.579 276.328 274.449 269.952 263.293 255.939 255.516 248.111 238.572 236.473 235.607 231.074 230.33
threshold=9.0977940736536328e-09 -0.099999997764825807 -0.39022763073444361 -1.4253687262535093 1.2186058163642886 -0.099999997764825807 4.5454859320948065e-10 -1.2186056971549986 0.97528311610221874 -1.253161549568176 1.2714642286300661 -0.8040107488632201 -0.75306445360183705 -0.8040107488632201 3.6612771148192285e-10 1.6995466947555544 -1.1224971413612364 0.79558211565017711 0.099999997764825835 -1.6985605359077451 0.97528281807899486 1.3823857903480532 0.76031756401062023 -1.443442106246948 0.79558211565017711 6.8389425234016707e-09 0.29231773316860205 -0.21480012685060498 3.0139379501342778 1.1283862177968731e-09 -0.8554488718509673 0.19542933255434039 -0.57184696197509755 -0.75306445360183705 0.68583887815475475 -1.4761329889297483 1.3539149246177831e-09 0.11542981863021852 0.0044916088227182635 0.099999982863664641 -5.9436339183704935e-10 0.10558575019240381 -1.2186056971549986 2.2677736282348637 1.9995891451835635 1.8102261424064638 2.1164819002151494 -0.15336389839649198 2.4621080160140996 3.51808774471283 -2.0526504801443577e-10 0.4971089661121369 1.1692487597465517 -7.0809611646405189e-11 -1.9749803543090818 -0.60384291410446156 2.0543919801712041 0.68296742439270031 -0.21214884519577024 -7.5945683075673277e-10 1.3128201961517336 -0.063649505376815782
decision_type=2 2 2 2 2 2 2 2 2 2 2 2 2 2 2 2 10 2 2 10 2 10 2 2 2 2 2 2 2 2 2 10 2 2 10 2 2 2 2 2 2 2 10 2 2 2 2 2 10 2 2 2 10 2 2 2 2 2 2 2 2 10
left_child=1 5 3 12 20 30 7 14 17 38 13 59 19 24 36 27 32 29 -10 54 37 50 40 57 -9 -23 -16 31 44 -8 -1 -6 58 34 -15 -32 -2 52 41 -29 -18 49 -39 -17 53 -20 -47 -25 -49 -7 -13 -31 -4 -12 -3 -35 -48 -19 -5 -11 -14 -24
right_child=6 2 4 16 15 9 8 10 18 11 28 21 60 33 26 43 22 23 45 -21 -22 25 61 47 -26 -27 -28 39 -30 51 35 -33 -34 55 -36 -37 -38 42 -40 -41 -42 -43 -44 -45 -46 46 56 48 -50 -51 -52 -53 -54 -55 -56 -57 -58 -59 -60 -61 -62 -63
leaf_value=-0.92325787266891712 -0.90799780111549222 -0.91843936177028451 -0.89445228680561895 -0.90374962327009811 -0.89568755154505542 -0.92342354479402677 -0.88972666994569882 -0.8976020192802957 -0.88534120887279255 -0.91531013335011246 -0.87120577029604707 -0.90898145255121243 -0.90669423611600963 -0.89700686779287109 -0.90981321810793114 -0.88286094235221613 -0.88881801082604583 -0.87890442291775717 -0.86775373496911734 -0.91033934257418903 -0.89163756506645164 -0.91074396421844017 -0.89925057130700436 -0.86718788671656633 -0.87394549887812145 -0.890360389422861 -0.88446220772339612 -0.88514522309827648 -0.90111390937482339 -0.88052297555588721 -0.92423518936939852 -0.88681038213659447 -0.90115781908122816 -0.88029981488434594 -0.88309936968138225 -0.91770154747052146 -0.88370810225677243 -0.90092796108272044 -0.91227684593313885 -0.89995074706391431 -0.90140370636236433 -0.9134523785316917 -0.89568073502779033 -0.8769933167905376 -0.86851681439782558 -0.86008771413447727 -0.8672308168160564 -0.87249518954976124 -0.89445436825158176 -0.90023109315852901 -0.9031878570584374 -0.87147756535540088 -0.89024702447831272 -0.87923856251213017 -0.91312154278156776 -0.88765399456579785 -0.8881498402089324 -0.89383679103819869 -0.90735623753123074 -0.89133994162274244 -0.90079608614166773 -0.89454993214389922
leaf_weight=64714.12187859416 771.52665278315544 21562.588500976562 60125.602949425578 28548.831413269043 10363.100350022316 11134.175583839417 4980.09922324121 1129.268849119544 2314.464140444994 15337.446480020881 6347.0393349826336 12152.59658908844 18520.861679077148 7545.0749984681606 7645.2236665338278 20956.135864257812 2086.3180224001408 4923.3841009140015 30409.977452725172 45048.9140625 90506.721292495728 1706.1374399513006 16651.347366333008 12169.725675106049 11787.24788865447 5814.7288396507502 836.21852561831474 59393.428261339664 625.7384033203125 17765.802438482642 12577.923782348633 11756.447013258934 26246.558198094368 6057.7894287109375 2951.0334806442261 37636.60973456502 4500.5803646594286 14135.042377471924 12286.081657409668 1657.5358194708824 144634.85795000196 6204.5153493881226 70918.724956512451 16315.796630859375 8723.0119442939758 11986.083393096924 1355.3851789832115 16053.809621483088 644.57218265533447 508.39925384521484 18982.369656026363 3636.9071846008301 17807.662155151367 8714.7311303913593 13090.312545776367 14263.829027935863 818.38226944208145 1197.0869913101196 38327.194834589958 378.15093372762203 8827.3234558105469 21488.853030741215
leaf_count=165612 1986 48404 180170 74551 28550 21285 15556 3375 7309 44440 20158 32507 51912 16841 13483 64019 6649 14581 93233 121668 278369 5386 47097 36893 36760 16076 2371 182994 1064 53704 27930 39384 73612 19368 9374 95035 13181 37373 35001 5324 381455 18717 213583 50308 26984 37109 2271 44053 1088 267 51979 11162 57403 26620 27378 41686 1504 3542 74415 1357 27032 65404
internal_value=-0.897625 -0.901666 -0.89771 -0.904248 -0.890977 -0.916722 -0.87726 -0.883877 -0.872254 -0.910162 -0.880698 -0.906685 -0.910894 -0.884504 -0.899628 -0.884917 -0.901689 -0.876266 -0.867003 -0.912988 -0.893857 -0.903413 -0.900271 -0.872686 -0.876014 -0.894984 -0.907314 -0.886989 -0.873879 -0.881013 -0.921545 -0.890969 -0.904504 -0.888062 -0.893097 -0.919338 -0.887263 -0.895089 -0.916434 -0.885547 -0.901225 -0.919296 -0.896553 -0.880292 -0.873163 -0.866051 -0.862393 -0.870748 -0.873343 -0.922411 -0.905449 -0.878986 -0.893491 -0.875854 -0.916431 -0.885462 -0.875106 -0.881825 -0.905817 -0.914733 -0.90479 -0.896602
internal_weight=1.14856e+06 958403 758970 385034 373936 199433 190154 81898.3 108256 84504.6 68144.8 54371.4 107050 43734.2 13753.5 120442 277984 61371.4 46884.3 79701.8 253494 38655.8 184861 34988.6 12916.5 7520.87 8481.44 83170.5 24410.5 26382.8 114929 22119.5 93122.6 30817.7 10496.1 50214.5 5272.11 162987 30133.2 61051 146721 17847.1 85053.8 37271.9 23784.8 44569.8 14159.9 28868.1 16698.4 11642.6 31135 21402.7 77933.3 15061.8 34652.9 20321.6 2173.77 6120.47 66876 15715.6 27348.2 38140.2
internal_count=3207902 2652646 2137054 999577 1137477 515592 555256 233251 322005 227015 202230 151745 276394 127404 31021 370579 723183 180579 141426 197450 766898 105948 500605 100157 40135 21462 15854 256252 74826 80422 288577 67934 222578 87269 26215 122965 15167 488529 75270 188318 388104 40269 250956 114327 73762 134117 40884 82034 45141 21552 84486 64866 237573 46778 75782 61054 3775 18123 148966 45797 78944 112501
is_linear=0
shrinkage=1


Tree=3
num_leaves=63
num_cat=0
split_feature=26 27 23 29 29 25 23 23 27 25 4 4 23 4 20 23 19 23 25 23 25 25 25 18 19 25 25 20 23 20 27 23 27 18 4 26 4 27 26 4 25 23 25 4 23 14 4 27 20 23 18 4 25 19 18 21 4 18 4 4 25 23
split_gain=96217.9 59004.5 23024.6 6812.83 6622.63 5879.72 3810.89 3154.3 2064.18 2010.92 1866.78 1731.41 1523.61 1301.77 1150.1 1092.63 1066.85 986.268 955.342 885.56 779.693 741.312 730.471 645.795 576.384 541.624 524.673 514.123 490.239 489.703 461.426 443.302 437.731 433.993 416.691 414.411 400.217 398.789 396.347 393.198 391.143 376.809 374.648 357.102 352.476 345.976 337.673 320.338 313.765 311.73 307.615 295.128 310.349 278.598 278.216 270.913 254.44 250.08 247.83 243.169 233.42 219.784
threshold=9.0977940736536328e-09 -0.099999997764825807 -0.2477910369634628 -0.099999997764825807 4.5454859320948065e-10 -1.3346390128135679 1.23242723941803 1.0000000180025095e-35 1.1283862177968731e-09 -1.2360558509826658 0.50618240237236034 1.0311174392700198 -1.2979543209075926 -0.18148986250162122 -4.7642918161727712e-06 -1.037741959095001 0.00072294313577003788 0.65142819285392772 0.76855996251106273 1.1629478335380556 1.035615921020508 1.5413954854011538 -1.9279534220695493 1.6011931225357048e-09 0.00072294313577003788 -1.9608563780784605 -1.9943011999130247 0.00036669334804173564 -1.2646450996398924 -1.1405297817290714e-09 -9.3062288430978402e-10 1.1692488789558413 -5.9436339183704935e-10 -7.0809611646405189e-11 0.21116779744625094 0.79558208584785473 0.30128450691699987 -5.9436339183704935e-10 -1.6158163547515867 -0.68485713005065907 1.3127837777137759 1.2186058163642886 0.80603536963462841 -0.42037875950336451 1.3252110481262209 3.1000926494598393 -0.75383624434471119 9.5647695319556213e-10 -0.012328396551311014 1.1000000834465029 -1.0000000180025095e-35 0.43919830024242407 -1.2360558509826658 -1.2097429395035995e-11 2.1560211280302614e-05 0.47403359413146978 -0.18148986250162122 -1.0000000180025095e-35 -0.84163582324981678 1.2795265316963198 1.0000000180025095e-35 0.73199942708015453
decision_type=2 2 2 2 2 10 2 2 2 10 2 2 2 2 2 2 2 2 10 2 10 10 10 2 2 10 10 2 2 2 2 2 2 2 2 2 2 2 2 2 10 2 10 2 2 2 2 2 2 2 2 2 10 2 2 2 2 2 2 2 8 2
left_child=1 3 5 13 7 15 20 9 36 27 17 41 48 14 38 22 42 26 29 35 25 51 -3 24 31 60 -10 33 -20 -7 -13 -14 -27 -2 -26 61 -6 -31 -1 -28 43 58 -11 -25 50 49 -22 -43 -5 -32 -16 52 -8 -30 -42 -53 -18 -49 -9 -21 -4 -12
right_child=4 2 6 12 8 18 21 11 10 16 19 30 23 -15 44 -17 56 -19 28 59 46 -23 -24 40 34 32 39 -29 53 37 45 -33 -34 -35 -36 -37 -38 -39 -40 -41 54 47 -44 -45 -46 -47 -48 57 -50 -51 -52 55 -54 -55 -56 -57 -58 -59 -60 -61 -62 -63
leaf_value=0.022188330054966458 -0.013970155291006191 0.016145567312429755 0.003997546271580295 0.014026067851991345 -0.01626177715460253 -0.0081902113627029625 -0.0068514233755129295 -0.025649405214062931 -0.015205477953084363 -0.0028534023184715127 -0.011815275710551762 0.014771268279286825 0.019195640400343817 0.027841290193499586 0.026136244516303385 0.0056823173957218417 -0.026526143955096764 -0.035601218556142303 0.0037183492246581512 -0.030897937104938916 -0.010465139477720613 -0.013177423642961641 0.010357818768112004 0.0041322085583297263 0.0036675770749124387 -0.013726260604753449 -0.031207198514230459 0.0084860096017431719 -0.0056265526419551218 -0.0080466765781843242 -0.0078551265265859507 0.0063342488644791877 -0.0022156430955905457 0.0015713133587770584 0.01435367735594063 -0.02117936025399594 -0.0022093052698554656 0.0047997926876591906 0.013360302233921682 -0.023920348784952521 -0.015848773864824157 -0.006308301978793048 -0.012617276395912622 0.011352960791194322 0.014267478941109831 0.0097267844323867102 -0.0048312946163018957 -0.033073214333257633 0.021053296515442157 -0.015975409326063054 0.021295673151118653 -0.0066458757002447076 -0.012178450409240376 0.00017799517392009254 0.0022849703801435966 0.012006310998166332 -0.015098668446788937 -0.024281171153207042 -0.017146974243875509 -0.024119321438066225 0.028080535299328753 -0.020569712607443471
leaf_weight=6132.2558082938194 2258.7889602184296 36449.412292480469 9067.259521484375 9294.5938301086426 3465.7649109363556 2726.3279595375061 17076.96484375 4425.6371955871582 3287.0763244628906 7576.1528272032738 9222.1720472127199 594.60728585720062 12243.662961259484 37369.137725830078 28992.940244853497 23681.575288772583 4080.7558441162109 16727.928718566895 37881.846130371094 6940.3976345062256 11124.680431365967 37464.505859375 42520.268033981323 11200.600509643555 7832.2217140197754 3030.6174627989531 14695.601933479309 6594.2640790939331 8295.7951011657715 2204.1625869274139 6925.729516595602 3003.6390018463135 157467.97243116796 5692.4968874454498 5655.5088920593262 19966.835344567895 3850.6085834503174 163212.60048747063 18048.383473932743 12195.310988664627 888.96208572387695 651.87977257370949 6633.8854427337646 13708.257696628571 3468.8878440856934 632.7643780708313 68725.620569229126 4949.522746860981 14862.629985809326 11032.69867375493 19943.195928394794 41355.693435385823 23235.39436340332 72298.646549224854 5309.2216148376465 712.91073636710644 3074.970187664032 7071.8575361073017 10188.34334564209 15180.653793334961 377.280517578125 3583.9994079172611
leaf_count=15314 5580 80551 25889 27380 10587 7587 49563 12329 8488 17965 29348 1862 28450 118351 55699 57879 11919 52321 117315 22249 33019 113821 96490 28981 23673 9428 38808 12163 27713 6845 22178 8491 468286 11898 19662 59695 12265 404396 46310 37650 563 1959 20695 41143 8962 899 214821 15429 31404 34548 43941 131812 70215 218415 17268 2470 10566 21370 31891 40165 539 10429
internal_value=1.37733e-06 0.00388618 8.14348e-05 0.0184727 -0.0194097 0.0051734 -0.00528096 -0.0129891 -0.0242573 -0.00631127 -0.0253635 -0.0181493 0.0119904 0.023251 0.0210112 0.0113343 -0.0121687 -0.0297583 0.0029669 -0.0216082 -0.00317104 -0.00967866 0.0130292 0.00942328 0.0126658 -0.00202215 -0.0265195 0.00229266 0.000903556 0.00442077 -0.0112435 0.016662 -0.00243299 -0.00284368 0.00814834 -0.0184777 -0.00886596 0.00462861 0.0155991 -0.0279025 0.00642797 -0.0230047 -0.00741162 0.00810605 0.0235085 -0.0120756 -0.0056162 -0.0267904 0.0183495 -0.0128438 0.0241635 -0.00808752 -0.00992184 -0.000419482 -0.000315826 -0.00632979 -0.0216155 -0.0279011 -0.0197218 -0.0262461 0.00495959 -0.0142653
internal_weight=1.14836e+06 956864 758910 197954 191501 389271 369639 82384.4 109116 35911.3 101800 46473 83999.3 113955 76585.7 102651 21365.8 46905.9 286619 54894.1 249793 119845 78969.7 59842.1 28735 169943 30178 14545.5 118476 168143 19185.8 15247.3 160499 7951.29 13487.7 32773 7316.37 165417 24180.6 26890.9 31107 27287.2 14210 24908.9 52405 18591.2 79850.3 12673.3 24157.2 17958.4 48936.1 82381 40312.4 80594.4 6198.18 42068.6 7155.73 12021.4 14614 22121.1 9444.54 12806.2
internal_count=3207902 2652646 2137054 515592 555256 1017191 1119863 233251 322005 90786 299153 142465 227015 288577 170226 234920 61145 137267 782271 161886 751982 367881 177041 168231 80276 504142 84946 29641 363443 418828 59487 36941 477714 17478 43335 99472 22852 411241 61624 76458 87955 82978 38660 70124 108602 57625 247840 38758 58784 56726 99640 254060 119778 246128 17831 134282 22485 36799 44220 62414 26428 39777
is_linear=0
shrinkage=0.03


Tree=4
num_leaves=1
num_cat=0
split_feature=
split_gain=
threshold=
decision_type=
left_child=
right_child=
leaf_value=0
leaf_weight=
leaf_count=3207902
internal_value=
internal_weight=
internal_count=
is_linear=0
shrinkage=1


Tree=5
num_leaves=63
num_cat=0
split_feature=26 27 23 29 29 25 23 23 28 24 27 28 23 24 24 23 24 27 25 24 20 25 25 25 20 27 20 28 23 25 23 28 23 27 25 18 23 18 26 27 14 25 26 25 18 18 25 14 25 27 25 27 25 18 28 13 20 25 26 23 18 25
split_gain=96217.9 59004.5 23024.6 6812.83 6622.63 5879.72 3810.89 3154.3 2842.57 2460.75 2064.18 1631.54 1524.75 1340.25 1245.24 1071.68 1061 900.129 779.693 758.042 744.474 736.586 704.6 689.738 667.213 663.096 624.034 585.096 583.833 541.624 511.516 490.809 450.475 437.731 416.842 402.988 400.044 396.988 376.691 368.895 367.874 361.78 359.44 326.582 370.952 325.621 316.424 306.233 346.327 285.572 283.823 273.299 246.158 243.119 237.399 260.111 235.294 233.42 229.028 225.619 223.204 221.388
threshold=9.0977940736536328e-09 -0.099999997764825807 -0.2477910369634628 -0.099999997764825807 4.5454859320948065e-10 -1.3346390128135679 1.23242723941803 1.0000000180025095e-35 3.6612771148192285e-10 1.2618330121040346 1.1283862177968731e-09 -1.0000000180025095e-35 -0.63081288337707508 1.281980633735657 1.395229756832123 1.23242723941803 1.1161473393440249 9.5647695319556213e-10 1.035615921020508 0.28773693740367895 -4.7642918161727712e-06 1.3127837777137759 0.7280268967151643 -1.3472693562507627 2.1974762504442528e-12 -1.8851500360739233e-09 -0.0081134592182934267 -1.2709299921989439 -1.1047992706298826 -1.9608563780784605 -1.5555112957954405 0.45030112564563757 1.3964449763298037 -5.9436339183704935e-10 0.84669747948646557 1.6011931225357048e-09 -1.7209514975547788 -2.0526504801443577e-10 -7.5945683075673277e-10 -5.9436339183704935e-10 3.1000926494598393 -0.8124038279056548 -1.5761915445327757 -1.3472693562507627 -0.79558202624320973 -1.0000000180025095e-35 -1.2628085017204282 2.4316312074661259 1.3700422048568728 0.79558211565017711 1.1224971413612368 -5.9436339183704935e-10 0.76855996251106273 -1.6614695397265674e-08 -2.123675942420959 3.0139379501342778 -0.38347569108009333 1.0000000180025095e-35 -1.0000000180025095e-35 -1.621360123157501 2.1560211280302614e-05 1.8892973065376284
decision_type=2 2 2 2 2 10 2 2 2 2 2 2 2 2 2 2 2 2 10 2 2 10 10 10 2 2 2 2 2 10 2 2 2 2 10 2 2 2 2 2 2 10 2 10 2 2 10 2 10 2 10 2 10 2 2 2 2 8 2 2 2 10
left_child=1 3 5 20 7 9 18 8 17 36 56 35 26 24 46 19 22 -2 29 49 42 -14 39 -21 37 -9 59 40 50 57 -11 -25 -29 -31 -15 38 -3 -10 -5 -7 -27 -26 -1 -19 -45 -28 -8 48 -16 -12 -18 -24 58 -22 -17 -56 -6 -4 -44 -13 -34 -30
right_child=4 2 6 11 10 16 14 25 13 30 15 12 21 34 47 54 28 43 -20 23 53 -23 51 31 41 27 45 32 61 33 -32 -33 60 -35 -36 -37 -38 -39 -40 -41 -42 -43 52 44 -46 -47 -48 -49 -50 -51 -52 -53 -54 -55 55 -57 -58 -59 -60 -61 -62 -63
leaf_value=-0.024492670472908484 -0.0043079081759551793 -0.010544157341854829 -0.0039975459981835982 -0.019794438992008622 0.016220106583505065 0.010117810341339732 0.0044706336662837867 1.6024223692078713e-05 0.021843906395771079 -0.019675922794085542 0.023145454682565982 -0.014110238330176449 -0.0056697628570125391 -0.014559445652719711 0.012369002411303297 0.036872181077929861 -0.0092775681296617049 0.011152040810203864 0.005616197397602541 0.011696419727519631 -0.026510823532966792 0.0068728313042214296 0.012376857514868615 0.019099723759777927 -0.0073789927463784721 0.027511118222645473 -0.021487946433521012 0.014856238732124247 -0.0022493355612177714 0.013726260604753449 -0.013207029019270932 0.026764716183227073 0.025567415706440933 0.002215643175572905 0.010919594240328593 -0.013132711635430531 -0.0053972846362049008 0.0063567887944113461 0.0076401285404754261 -0.003612593528336568 -0.003122456586071274 0.0067666965616930844 -0.016280275532671421 0.031937838286240611 0.018484600185020485 -0.012406418572153913 0.0088060171141801438 0.0021921153157274226 0.018836022318588084 0.028692007495532516 -0.0044092204465199965 -0.00020478737624910178 -0.021823500078684131 -0.023050725682842495 0.029625180585433189 0.0099686098231910464 0.0049302352159493225 -0.028080528329907713 0.026854638339056717 -0.0042619440882038055 0.017473931422420062 0.0098112696269577176
leaf_weight=11114.882070571184 1659.831364095211 21514.52490234375 9067.2582092285156 20960.115839377046 2550.5369606018066 1786.0434498786926 19419.631671905518 1746.7430901825428 2019.483223348856 23694.878540039062 13522.622785404325 3037.8060607910156 14414.040464296937 5854.4906701147556 15415.833049535751 4166.1126166880131 35844.905635759234 3389.0005254745483 79850.300146102905 6662.1402435302734 42309.439707815647 5954.8918609619141 1580.6091432869434 17774.014340922236 4563.1002054214478 7786.6071516871452 7466.5214982926846 24198.203788548708 12726.91342073679 3030.6174627989531 20535.719573974609 13030.469782605767 6756.0213401317596 157467.9772529453 641.18435582518578 18189.804707527161 36906.132965087891 5677.5898160338402 460.32682846486568 125987.89768832922 369.5589599609375 2529.0385607481003 17926.929811254144 2494.1171370744705 7083.4789697229862 6779.9248670637608 68938.827037811279 1643.0302124023438 14428.146076440811 21858.79818354547 15411.651279523969 91746.338944405317 10317.786070346832 32174.29161542654 24164.357851833105 621.46038818359375 4765.8360259532928 377.28057861328125 111.47187204658985 6735.8660430908203 5615.9060289859772 1535.0173606872559
leaf_count=31070 4543 53786 25889 55853 8485 5539 60046 5369 5732 47049 44674 8980 41883 8934 45605 11446 82073 8633 247840 16761 97850 16406 5410 46895 9060 24868 14624 74320 34863 9428 41026 34331 20413 468286 1970 52345 93059 14341 1673 318974 531 7392 46822 8031 22150 15556 219564 3121 39545 71455 43730 287351 32346 80117 72572 1019 14367 539 372 19695 16964 4331
internal_value=-1.37733e-06 -0.00388618 -8.14348e-05 -0.0184727 0.0194097 -0.0051734 0.00528096 0.0129891 0.00631127 -0.0113343 0.0242573 -0.0119904 -0.00804081 -0.000685457 0.00967866 0.0253635 -0.0029669 0.0164931 0.00317104 0.023423 -0.023251 -0.00200291 -0.0019733 0.0204491 0.0043036 0.0181493 -0.0131609 0.0188575 -0.00631995 0.00202215 -0.0166725 0.0223421 0.017237 0.00243299 -0.0120444 -0.0164164 -0.00729272 0.0104201 -0.0192049 -0.00342067 0.0261231 -0.00233468 -0.01992 0.0191559 0.021988 -0.017166 0.00785318 0.0148013 0.0154955 0.0265721 -0.00781377 8.29859e-06 -0.0181277 -0.0250162 0.0302461 0.0291323 0.00886596 -0.00495959 -0.0160137 -0.00732294 0.0218936 -0.000951248
internal_weight=1.14836e+06 956864 758910 197954 191501 389271 369639 82384.4 35911.3 102651 109116 83999.3 44389.1 21284.9 119845 101800 286619 14626.4 249793 72848 113955 20368.9 221101 37466.6 14789.2 46473 24020.1 44726.3 65518.5 169943 44230.6 30804.5 36570.1 160499 6495.68 39610.2 58420.7 7697.07 21420.4 127774 8156.17 7092.14 39471.1 12966.6 9577.6 14246.4 88358.5 31487 29844 35381.4 51256.6 93326.9 28356.2 74483.7 28951.9 24785.8 7316.37 9444.54 18038.4 9773.67 12371.9 14261.9
internal_count=3207902 2652646 2137054 515592 555256 1017191 1119863 233251 90786 234920 322005 227015 117144 47429 367881 299153 782271 43357 751982 214116 288577 58289 617274 97987 36525 142465 58855 137096 164997 504142 88075 81226 111697 477714 10904 109871 146845 20073 57526 324513 25399 16452 110610 38814 30181 30180 279610 88271 85150 116129 125803 292761 79540 177967 85037 73591 22852 26428 47194 28675 37377 39194
is_linear=0
shrinkage=0.03


Tree=6
num_leaves=63
num_cat=0
split_feature=27 27 22 22 22 22 24 22 22 24 4 24 4 18 19 22 19 23 4 4 4 23 23 27 24 4 23 24 27 25 24 25 19 28 22 18 25 4 25 4 22 25 18 19 23 25 23 22 25 18 19 14 22 18 18 18 24 28 23 23 28 28
split_gain=85246.5 48724.1 33438.1 6603.55 6560.37 6556.89 3530.91 2268.34 2164.58 1957.57 1860.86 1590.88 1495.06 1215.24 1394.43 1107.98 1067.88 914.753 871.795 763.281 729.648 662.325 650.041 620.89 587.01 580.373 577.588 571.33 544.291 538.031 537.93 528.732 497.699 442.927 422.782 419.995 392.141 387.628 377.154 371.201 439.518 369.089 365.75 418.895 365.668 358.312 348.949 344.235 343.007 319.09 317.622 304.297 301.798 291.724 283.376 362.924 272.045 281.223 269.083 267.766 264.362 248.863
threshold=8.5159312934735009e-10 -0.099999997764825807 -0.39022763073444361 1.2186058163642886 0.93697628378868114 -1.4933329224586485 1.4246392846107485 -1.3930305838584898 -0.84669741988182057 1.6227066516876223 0.93857723474502575 1.1161473393440249 0.76772898435592662 1.6986735843350749e-14 -6.4595116105757503e-32 1.7768632769584658 2.0166105059615805e-05 0.58977815508842479 -1.0615606307983396 -0.34802392125129694 0.62272292375564586 0.81240388751029979 -0.72304695844650257 -5.9436339183704935e-10 -0.1222625896334648 -1.1139650940895078 0.93697628378868114 -0.3994851410388946 0.79558211565017711 1.3335914611816408 -0.28220671415328974 -0.8124038279056548 0.040731366723775871 -0.82100775837898243 -0.52729848027229298 -7.8902592792751126e-10 -1.9000761508941648 1.6420891284942629 -1.2915554046630857 1.7897652387619021 1.3932361006736758 -1.9279534220695493 0.0044916088227182635 3.1867331529156223e-07 -0.60167688131332386 inf -0.21480012685060498 0.36515085399150854 -1.9279534220695493 2.1560211280302614e-05 -0.84668162465095509 2.1680939197540288 1.5976898074150088 0.17498158663511279 -2.2310999980845733e-07 -0.26766000688076014 0.14640241861343387 -1.0000000180025095e-35 -1.0150901675224302 0.22833309322595599 6.8389425234016707e-09 8.0538617441838777e-10
decision_type=2 2 2 2 2 2 2 2 2 2 2 2 2 2 2 2 2 2 2 2 2 2 2 2 2 2 2 2 2 10 2 10 2 2 2 2 10 2 10 2 2 10 2 2 2 8 2 2 10 2 2 2 2 2 2 2 2 2 2 2 2 2
left_child=1 7 5 18 6 9 12 42 36 30 29 23 16 14 -9 37 17 27 22 32 41 38 48 -7 -17 34 47 -2 -14 35 -3 -25 -16 -27 -15 -6 -8 46 -13 40 -12 -10 43 -1 53 -24 -5 -20 -4 -35 -36 52 -41 -11 55 -22 57 -37 -32 -26 -21 -18
right_child=4 2 3 15 10 11 8 13 20 44 39 21 28 25 19 24 61 -19 26 60 54 -23 45 31 59 33 -28 -29 -30 -31 58 -33 -34 49 50 56 -38 -39 -40 51 -42 -43 -44 -45 -46 -47 -48 -49 -50 -51 -52 -53 -54 -55 -56 -57 -58 -59 -60 -61 -62 -63
leaf_value=0.026249797587605754 -0.016443969920497986 0.0078219687157974494 0.0097373565622840795 -0.0062933397244617408 -0.030189458520052292 -0.009697740672609546 0.013357019850759213 0.022984081410961553 -0.0042715001016412138 0.021258799290630563 -0.018444354000023609 0.01277631556978215 -0.0044892307818573465 0.010241217504144464 0.016060464071289273 -0.011779267509281155 -0.025577039641782977 -0.02214769522822391 0.0014587943819730355 0.021009461153982462 -0.0057513894207850413 0.00022639073363565505 -0.012087336704820741 0.0043194799551808149 -0.012167736486655964 0.018407228628787322 -0.0046234462709998665 -0.0086670549536628314 -0.013193351979680848 -0.033021183548140376 0.015193194252289462 0.0011899810554832451 0.0082171039893795782 0.0029814203332640841 0.01412491381985973 -0.025833038665578133 0.0023564793911558732 -0.0060247146748103539 0.0076742566615065171 -0.015242096641530404 -0.026232577288175303 -0.026481353105641415 0.018658529891910299 0.019552918701396957 0.011971184464159047 0.026104695738790002 -0.012449716105873528 -0.0023230222712025861 -0.0048074704846104493 0.012785946578222109 -0.003083292351052991 -0.0085446305722664088 -0.02296076099048271 -0.044494790486730364 -0.011074461644481929 0.027104189818186665 -0.026526787712025747 -0.014884088133236542 0.0086156927939401873 -0.019729570126377959 0.015012668640069927 -0.019258365525410017
leaf_weight=21812.382868289948 15943.782983183861 33486.140660405159 1676.208366394043 10668.799318477511 11664.186114549637 3416.0650004297495 4721.261100769043 25801.489129751921 838.75236320495605 25621.799989521503 14747.051742553711 20152.766817092896 12690.315213978291 14764.932052612305 12076.582679748535 21351.43350687623 12398.619961053133 11287.904554516077 27954.547077462077 14554.849778532982 700.84570544958115 7937.5503503680229 18803.287261962891 135246.27101016045 5145.591878503561 12666.786777958274 90445.204524993896 18214.727310717106 13182.32077807188 13287.377487182617 20866.403872013092 75830.344185218215 18337.014114379883 3301.9480579048395 1230.697660446167 3456.4140160232782 7629.334014415741 19167.394088745117 36944.707196056843 12135.878353118896 11691.745681762695 3416.2169251441956 20796.318508148193 13677.348062038422 4663.1317178010941 223.71519470214844 37103.294355228543 96230.96218764782 11273.861656188965 31366.89483833313 4477.2300586700439 3510.4151458740234 7302.2942085266113 60.870477735996246 1467.6871467232704 532.46152114868164 9094.1563661694527 5425.1763798445463 7649.8273547887802 23290.532720088959 12130.023121193051 10245.498556345701
leaf_count=41212 47243 99498 2976 32223 36285 11045 8572 59918 1767 56192 46048 40167 40817 33746 25152 69285 38419 33308 87330 48855 2297 21163 49791 334388 15182 39673 279426 41401 39813 42495 49834 232018 50822 3635 3345 11072 17473 57588 87732 36568 36017 9518 55739 38836 12485 269 115007 297005 27113 97148 11274 6396 21414 189 4264 432 25134 16096 21614 67485 38373 30320
internal_value=2.63358e-06 0.00382164 0.000201766 -0.00627087 -0.0175001 0.00652575 -0.0126621 0.0166789 -0.000976931 0.0134563 -0.0234364 0.00423608 -0.015063 0.0147596 0.017196 -0.0121495 -0.0173957 -0.0147437 -0.00348835 0.0145805 -0.014362 0.00834625 -0.00810952 0.00298986 -0.0155386 0.011781 -0.00279986 -0.012297 -0.00892405 -0.028005 0.0104006 0.00319519 0.0113315 0.0136062 0.00756073 -0.0257562 0.00656166 -0.00962879 0.00947505 -0.0194653 -0.0218885 -0.0221033 0.0218177 0.0236689 0.0196997 -0.0116383 -0.0110748 -0.00147172 -0.00292484 0.0118521 0.000627003 -0.0166737 -0.0181417 0.021103 -0.00216688 0.0084335 -0.0228796 -0.019145 0.0134287 -0.0183612 0.0182835 -0.0227181
internal_weight=1.14779e+06 942205 735211 363335 205584 371876 113270 206994 19306.6 92348.2 92314.7 279528 93963.2 150708 82900 116727 68090.5 45446.4 246608 57098.5 6955.96 65035 31977.1 214493 49787.6 67808.5 214631 34158.5 25872.6 42927.3 62002.4 211077 30413.6 47335.6 20472.9 29639.9 12350.6 66939.5 57097.5 49387.4 26438.8 4254.97 56286 35489.7 30345.8 19027 47772.1 124186 12950.1 34668.8 5707.93 22948.6 19438.2 25682.7 2700.99 1233.31 17975.7 8881.59 28516.2 28436.1 26684.9 22644.1
internal_count=3207902 2614733 2067005 1100680 593169 966325 315644 547728 44323 239812 277525 726513 271321 411941 223120 356770 190691 121952 743910 163202 18278 149062 80149 577451 151952 188821 663761 88644 80630 131082 170946 566406 75974 140456 48365 88587 26045 204818 127899 146443 82065 11285 135787 80048 68866 50060 147230 384335 30089 100783 14619 64378 57982 56381 6993 2729 52302 27168 71448 82667 87228 68739
is_linear=0
shrinkage=0.03


Tree=7
num_leaves=1
num_cat=0
split_feature=
split_gain=
threshold=
decision_type=
left_child=
right_child=
leaf_value=0
leaf_weight=
leaf_count=3207902
internal_value=
internal_weight=
internal_count=
is_linear=0
shrinkage=1


Tree=8
num_leaves=63
num_cat=0
split_feature=26 26 22 22 22 22 22 20 4 4 4 22 25 22 23 22 25 22 4 28 23 23 22 22 20 23 25 23 18 21 14 4 4 19 23 28 19 23 25 23 18 19 26 23 20 25 25 4 23 23 22 18 4 7 22 18 22 25 4 25 19 4
split_gain=88257.2 52418.5 33459.9 6671.7 6645.49 5713.27 2796.82 2657.11 2003.38 1627.65 1413.8 1370.45 1164.09 1143.35 1082.82 944.913 885.667 883.863 866.887 692.226 673.538 631.506 575.057 565.304 554.837 508.471 537.884 507.201 471.125 470.09 468.183 452.903 430.836 456.716 434.365 402.205 390.611 381.357 358.318 354.217 352.766 387.615 352.027 343.686 340.982 338.546 337.618 330.52 324.436 300.112 287.151 287.087 278.181 275.737 263.46 252.368 242.924 239.567 239.039 232.849 302.277 227.834
threshold=9.0977940736536328e-09 -0.099999997764825807 -0.39022763073444361 1.2186058163642886 -1.4933329224586485 -1.2648855447769163 1.2496209144592287 -0.0023321254411712285 0.82891452312469494 1.4423632025718691 -0.38448175787925715 -1.0356157422065733 -1.1935803294181822 1.8435528278350832 -0.78122290968894947 0.76409253478050243 -1.9000761508941648 -1.6173213720321653 -1.0615606307983396 -0.90948340296745289 0.78388431668281566 -0.72304695844650257 0.36515085399150854 -2.0170171260833736 0.81157347559928905 0.65142819285392772 -1.0356157422065733 -1.0000000180025095e-35 1.6986735843350749e-14 0.82092052698135387 2.1680939197540288 1.6420891284942629 0.60639849305152904 2.0166105059615805e-05 0.89998406171798717 6.8389425234016707e-09 4.5667174930486005e-08 -0.57184696197509755 inf -0.21480012685060498 -1.0000000180025095e-35 0.00072294313577003788 0.79558208584785473 -0.57184696197509755 -4.7642918161727712e-06 1.5240928530693056 -2.0320737361907955 0.87583026289939891 0.95595303177833568 1.2186058163642886 -0.8124038279056548 -2.0526504801443577e-10 -1.6143253445625303 2.0258517265319829 1.9995891451835635 4.4758426298585625e-08 -1.5336547493934629 -0.063649505376815782 0.7832717001438142 -0.12914255261421201 2.0166105059615805e-05 0.97018903493881237
decision_type=2 2 2 2 2 2 2 2 2 2 2 2 10 2 2 2 10 2 2 2 2 2 2 2 2 2 10 2 2 2 2 2 2 2 2 2 2 2 8 2 2 2 2 2 2 10 10 2 2 2 2 2 2 2 2 2 2 10 2 10 2 2
left_child=1 7 4 18 14 16 8 10 19 45 17 40 43 31 23 42 37 -1 21 59 36 46 47 -3 28 26 -21 -15 49 50 54 39 33 34 -18 58 -14 -2 -23 -5 41 -9 -10 61 -17 51 -4 -20 -24 -13 -19 -8 -31 -32 -11 -30 -42 -22 -12 60 -7 -6
right_child=5 2 3 13 12 6 9 11 15 30 35 24 20 27 -16 44 32 29 22 25 57 38 48 -25 -26 -27 -28 -29 55 52 53 -33 -34 -35 -36 -37 -38 -39 -40 -41 56 -43 -44 -45 -46 -47 -48 -49 -50 -51 -52 -53 -54 -55 -56 -57 -58 -59 -60 -61 -62 -63
leaf_value=-0.017448390174535169 -0.005928943025221645 -0.017903053536853078 -0.010509948292307083 0.0067087396801979405 -0.0080076441387777909 0.018909982166027413 0.031796341606087963 -0.026765496037355702 0.0023643572960467736 0.019372663556786768 -0.016753727644528003 -0.018612803405482468 -0.00380621543649765 0.0094039740494586722 -0.0078003266991924737 0.011852740385239976 0.0059917159427827563 -0.0066470516334370885 0.0015871642576650593 0.012199484738519509 -0.001816403960931384 0.012085280552687164 0.0025206470638325989 -0.012491564712228271 -0.021041531475041245 0.023402743171129319 0.020163323599858205 0.017399885555145014 -0.00091208403367824451 -0.0051960497609582516 0.028560587790017692 0.0061195925456032007 0.0010634354102389406 0.01875099078059719 0.024927421908539589 -0.013899805987952891 0.02156439356899327 0.010186222663676291 -0.026104683993023587 0.012684964607528519 -0.023319968009800424 -0.019736086242417381 0.011708579203711806 -0.0040321247748044695 0.018933095602546867 0.033933491596276642 0.0048020349368150597 -0.0042940584831195529 0.0050889917506295769 -0.011176043536563861 0.0019547261216576466 0.024998862488631507 -0.012711585595878476 0.0057796690717349412 0.027328830480246237 -0.012155949449595065 -0.017531053606555772 0.0027257654408605102 -0.023412945852689101 0.03004895987541711 0.029226643459925716 -0.016956951760088927
leaf_weight=8775.6845626831055 6130.853421330452 34115.382232666016 1459.2749671936035 11462.111530050635 52389.490932583809 6245.0428241789341 9527.3534532189369 26601.140509605408 8303.2823976874352 13966.200820922852 9925.2503448873758 23972.028043374419 164409.79465270042 8806.7286682128906 24388.990531921387 10436.815502166748 9750.1819384098053 7369.6912689208984 25100.84433555603 12996.732221603394 20152.679344177246 19002.884262084961 103018.43697404861 35403.034950256348 18982.1162109375 16309.231430530548 18494.42728368938 37721.465423583984 2084.7043007612228 7183.3512344360352 572.52465438842773 20773.620422363281 4408.3438987731934 5422.3172736763954 1227.5352155566216 19384.248121604323 547.98716551065445 1684.8028591871262 223.71522521972656 40342.307110086083 12614.947479248047 9610.7108216285706 6445.0201631188393 22320.864250063896 14805.665302276611 12524.514602661133 11583.246417999268 13082.502853393555 77615.910544872284 6133.3555183410645 6639.6198686212301 13537.519212186337 11574.735096588731 2901.9304542541504 5118.7110748291016 12998.745079040527 13512.143358707428 21707.585682094097 9489.9870071411133 7480.4169098138809 4327.0941181182861 2691.7977714538574
leaf_count=21750 13083 87960 2558 34702 114011 15787 30105 47988 26388 41490 32908 61289 431988 27013 70468 33980 23343 19169 77995 31688 56986 50343 318151 86458 54027 48435 53016 115237 2222 17405 1554 62462 13638 15960 3829 61914 1904 4884 269 124827 30188 25773 18417 62083 43311 39727 27799 42578 238483 18032 18721 40017 32499 4661 15303 34825 32715 65701 32982 23897 12743 8263
internal_value=-2.63358e-06 -0.00373832 -4.33721e-05 0.0063679 -0.00632012 0.0185224 0.020681 -0.0171054 0.0177771 0.0259667 -0.0128388 -0.019815 -0.00403405 0.0122154 -0.0132391 0.0124808 0.00615545 -0.00899278 0.00359407 0.0209935 -0.00285951 0.00818434 0.00291714 -0.0151472 -0.0167375 0.0191033 0.0168766 0.0158864 -0.0149295 -0.00672822 0.0196626 0.00986198 0.00938956 0.0116276 0.00810912 -0.0169567 -0.00372193 -0.00245503 0.0116409 0.0113627 -0.022983 -0.0248999 0.00644779 -0.00717243 0.0160056 0.0299628 0.00308884 -0.000427879 0.00362423 -0.0170977 -0.0025703 0.0278067 -0.00983353 0.00953353 0.0215066 -0.0106019 -0.0203261 0.000539041 -0.0200087 0.0259985 0.0231325 -0.00844499
internal_weight=1.14779e+06 955173 748321 370193 378128 192617 163992 206852 105844 58148.8 80342.6 126510 284220 119106 93907.4 39990.8 28624 41543.1 251087 65852.9 206818 32269.1 218818 69518.4 64170.9 47800.4 31491.2 46528.2 45188.8 32767.4 22559.4 72578 20808.4 16400 10977.7 38799.5 164958 7815.66 19226.6 51804.4 62338.9 36211.9 14748.3 77402.2 25242.5 35589.4 13042.5 38183.3 180634 30105.4 14009.3 23064.9 18758.1 3474.46 19084.9 15083.4 26127.1 41860.3 19415.2 18052.6 10572.1 55081.3
internal_count=3207902 2652646 2108239 1122417 985822 555256 480519 544407 307662 172857 237348 307059 740936 364241 244886 122096 74737 109544 758176 185566 556579 80969 677207 174418 170395 133139 84704 142250 116368 87794 63008 221991 56770 43132 27172 127804 433892 17967 50612 159529 136664 73761 44805 184357 77291 109849 30357 120573 556634 79321 37890 70122 49904 6215 56793 37047 62903 122687 65890 52427 28530 122274
is_linear=0
shrinkage=0.03


Tree=9
num_leaves=63
num_cat=0
split_feature=26 27 22 29 22 29 22 22 24 22 4 22 24 22 28 4 24 4 28 4 4 22 27 24 24 22 24 22 28 23 4 27 24 27 26 23 23 4 13 27 23 4 23 23 23 14 28 11 22 4 28 23 23 4 9 27 28 19 22 28 22 24
split_gain=81558.7 51344.1 30900.9 6461.54 6238.08 6017.69 5978.19 3749.11 2255.89 2054.97 2309.51 1876.64 1707.93 1499.12 1457.8 1349.31 1325.04 1274.62 1170.17 909.614 896.031 836.416 819.98 813.047 806.006 772.514 733.77 695.542 683.946 646.998 603.907 584.713 578.746 566.601 525.737 504.081 420.892 413.072 409.427 401.723 401.37 400.906 508.287 399.706 398.433 398.242 392.346 389.898 380.229 355.577 337.175 330.16 325.668 311.545 288.134 287.735 286.804 372.794 283.69 278.997 276.863 361.145
threshold=9.0977940736536328e-09 -0.099999997764825807 -0.39022763073444361 -0.099999997764825807 -1.4253687262535093 4.5454859320948065e-10 1.3371881842613222 -1.1224972605705259 1.5826821923255923 0.99498745799064647 0.05239111743867398 -1.0842310190200803 1.303459703922272 1.2714642286300661 -0.8040107488632201 0.93857723474502575 1.1161473393440249 -0.18148986250162122 -0.82100775837898243 -1.0615606307983396 1.3922029733657839 -1.443442106246948 0.79558211565017711 1.0944677591323855 1.6438126564025881 0.93697628378868114 1.4414748549461367 -1.145567715167999 3.6612771148192285e-10 -0.47294883430004114 0.73596382141113292 0.099999997764825835 -0.28220671415328974 -5.9436339183704935e-10 -0.80400377511978138 0.81240388751029979 1.1692488789558413 -0.54381939768791188 -0.097051188349723802 -1.0000000180025095e-35 -0.037826841697096818 1.1398805379867556 -0.57184696197509755 -0.2477910369634628 -0.34226682782173151 3.1000926494598393 6.8389425234016707e-09 0.12154308706521989 -1.765855014324188 2.3087762594223027 -0.77300110459327687 -0.99498739838600148 0.65142819285392772 0.45544037222862249 0.056622786447405822 -0.92765444517135609 0.34979932010173803 7.9177784167758308e-27 0.76409253478050243 0.10000009462237359 0.23615152388811114 0.25285956263542181
decision_type=2 2 2 2 2 2 2 2 2 2 2 2 2 2 2 2 2 2 2 2 2 2 2 2 2 2 2 2 2 2 2 2 2 2 2 2 2 2 2 2 2 2 2 2 2 2 2 2 2 2 2 2 2 2 2 2 2 2 2 2 2 2
left_child=1 3 4 17 8 7 19 12 32 10 21 48 28 18 37 -11 33 27 30 29 -15 23 60 -7 38 54 -24 -1 53 -4 -9 -17 -3 -6 -29 50 -16 -13 -8 -32 -26 42 -20 -10 -27 -22 -14 -35 -5 -42 -18 -34 -40 55 -21 -2 57 -23 -43 -38 61 -12
right_child=5 2 6 11 16 9 24 13 43 15 22 14 46 20 36 31 35 -19 41 25 45 56 26 -25 40 44 -28 34 -30 -31 39 -33 51 47 -36 -37 59 -39 52 -41 49 58 -44 -45 -46 -47 -48 -49 -50 -51 -52 -53 -54 -55 -56 -57 -58 -59 -60 -61 -62 -63
leaf_value=0.022763198427938364 0.010902701055842141 0.006772628365971073 -0.0038192516741564963 0.019782517191630551 -0.0097327401290263783 -0.024376548933781716 -0.013910800664368337 -0.024468193808357061 0.019919420103375468 -0.033282721604329074 -0.011013725704092859 0.0085718090551905064 0.0020751466405691849 -0.02467151268519242 0.0054893989827273365 -0.0027462495685360703 -0.017518223773040319 0.02663707571311438 -0.0047059389622917903 -0.0030309079711239757 -0.014412772109699684 -0.020250596060754907 -0.020016632675778658 -0.003903464380577518 -0.0079236431682222497 -0.0014813604924426636 0.00035321396333164688 0.019938685676670582 0.00036030989653678124 -0.011988502341151628 0.02079985287660998 -0.023848382692563046 0.01397639459691594 0.0018353461968172574 0.012816992073351392 0.00052646310051775386 0.0069025142585426085 0.019649723694589952 -0.0053786026645883068 -0.013226296452309766 -0.020367376950070126 0.007133378401153293 -0.013827392721887061 0.010220810340346187 -0.0056338941733091348 0.011391791163181094 0.017925115702195418 0.0045322377340695505 0.013576873461881765 -0.0086074909343223285 0.0088113245035241622 0.0072327528845436088 -0.010764779222428199 0.0011257963122908617 -3.1766241977210378e-05 -0.022380812709214559 -0.031456945305942931 -0.030157063713442331 -0.0058622882747803723 -0.0056980651885195494 -0.013948866201395899 0.00011325841173305373
leaf_weight=36783.87956237793 252.70409609377384 38656.151730298996 16014.127662658691 14425.9365234375 3304.6770677566528 4160.8574945926666 25646.373191833496 7458.5814411193132 29461.120244681835 18981.142929077148 5367.7689054608345 4882.3544311523438 2027.0892635434866 16496.706253051758 24384.645154356956 1236.6398891806602 441.3202942609787 36635.238128662109 9349.6303170621395 51626.803744345903 7831.9609222412109 7578.416685834527 15216.914758324623 3007.7726247310638 3589.7532504796982 26397.976145744324 1777.4867858886719 22557.195495814085 5255.1880239546299 19170.233978271484 335.42518816888332 26633.977893412113 24373.239777088165 136855.18422791362 15908.755050450563 7988.7651689052582 2146.1038644909859 7981.9594459980726 14066.178666949272 4525.5583170801401 17491.886517167091 2167.7717156410217 13347.505706816912 4394.9237616658211 97987.409977912903 577.98928833007812 4584.3540195375681 74516.534635066986 23140.101898193359 2666.8350248336792 53880.775472551584 8927.1699550151825 35859.70110142231 782.47788435220718 65289.135986328125 3118.8232023864985 9668.8906081169844 6228.7354039549828 4995.7901916503906 6010.9804899096489 5363.526683807373 5138.2088571190834
leaf_count=76940 673 115365 37343 37177 10667 12947 81018 22295 65685 58780 18692 12651 4817 49918 67158 3818 1151 118351 22614 164676 24201 18915 45326 6825 10231 82719 4576 54699 12049 50775 950 75618 58446 383026 38587 21105 6919 26208 43997 14554 49955 6988 38835 11745 301213 707 6760 185650 60016 6173 121584 25153 111300 2727 198077 9459 27864 18710 15704 16886 16272 13662
internal_value=3.71987e-06 0.00360735 7.90567e-05 0.0173435 0.00607828 -0.017756 -0.00603181 -0.0116589 0.0122744 -0.0223474 -0.0188312 0.0109997 0.00138005 -0.0147727 0.00689586 -0.0271135 0.00371127 0.022048 -0.0113266 -0.00376399 -0.0206087 -0.0247557 -0.0133069 -0.0157866 -0.0123449 -0.00310693 -0.0178861 0.0198138 -0.00683079 -0.00827028 -0.019106 -0.0229121 0.00926978 0.00259339 0.0169933 0.00756266 0.00351609 0.0154454 -0.0108299 -0.0108784 -0.0171658 -0.00811713 -0.01007 0.0186604 -0.00475261 -0.0126393 0.0130655 0.0027861 0.0159599 -0.0188116 0.00859742 0.0121686 -0.00924727 -0.0159282 -0.0013561 -0.0198861 -0.0274945 -0.0247196 -0.00192966 -0.00238289 -0.00840305 -0.0055718
internal_weight=1.14693e+06 953463 758606 194857 382800 193468 375806 83107.6 105813 110360 63508.6 82972.1 16020.6 67086.9 45406 46851.8 276987 111885 42180.3 276486 24906.7 30644.7 32863.9 7168.63 99320.7 241301 16994.4 75249.8 9409.19 35184.4 12319.6 27870.6 71956.6 214676 38466 62310.9 32541.7 12864.3 75572.3 4860.98 23748.5 29860.7 22697.1 33856 124385 8409.95 6611.44 211372 37566 20158.7 54322.1 33300.4 49925.9 4154.01 116916 3371.53 23476 13807.2 7163.56 8157.08 15869.5 10506
internal_count=3207902 2652646 2137054 515592 999577 555256 1137477 233251 276394 322005 183789 227015 36485 196766 129822 138216 723183 288577 121940 834803 74826 85261 98528 19772 302674 746685 49902 170226 24908 88118 37799 79436 198964 579343 93286 143840 90963 38859 236315 15504 66359 84141 61449 77430 383932 24908 11577 568676 97193 56128 122735 83599 155297 12859 362753 10132 65489 37625 22692 23805 48626 32354
is_linear=0
shrinkage=0.03


Tree=10
num_leaves=1
num_cat=0
split_feature=
split_gain=
threshold=
decision_type=
left_child=
right_child=
leaf_value=0
leaf_weight=
leaf_count=3207902
internal_value=
internal_weight=
internal_count=
is_linear=0
shrinkage=1


Tree=11
num_leaves=63
num_cat=0
split_feature=26 27 22 29 22 29 22 22 24 22 4 22 24 22 28 4 24 4 28 20 4 4 22 27 24 24 22 24 20 28 4 27 24 27 25 28 25 25 25 4 27 4 25 14 28 22 22 22 22 25 4 4 26 4 25 26 25 27 28 19 22 28
split_gain=81558.7 51344.1 30900.9 6461.54 6238.08 6017.69 5978.19 3749.11 2255.89 2054.97 2309.51 1876.64 1707.93 1499.12 1457.8 1349.31 1325.04 1274.62 1170.17 1036.67 909.614 896.032 836.416 819.98 813.047 806.006 772.515 733.771 686.342 683.946 603.907 584.713 578.746 566.601 561.93 559.677 520.168 454.766 446.447 413.072 401.723 400.906 597.101 398.242 392.346 377.296 332.007 330.558 328.993 320.7 313 311.545 309.114 307.815 296.347 295.928 290.95 287.735 286.804 372.795 283.69 279.615
threshold=9.0977940736536328e-09 -0.099999997764825807 -0.39022763073444361 -0.099999997764825807 -1.4253687262535093 4.5454859320948065e-10 1.3371881842613222 -1.1224972605705259 1.5826821923255923 0.99498745799064647 0.05239111743867398 -1.0842310190200803 1.303459703922272 1.2714642286300661 -0.8040107488632201 0.93857723474502575 1.1161473393440249 -0.18148986250162122 -0.82100775837898243 -4.7642918161727712e-06 -1.0615606307983396 1.3922029733657839 -1.443442106246948 0.79558211565017711 1.0944677591323855 1.6438126564025881 0.93697628378868114 1.4414748549461367 -0.0081134592182934267 3.6612771148192285e-10 0.73596382141113292 0.099999997764825835 -0.28220671415328974 -5.9436339183704935e-10 1.3823857903480532 6.8389425234016707e-09 -0.8124038279056548 -1.1224971413612364 -2.4099702835083003 -0.54381939768791188 -1.0000000180025095e-35 1.1398805379867556 -0.8124038279056548 3.1000926494598393 6.8389425234016707e-09 -1.4933329224586485 -1.1224971413612364 2.0965691804885869 -1.765855014324188 -0.44446764886379236 0.10473203286528589 0.45544037222862249 -0.80400377511978138 2.7708030939102177 -1.7419345974922178 -0.80400377511978138 -0.8124038279056548 -0.92765444517135609 0.34979932010173803 7.9177784167758308e-27 0.76409253478050243 -0.79558202624320973
decision_type=2 2 2 2 2 2 2 2 2 2 2 2 2 2 2 2 2 2 2 2 2 2 2 2 2 2 2 2 2 2 2 2 2 2 8 2 10 10 10 2 2 2 10 2 2 2 2 2 2 10 2 2 2 2 10 2 10 2 2 2 2 2
left_child=1 3 4 17 8 7 20 12 32 10 22 28 29 18 39 -11 33 19 30 45 38 49 24 -12 -7 47 -22 -25 48 51 -9 -17 -3 -6 50 -36 -35 61 -4 -13 -32 42 -20 -23 -14 -1 -21 -8 -5 -15 -16 57 -47 -27 -10 -48 -40 -2 59 -24 -43 -18
right_child=5 2 6 11 16 9 25 13 54 15 23 14 44 21 34 31 37 -19 41 46 26 43 58 27 -26 53 -28 -29 -30 -31 40 -33 -34 36 35 -37 -38 -39 56 -41 -42 60 -44 -45 -46 52 55 -49 -50 -51 -52 -53 -54 -55 -56 -57 -58 -59 -60 -61 -62 -63
leaf_value=-0.021360194776660617 -0.010902701055842141 -0.0067726283925081529 -0.0058295263338616968 -0.016824817907088487 0.0097327401290263783 0.024376549012868978 0.0095494477208422374 0.024468193894039057 -0.021366955436507643 0.033282720994225572 0.0084030554756181625 -0.0085718090828152699 -0.002075147014588768 0.019271578527553714 -0.0023810907324803409 0.0027462459007485669 0.018006847468887692 -0.026637074759611912 0.0053999836191855957 -0.024489616019517147 0.0013561031759474983 0.01441277202317153 0.020250594557481804 0.020016633485220134 0.0039034643359789575 0.018007650002603851 0.0047526132737531965 -0.00035321726445456102 -0.019449030126116595 -0.00036030989653678124 -0.02079985287660998 0.023848382692563046 -0.012168559996983306 -0.0039008099421866784 -0.011618667983167406 0.008340575312295026 -0.00079919040390369399 -0.0040370026485487117 0.0065064794041270659 -0.019649723688281207 0.01322629637742948 -0.0071333780685492012 0.015139916540481328 -0.011391791955174443 -0.017925115702195418 -0.015733185954180069 -0.022568842627265401 0.013904336639139791 -0.0079253104384178659 0.027911589774719026 -0.0090582747984935593 -0.0011257962819017141 -0.0077447973773072535 0.0033083848154060228 -0.015749749562955266 -0.015874406943629241 0.012137986632839057 0.022380812448539202 0.031456945305942931 0.030157064950365114 0.005862288132152246 -0.0096507375314233892
leaf_weight=5731.4930877685547 252.70409609377384 38656.151439428329 1911.3022918701172 5965.0382232666016 3304.6770677566528 4160.8574602603912 53352.069305419922 7458.5814144164324 17543.222503662109 18981.143249511719 15869.503698706627 4882.3544387817383 2027.0892635434866 6186.4037736654282 12999.17088830471 1236.6398739218712 331.68200491368771 36635.238494873047 11814.533473968506 27184.133750915527 116915.93889144063 7831.9609375 7578.4170124679804 15216.91444170475 3007.772613286972 22388.428192138672 124385.38447570801 1777.4871025085449 21585.317497253418 5255.1880239546299 335.42518816888332 26633.977893412113 33300.409656763077 135405.72240900993 1631.7194774448872 5617.1691047847271 75966.000354498625 21542.981577426195 18066.488632202148 7981.9594383686781 4525.558343783021 2167.771719455719 10882.602817416191 577.98928833007812 4584.3540195375681 10876.131643787026 13665.771033853292 22220.183898925781 10015.68285369873 10310.302464127541 12293.670495986938 782.47788006067276 7276.1042265743017 1360.0463562011719 16312.821380615234 10516.195389181376 15206.569755554199 3118.8232524544001 9668.8906081169844 6228.735259950161 4995.7901802062988 40436.197389617562
leaf_count=13831 673 115365 3691 18195 10667 12947 165659 22295 35787 58780 48626 12651 4817 17358 34354 3818 778 118351 28105 53037 362753 24201 18915 45326 6825 63539 383932 4576 49537 12049 950 75618 83599 335851 5231 15585 232825 58326 42342 26208 14554 6988 33344 707 6760 28316 31659 70656 29461 32560 35793 2727 19477 2820 41643 23906 42085 9459 27864 18710 15704 84736
internal_value=-3.71987e-06 -0.00360735 -7.90567e-05 -0.0173435 -0.00607828 0.017756 0.00603181 0.0116589 -0.0122744 0.0223474 0.0188312 -0.0109997 -0.00138005 0.0147727 -0.00689586 0.0271135 -0.00371127 -0.022048 0.0113266 -0.0198138 0.00376399 0.0206087 0.0247557 0.0133069 0.0157866 0.0123449 0.00310693 0.0178861 -0.0159599 0.00683079 0.019106 0.0229121 -0.00926978 -0.00259339 -0.00351609 0.00384776 -0.0027861 -0.00756266 0.00827028 -0.0154454 0.0108784 0.00811713 0.01007 0.0126393 -0.0130655 -0.0146499 -0.0222148 0.0108299 -0.0112472 0.0246715 -0.00562656 0.0159282 -0.0125311 0.0171658 -0.0186604 -0.0196576 0.00908021 0.0198861 0.0274945 0.0247196 0.00192966 -0.00942572
internal_weight=1.14693e+06 953463 758606 194857 382800 193468 375806 83107.6 105813 110360 63508.6 82972.1 16020.6 67086.9 45406 46851.8 276987 111885 42180.3 75249.8 276486 24906.7 30644.7 32863.9 7168.63 99320.7 241301 16994.4 37566 9409.19 12319.6 27870.6 71956.6 214676 32541.7 7248.89 211372 62310.9 35184.4 12864.3 4860.98 29860.7 22697.1 8409.95 6611.44 23883.7 51366.1 75572.3 15980.7 16496.7 25292.8 4154.01 18152.2 23748.5 33856 24182 33273.1 3371.53 23476 13807.2 7163.56 40767.9
internal_count=3207902 2652646 2137054 515592 999577 555256 1137477 233251 276394 322005 183789 227015 36485 196766 129822 138216 723183 288577 121940 170226 834803 74826 85261 98528 19772 302674 746685 49902 97193 24908 37799 79436 198964 579343 90963 20816 568676 143840 88118 38859 15504 84141 61449 24908 11577 61624 108602 236315 47656 49918 70147 12859 47793 66359 77430 55565 84427 10132 65489 37625 22692 85514
is_linear=0
shrinkage=0.03


Tree=12
num_leaves=63
num_cat=0
split_feature=26 27 22 29 22 29 22 22 22 4 22 22 28 4 4 28 28 23 25 20 4 4 22 27 22 25 22 23 23 27 4 25 28 4 23 20 23 20 23 27 23 26 25 14 27 4 23 25 4 20 25 25 18 4 20 23 22 28 19 18 25 14
split_gain=74953 47837.8 28503.9 6119.59 6037.46 5486.01 5247.64 3441.64 1877.15 2119.85 1763.46 1469.28 1367.86 1266.21 1225.54 1190 1177.56 1064.11 1043.68 1024.06 852.236 821.156 753.175 729.281 691.484 659.605 641.765 611.839 607.085 593.684 589.553 577.074 538.106 444.545 442.791 440.754 435.495 419.32 400.191 382.519 374.166 367.984 364.862 364.74 359.806 357.347 352.725 343.817 660.01 432.808 300.49 293.457 287.222 283.968 278.081 261.803 291.546 256.657 355.474 245.667 242.65 327.805
threshold=9.0977940736536328e-09 -0.099999997764825807 -0.25176095962524409 -0.099999997764825807 -1.4933329224586485 4.5454859320948065e-10 1.3371881842613222 -1.2186056971549986 0.97528311610221874 0.05239111743867398 -1.2980470061302183 1.2714642286300661 -0.8040107488632201 0.76772898435592662 -0.34802392125129694 3.6612771148192285e-10 -0.8040107488632201 -0.78122290968894947 -1.1935803294181822 -4.7642918161727712e-06 -1.0615606307983396 1.602903485298157 -1.4253687262535093 0.79558211565017711 1.918430030345917 1.3823857903480532 1.0150902867317202 1.0000000180025095e-35 0.78388431668281566 0.099999997764825835 0.73596382141113292 -1.6985605359077451 6.8389425234016707e-09 -0.54381939768791188 0.29231773316860205 -0.012328396551311014 -0.037826841697096818 -0.023472817614674565 -0.60167688131332386 -1.0000000180025095e-35 -0.34226682782173151 -1.6785972714424131 -2.1067124605178829 2.886909127235413 1.3539149246177831e-09 1.6812230944633486 1.3128201961517336 -0.8124038279056548 0.017479752190411094 0.81157347559928905 -0.44446764886379236 -1.2433437705039976 -1.0000000180025095e-35 0.82891452312469494 -0.001008005521725863 0.73199942708015453 0.33409562706947332 0.2934058159589768 6.5120257980186533e-30 -1.6614695397265674e-08 2.4621080160140996 0.73078012466430675
decision_type=2 2 2 2 2 2 2 2 2 2 2 2 2 2 2 2 2 2 10 2 2 2 2 2 2 10 2 2 2 2 2 10 2 2 2 2 2 2 2 2 2 2 10 2 2 2 2 10 2 2 10 10 2 2 2 2 2 2 2 2 10 2
left_child=1 3 4 14 17 7 20 15 9 22 35 16 33 -10 19 44 30 31 38 41 27 50 -7 55 45 -14 51 42 37 -15 -9 -3 -27 -12 -17 -5 -26 -20 54 -32 -28 -1 -4 -23 -2 -8 52 49 -49 -18 59 -22 -21 -46 -6 56 -11 58 -24 -13 -25 -62
right_child=5 2 6 10 18 8 24 11 13 23 12 21 25 29 -16 34 47 -19 28 46 26 43 57 60 36 32 40 -29 -30 -31 39 -33 -34 -35 -36 -37 -38 -39 -40 -41 -42 -43 -44 -45 53 -47 -48 48 -50 -51 -52 -53 -54 -55 -56 -57 -58 -59 -60 -61 61 -63
leaf_value=0.020542123863211709 0.010387646249058215 0.017132501397125962 0.0084553452009017739 0.012318800583409771 -0.014838910822196015 -0.015258065983207595 -0.011091655658209828 -0.023126664225204981 -0.032320377563215888 -0.0022886295369867809 0.0092412592388036608 -0.02562345779196858 0.0064326773348874679 -0.0028896750935159358 0.025630905808115632 0.011815968659828533 -0.0065393251704590231 0.0069379956078556987 -0.013995905954142232 0.024145814457951942 0.0017653929283559442 -0.013145914458969106 -0.018997284565014906 -0.017767813417877858 -0.0083580614324177595 0.01147201553214427 -0.0013317523151666077 -0.012895599684464232 -0.00066235122751800849 -0.023069808776775468 0.020417319869047889 0.011670810228190619 -0.0077793238156242854 0.019404176571384286 -0.011023835070477491 0.020066381656749094 -0.016102681584909542 0.0034320850261984589 0.0033169478137641908 -0.012317682043625145 -0.0060103590221358893 0.011550845039041318 -0.0060033479619720298 0.010605256252953289 -0.01470947355487897 -0.0057484841242720092 0.011811309258608836 -0.018607406714657913 -0.0060838233472448018 0.0067642155001359904 -0.025999106537085856 -0.0023541608468383422 0.019291428158923877 0.007232015511263087 0.0080451170552089321 -0.012897098794202718 -0.015184528637462837 -0.029910235118525044 -0.028824069329701527 -0.013526599278110511 -0.021227097531408213 0.018266768447341125
leaf_weight=5406.2879200428724 771.2749941945076 32269.56575012207 1739.3592205047607 11266.471940994263 481.96405059099197 7418.0552444458008 40946.414428710938 8136.128412604332 17239.87287902832 7787.8799838274717 6829.9964294433594 2378.1979649066925 32003.938602596521 1373.0071841478348 39716.732727050781 7608.8238151669502 11727.994265794754 24642.683616638184 1251.6689610481262 26906.745255291462 17808.85906791687 6349.1876220703125 7188.2294897139072 15654.518248155713 8025.7781337499619 1685.6195079535246 19415.648042917252 14453.01000213623 43594.466973185539 29551.571276545525 344.72719547152519 37812.206687927246 5813.6080501824617 8949.2690407782793 849.19454592466354 15984.639966964722 35173.143008828163 169436.04021322727 25202.265708684921 4721.4410555660725 74090.33939909935 16911.332548096776 16205.899309158325 640.62349700927734 3955.6730195730925 15540.594207763672 3166.7223892211914 5744.2409472316504 11117.379590511322 2709.3640022277832 11502.660109728575 123392.57452251017 18520.032187640667 613.14617396891117 56850.508918702602 5918.9875731468201 1978.6395835876465 9859.1756355017424 6145.4982065409422 4143.2058673202991 358.63078847527504 400.23693498969078
leaf_count=13636 1986 72501 3145 33719 1283 20381 125591 24041 52824 24020 17458 7154 88168 4274 129109 13483 29561 71680 4148 52479 53864 19561 17923 46389 24433 5436 60698 38763 128292 84328 981 105249 16185 29647 2371 36402 106703 447875 70371 15113 227046 43800 39220 846 11091 45947 8239 16809 35265 5634 36160 383437 41314 2090 126808 17354 6567 28312 18078 11105 1160 395
internal_value=4.84349e-06 0.00347135 7.63911e-05 0.0167996 0.00570582 -0.0169806 -0.00593289 -0.0111636 -0.0213516 -0.0179306 0.0106175 -0.0138801 0.00753862 -0.0258057 0.0214118 0.0025224 -0.0106102 0.0123002 0.00360134 0.0190487 -0.00374075 -0.0196975 -0.0235788 -0.0125442 -0.0118067 0.00455615 -0.00311116 -0.00830177 0.00249729 -0.0221738 -0.0181241 0.0141857 -0.00345215 0.0150052 0.00952283 0.0168633 -0.0146638 0.00330428 0.00646772 -0.0100902 -0.00503889 0.0137289 -0.00460193 -0.0109691 -0.00856536 -0.00962165 0.0214919 -0.00744076 -0.0103502 -0.00404274 -0.0230825 -0.00183459 0.0221667 -0.0117649 0.00785274 -0.00791852 -0.00490126 -0.0262402 -0.0235264 -0.017938 -0.0169647 -0.000397507
internal_weight=1.14568e+06 951494 758333 193161 391541 194188 366792 83313.3 110874 62709.9 82533.5 69515.2 55282.4 48164.5 110628 13798.1 44501.3 94724.5 296817 70911.1 267106 25013.9 30611 32098.9 99685.9 39503.2 234707 32398.3 214282 30924.6 13202.3 70081.8 7499.23 15779.3 8458.02 27251.1 43198.9 170688 82534.7 5066.17 93506 22317.6 17945.3 6989.81 5340.09 56487 48593.5 31299 16861.6 14437.4 18024.1 141201 45426.8 4568.82 57332.5 15685.5 9766.52 23192.9 13333.7 6521.4 16413.4 758.868
internal_count=3207902 2652646 2137054 515592 1028207 555256 1108847 233251 322005 180579 227015 202230 156894 141426 288577 31021 127404 249430 778777 159468 806173 74826 84694 95885 302674 109789 725045 81128 580315 88602 40135 177750 21621 47105 15854 70121 131136 452023 198462 16094 287744 57436 42365 20407 15167 171538 102032 87269 52074 35195 54419 437301 93793 13181 128091 47941 30587 64313 36001 18259 47944 1555
is_linear=0
shrinkage=0.03


Tree=13
num_leaves=1
num_cat=0
split_feature=
split_gain=
threshold=
decision_type=
left_child=
right_child=
leaf_value=0
leaf_weight=
leaf_count=3207902
internal_value=
internal_weight=
internal_count=
is_linear=0
shrinkage=1


Tree=14
num_leaves=63
num_cat=0
split_feature=26 27 22 29 22 29 22 22 22 4 22 22 28 4 4 28 28 23 25 20 4 4 22 27 22 25 22 23 23 27 4 25 28 4 23 20 23 20 23 27 23 26 25 14 27 4 23 25 4 20 25 25 18 4 20 23 22 28 19 18 25 14
split_gain=74953 47837.8 28503.9 6119.59 6037.46 5486.01 5247.64 3441.64 1877.15 2119.85 1763.46 1469.28 1367.86 1266.21 1225.54 1190 1177.56 1064.11 1043.68 1024.06 852.236 821.156 753.175 729.28 691.484 659.605 641.765 611.839 607.085 593.684 589.553 577.074 538.106 444.545 442.791 440.754 435.495 419.32 400.191 382.519 374.166 367.984 364.862 364.74 359.806 357.347 352.725 343.817 660.01 432.808 300.49 293.456 287.222 283.968 278.081 261.802 291.546 256.657 355.474 245.667 242.65 327.805
threshold=9.0977940736536328e-09 -0.099999997764825807 -0.25176095962524409 -0.099999997764825807 -1.4933329224586485 4.5454859320948065e-10 1.3371881842613222 -1.2186056971549986 0.97528311610221874 0.05239111743867398 -1.2980470061302183 1.2714642286300661 -0.8040107488632201 0.76772898435592662 -0.34802392125129694 3.6612771148192285e-10 -0.8040107488632201 -0.78122290968894947 -1.1935803294181822 -4.7642918161727712e-06 -1.0615606307983396 1.602903485298157 -1.4253687262535093 0.79558211565017711 1.918430030345917 1.3823857903480532 1.0150902867317202 1.0000000180025095e-35 0.78388431668281566 0.099999997764825835 0.73596382141113292 -1.6985605359077451 6.8389425234016707e-09 -0.54381939768791188 0.29231773316860205 -0.012328396551311014 -0.037826841697096818 -0.023472817614674565 -0.60167688131332386 -1.0000000180025095e-35 -0.34226682782173151 -1.6785972714424131 -2.1067124605178829 2.886909127235413 1.3539149246177831e-09 1.6812230944633486 1.3128201961517336 -0.8124038279056548 0.017479752190411094 0.81157347559928905 -0.44446764886379236 -1.2433437705039976 -1.0000000180025095e-35 0.82891452312469494 -0.001008005521725863 0.73199942708015453 0.33409562706947332 0.2934058159589768 6.5120257980186533e-30 -1.6614695397265674e-08 2.4621080160140996 0.73078012466430675
decision_type=2 2 2 2 2 2 2 2 2 2 2 2 2 2 2 2 2 2 10 2 2 2 2 2 2 10 2 2 2 2 2 10 2 2 2 2 2 2 2 2 2 2 10 2 2 2 2 10 2 2 10 10 2 2 2 2 2 2 2 2 10 2
left_child=1 3 4 14 17 7 20 15 9 22 35 16 33 -10 19 44 30 31 38 41 27 50 -7 55 45 -14 51 42 37 -15 -9 -3 -27 -12 -17 -5 -26 -20 54 -32 -28 -1 -4 -23 -2 -8 52 49 -49 -18 59 -22 -21 -46 -6 56 -11 58 -24 -13 -25 -62
right_child=5 2 6 10 18 8 24 11 13 23 12 21 25 29 -16 34 47 -19 28 46 26 43 57 60 36 32 40 -29 -30 -31 39 -33 -34 -35 -36 -37 -38 -39 -40 -41 -42 -43 -44 -45 53 -47 -48 48 -50 -51 -52 -53 -54 -55 -56 -57 -58 -59 -60 -61 61 -63
leaf_value=-0.020542123863211709 -0.010387645513464171 -0.017132501361418404 -0.0084553451062433713 -0.012318800640356287 0.014838910723820662 0.015258065974963087 0.011091655814925321 0.02312666427326459 0.032320376275638336 0.0022886312491994759 -0.0092412592723896247 0.025623457711267134 -0.0064326776223197031 0.0028896707149113714 -0.025630905667007323 -0.011815968667973974 0.0065393254594553907 -0.0069379945408513761 0.013995905788217257 -0.024145814509060053 -0.0017653907747172759 0.013145914080052555 0.018997284810304681 0.017767813071504615 0.0083580613666975629 -0.011472015646991535 0.0013317522447351918 0.012895599661396851 0.00066235125983300314 0.023069808776775468 -0.020417319869047889 -0.011670810387386779 0.0077793238156242854 -0.019404176550083821 0.011023835002386713 -0.020066381750983246 0.016102681768926132 -0.0034320852251437848 -0.0033169479718642356 0.01231768197827366 0.0060103589295689127 -0.011550846005482661 0.006003350688804563 -0.01060525653627006 0.01470947357787746 0.0057484839541502384 -0.011811309729691291 0.01860740743779048 0.0060838239282360361 -0.0067642155084236778 0.025999105983847994 0.0023541609319130655 -0.019291426787289474 -0.0072320154122133065 -0.0080451169229081871 0.012897098780616463 0.015184529787828863 0.029910235118525044 0.028824069222830075 0.013526599402429522 0.021227115798138487 -0.018266768606232404
leaf_weight=5406.2879200428724 771.27502471208572 32269.565780639648 1739.3592281341553 11266.47190284729 481.96404486894608 7418.0552597045898 40946.412673950195 8136.1284049749374 17239.873962402344 7787.8805579394102 6829.9964332580566 2378.1979668140411 32003.938911587 1373.0070468187332 39716.732177734375 7608.8238099217415 11727.994108438492 24642.685014724731 1251.6689705848694 26906.745477974415 17808.856832504272 6349.187744140625 7188.2279436886311 15654.518553331494 8025.7781399488449 1685.6194736212492 19415.648205041885 14453.009983062744 43594.466406702995 29551.571276545525 344.72719547152519 37812.20623588562 5813.6080501824617 8949.269036963582 849.19455116987228 15984.639974594116 35173.142636418343 169436.04769766331 25202.26481795311 4721.441063195467 74090.33819937706 16911.331953004003 16205.893934249878 640.62351226806641 3955.6730126589537 15540.59407043457 3166.7221908569336 5744.2409472316504 11117.379624843597 2709.3640327453613 11502.660157173872 123392.57784129679 18520.033063590527 613.14618088304996 56850.509509980679 5918.9875655174255 1978.6395359039307 9859.1756355017424 6145.4981513470411 4143.2058637440205 358.63048306107521 400.23693522810936
leaf_count=13636 1986 72501 3145 33719 1283 20381 125591 24041 52824 24020 17458 7154 88168 4274 129109 13483 29561 71680 4148 52479 53864 19561 17923 46389 24433 5436 60698 38763 128292 84328 981 105249 16185 29647 2371 36402 106703 447875 70371 15113 227046 43800 39220 846 11091 45947 8239 16809 35265 5634 36160 383437 41314 2090 126808 17354 6567 28312 18078 11105 1160 395
internal_value=-4.84349e-06 -0.00347135 -7.63911e-05 -0.0167996 -0.00570582 0.0169806 0.00593289 0.0111636 0.0213516 0.0179306 -0.0106175 0.0138801 -0.00753862 0.0258057 -0.0214118 -0.0025224 0.0106102 -0.0123002 -0.00360134 -0.0190487 0.00374075 0.0196975 0.0235788 0.0125442 0.0118067 -0.00455615 0.00311116 0.00830177 -0.0024973 0.0221738 0.0181241 -0.0141857 0.00345215 -0.0150052 -0.00952283 -0.0168633 0.0146638 -0.00330428 -0.00646772 0.0100902 0.00503889 -0.0137289 0.00460193 0.0109691 0.00856536 0.00962165 -0.0214919 0.00744076 0.0103502 0.00404274 0.0230825 0.00183459 -0.0221667 0.0117649 -0.00785274 0.00791852 0.00490126 0.0262402 0.0235264 0.017938 0.0169647 0.000397507
internal_weight=1.14568e+06 951494 758333 193161 391541 194188 366792 83313.3 110874 62709.9 82533.5 69515.2 55282.4 48164.5 110628 13798.1 44501.3 94724.5 296817 70911.1 267106 25013.9 30611 32098.9 99685.9 39503.2 234707 32398.3 214282 30924.6 13202.3 70081.8 7499.23 15779.3 8458.02 27251.1 43198.9 170688 82534.7 5066.17 93506 22317.6 17945.3 6989.81 5340.09 56487 48593.5 31299 16861.6 14437.4 18024.1 141201 45426.8 4568.82 57332.5 15685.5 9766.52 23192.9 13333.7 6521.4 16413.4 758.867
internal_count=3207902 2652646 2137054 515592 1028207 555256 1108847 233251 322005 180579 227015 202230 156894 141426 288577 31021 127404 249430 778777 159468 806173 74826 84694 95885 302674 109789 725045 81128 580315 88602 40135 177750 21621 47105 15854 70121 131136 452023 198462 16094 287744 57436 42365 20407 15167 171538 102032 87269 52074 35195 54419 437301 93793 13181 128091 47941 30587 64313 36001 18259 47944 1555
is_linear=0
shrinkage=0.03


Tree=15
num_leaves=63
num_cat=0
split_feature=26 27 22 29 24 22 29 22 22 4 22 22 24 28 22 4 22 28 4 22 22 24 4 4 22 24 22 23 24 28 28 23 25 26 18 19 28 24 23 27 4 23 4 27 23 4 25 24 4 4 28 27 25 23 14 25 4 27 28 22 14 27
split_gain=68943.3 44591.8 26304.6 5805.15 5498.65 5053.98 5017.21 3161.73 1725.59 1868.37 1673.14 1654.91 1546.05 1273.66 1259.09 1176.1 1082.19 984.104 973.626 898.057 842.444 793.203 747.138 727.286 712.767 699.024 681.264 599.538 597.683 575.281 548.467 511.175 492.188 491.008 488.125 482.569 479.958 478.968 476.329 464.065 458.195 417.677 412.77 409.641 395.084 392.647 460.291 378.395 372.068 346.584 335.354 331.558 321.71 321.05 308.676 301.605 298.664 295.975 287.565 283.592 279.248 277.848
threshold=9.0977940736536328e-09 -0.099999997764825807 -0.39022763073444361 -0.099999997764825807 1.411061763763428 1.2186058163642886 4.5454859320948065e-10 -1.1224972605705259 1.1455647349357607 0.45544037222862249 -1.0842310190200803 -1.6824501752853391 1.303459703922272 -0.8040107488632201 1.3108752965927126 -0.34802392125129694 -1.6358280777931211 -0.881962090730667 1.0942625403404238 1.918430030345917 -1.5542785525321958 -0.32499736547470087 -1.2045484781265257 1.7665791511535647 0.76409253478050243 1.0351483225822451 -1.145567715167999 -1.0820888876914976 1.2165601253509524 3.6612771148192285e-10 0.97528281807899486 -0.47294883430004114 1.4081290960311892 -0.80400377511978138 0.001376986096147448 0.076672643423080458 6.8389425234016707e-09 -0.16142456233501432 0.9183318316936494 0.099999997764825835 1.0000000180025095e-35 0.93697622418403637 1.6420891284942629 -1.0000000180025095e-35 -0.2477910369634628 1.3753287792205813 -0.8124038279056548 -0.28220671415328974 -0.85904753208160389 -0.68485713005065907 6.8389425234016707e-09 0.099999997764825835 -2.1067124605178829 -0.21480012685060498 2.886909127235413 inf 0.086936157196760191 -5.9436339183704935e-10 -1.145567715167999 -1.765855014324188 3.51808774471283 0.6281908154487611
decision_type=2 2 2 2 2 2 2 2 2 2 2 2 2 2 2 2 2 2 2 2 2 2 2 2 2 2 2 2 2 2 2 2 10 2 2 2 2 2 2 2 2 2 2 2 2 2 10 2 2 2 2 2 10 2 2 8 2 2 2 2 2 2
left_child=1 3 4 15 11 22 7 12 9 20 34 47 29 48 17 26 44 40 -10 42 25 -13 31 -16 28 -8 -1 -23 30 -2 -11 52 56 -28 35 60 -34 -21 57 -26 -9 -18 53 -42 -6 46 -19 -3 -12 58 -14 -20 -4 -7 -25 -33 -15 -24 -22 -36 -5 -51
right_child=6 2 5 10 16 19 8 14 18 24 13 21 50 32 23 -17 41 45 51 37 49 27 38 54 39 -27 33 -29 -30 -31 -32 55 36 -35 59 -37 -38 -39 -40 -41 43 -43 -44 -45 -46 -47 -48 -49 -50 61 -52 -53 -54 -55 -56 -57 -58 -59 -60 -61 -62 -63
leaf_value=0.021459395037391214 -0.014788320282032844 0.00739840843211741 0.010222720585384771 0.022134758343284523 0.019238097045482155 -0.0057720548614507219 -0.020762688816701944 -0.024505550836493816 -0.030714587084652325 -0.0085073218209327124 0.0068542933637753579 0.001491463814177298 0.0023506122219411176 0.0019506959823003241 -0.022029769402024744 0.0249728981995187 0.011046143766174618 -0.0053441097546282137 -0.0035968372488317814 -0.01034841408225602 -0.020479132890457628 0.0072430481312222537 -0.011523215707024716 -0.012107080209264902 0.0049233631184600821 -0.0014616327095804732 0.018518431989723763 0.0033101768824830677 0.0010907050501970002 0.00013283216770340842 -0.022594142902232335 -0.012214803972910172 0.010834564483502913 0.011338038122540946 0.016162457482742212 0.011962787320137747 -0.0080642790813466123 -0.016728428524898774 -0.0041217032719006348 -0.018973575766420579 0.01459397196914812 -0.00088619703203713198 -0.0052024829018786226 -0.014690273151850052 0.0091528527055365662 -0.00085097870117528814 -0.013326962111491755 0.013252579868318839 0.017923359641785905 -0.015413709991554699 0.017020740604291828 -0.022002375313768922 -0.0051166115274560095 -0.011218454128541061 0.010584639036116752 0.024893647377282131 0.0084508887544621405 -0.0011525941966538406 -0.029242906400446102 0.0077809347700805425 -0.00089744259400138251 -0.023928244004983612
leaf_weight=34840.305931091309 4179.0973626971245 26169.14052939415 1381.8358116149902 13176.395456314087 26749.018965423107 12505.498724877834 3986.9414249658585 5269.8888239860535 17639.203506469727 11583.224761411548 3989.4943656921387 126624.18039345741 2030.9586580097675 12910.859059512615 18101.265365600586 39144.308288574219 25831.295670896769 12851.088067501783 919.93058437108994 18386.643025770783 4548.6029390990734 54033.587913513184 2526.904883518815 4988.0180053710938 775.39977782964706 2929.757412314415 20715.349991187453 98439.303958654404 4377.5951218605042 5243.0933874249458 3167.8192539960146 14246.884616851807 1557.2352482825518 14620.253440514207 5810.8082275390625 7821.066556930542 5414.6923830956221 24975.487101182342 100359.46861934662 12879.764849245548 462.60360069572926 2940.7341142594814 22396.667587280273 6083.2226398438215 4021.4765179753304 5969.9439659118652 13155.170701295137 16020.371860742569 8677.7724531888962 5526.9165853410959 4531.5561582744122 20738.240176737309 11238.527366638184 44060.822793066502 604.95829772949219 199.88807678222656 12541.310886383057 124876.30112414062 13002.050909548998 9695.0815048217773 491.43251037597656 9175.7666560262442
leaf_count=73493 12859 79270 2365 26724 61647 37635 12575 15264 54428 36384 10109 370913 4817 34254 54565 129109 58639 31032 2794 59090 11201 126355 7968 15232 2409 6920 50409 241997 11169 12049 9203 37625 5032 35566 17421 24360 15007 72046 308382 38253 1373 7722 66845 19441 10859 18761 40323 42175 28750 17081 6760 57021 26416 134963 775 234 36670 383908 34773 28413 275 27794
internal_value=5.8219e-06 0.00334099 7.38015e-05 0.0162793 0.00563543 -0.005542 -0.0162552 -0.0106958 -0.0204264 -0.0176652 0.0102501 0.00408357 0.00130119 0.00637055 -0.0135374 0.0208066 0.0140091 -0.0105232 -0.0254821 -0.0105544 -0.0220878 0.00324645 -0.00313592 -0.0191082 -0.0123811 -0.0125872 0.0184826 0.00470391 -0.00864367 -0.00648526 -0.0115325 -0.00784804 0.00321911 0.0155475 0.0149786 0.0179059 -0.00384307 -0.0140231 -0.00257593 -0.0176166 -0.0179214 0.00982656 -0.00864956 -0.0126207 0.01792 -0.00778943 -0.00938221 0.00962138 0.0144372 -0.0241252 0.0124806 -0.0212206 -0.00343707 -0.0100144 -0.00965265 -0.0117014 0.0051536 -0.00135828 -0.0269716 0.0109219 0.0213066 -0.0207275
internal_weight=1.14411e+06 949390 757984 191406 380829 377155 194722 83470.9 111251 71953.8 82086.1 321287 15984.7 45091.4 67486.2 109320 59542.5 43791.9 39297.4 122325 39170 279097 254830 23694.2 32783.8 6916.7 70175.9 152473 19128.6 9422.19 14751 27067.1 32424.1 35335.6 36994.8 21488.9 6971.93 43362.1 227763 13655.2 11815.7 28772 78963 6545.83 30770.5 31976.2 26006.3 42189.5 12667.3 32253.3 6562.51 21658.2 12620.4 56566.3 5592.98 14446.8 25452.2 127403 17550.7 15505.9 13667.8 14702.7
internal_count=3207902 2652646 2137054 515592 999577 1137477 555256 233251 322005 207762 227015 860710 36485 129822 196766 288577 138867 126194 114243 370579 110344 739265 766898 70572 97418 19495 159468 368352 56756 24908 45587 66640 90963 85975 97193 51359 20039 131136 700258 40662 36078 66361 239443 20814 72506 90116 71355 121445 38859 90849 11577 59815 28781 172598 16007 37859 70924 391876 45974 45834 26999 44875
is_linear=0
shrinkage=0.03


Tree=16
num_leaves=1
num_cat=0
split_feature=
split_gain=
threshold=
decision_type=
left_child=
right_child=
leaf_value=0
leaf_weight=
leaf_count=3207902
internal_value=
internal_weight=
internal_count=
is_linear=0
shrinkage=1


Tree=17
num_leaves=63
num_cat=0
split_feature=26 27 22 29 24 22 29 22 22 4 22 22 24 22 4 22 20 4 22 22 24 4 4 22 4 24 20 23 24 23 24 23 27 27 19 23 23 4 4 26 23 24 22 19 4 23 23 27 27 23 4 22 14 22 27 20 26 27 18 23 21 18
split_gain=68943.3 44591.8 26304.6 5805.15 5498.65 5053.98 5017.21 3161.73 1725.59 1868.37 1673.14 1654.91 1546.05 1259.09 1176.1 1082.19 976.374 973.626 898.057 842.444 793.203 747.138 727.286 712.767 702.563 699.024 646.793 599.538 597.683 511.176 478.968 476.329 464.065 454.824 431.45 525.348 417.677 412.77 399.905 422.398 395.084 378.396 363.274 347.176 346.584 336.048 335.637 331.558 328.382 321.05 320.225 311.454 308.676 303.697 295.975 294.61 283.928 277.849 276.19 274.805 263.841 254.74
threshold=9.0977940736536328e-09 -0.099999997764825807 -0.39022763073444361 -0.099999997764825807 1.411061763763428 1.2186058163642886 4.5454859320948065e-10 -1.1224972605705259 1.1455647349357607 0.45544037222862249 -1.0842310190200803 -1.6824501752853391 1.303459703922272 1.3108752965927126 -0.34802392125129694 -1.6358280777931211 -4.7642918161727712e-06 1.0942625403404238 1.918430030345917 -1.5542785525321958 -0.32499736547470087 -1.2045484781265257 1.7665791511535647 0.76409253478050243 1.047351658344269 1.0351483225822451 -0.0081134592182934267 -1.0820888876914976 1.2165601253509524 -0.47294883430004114 -0.16142456233501432 0.9183318316936494 0.099999997764825835 0.98513510823249828 2.0166105059615805e-05 0.43882869184017187 0.93697622418403637 1.6420891284942629 0.10473203286528589 -0.80400377511978138 -0.2477910369634628 -0.28220671415328974 -1.4933329224586485 0.00072294313577003788 -0.68485713005065907 1.3128201961517336 0.55916255712509166 0.099999997764825835 -9.3062288430978402e-10 -0.21480012685060498 -1.0969620943069456 1.8102261424064638 2.886909127235413 0.79084056615829479 -5.9436339183704935e-10 -1.1318478931876539e-09 -0.82943663001060475 0.6281908154487611 -1.0000000180025095e-35 -0.95595303177833546 1.0000000180025095e-35 4.4758426298585625e-08
decision_type=2 2 2 2 2 2 2 2 2 2 2 2 2 2 2 2 2 2 2 2 2 2 2 2 2 2 2 2 2 2 2 2 2 2 2 2 2 2 2 2 2 2 2 2 2 2 2 2 2 2 2 2 2 2 2 2 2 2 2 2 2 2
left_child=1 3 4 14 11 21 7 12 9 19 26 41 43 24 16 40 42 -10 37 25 55 29 -15 28 34 -8 50 -22 33 -4 -20 54 -25 -11 35 -9 -17 49 39 -12 -6 -3 -1 -2 59 58 -40 -19 -26 -7 -5 -48 -24 -50 -23 -13 -44 -46 -18 -21 -39 -28
right_child=6 2 5 10 15 18 8 13 17 23 38 20 -14 22 -16 36 45 47 30 44 27 31 52 32 48 -27 61 -29 -30 -31 -32 -33 -34 -35 -36 -37 -38 60 46 -41 -42 -43 56 -45 57 -47 51 -49 53 -51 -52 -53 -54 -55 -56 -57 -58 -59 -60 -61 -62 -63
leaf_value=-0.020059061675431106 0.0027485938299874712 -0.0073984085484024732 0.0034370688777001302 -0.0054727357974845448 -0.01923809716792705 0.0057720546606889562 0.020762688857928011 0.0061265749720157917 0.030714588030021882 0.0075397563596790668 -0.0070676720011221047 0.0083026126842643024 -0.012480648117137514 0.02202976961143216 -0.024972898536470747 -0.011046144304151555 -0.023507451898701348 0.0035968363932630115 0.010348414155552229 0.022772432032750801 -0.0072430480549757342 0.011523215707024716 0.012107080163870595 -0.0049233630306237995 -0.019942272427824089 0.0014616326788569555 -0.020402684139714827 -0.0033101764857163111 -0.0010907049619345002 0.01170136955117985 0.016728429015736488 0.0041217031298771325 0.018973575766420579 0.018482608160364233 0.017481633647997333 0.016141320448626349 0.00088619707223556445 0.0056814551716733884 -0.013404879042865624 0.0014098538458389431 -0.0091528487044675866 -0.013252582133478224 -0.014360282064316422 0.015360010802554031 0.015413703163641544 -0.011410518091192211 -0.0079994438948717342 0.022002375313768922 -0.0026307354351708312 0.011218453492423171 -0.014099115846639226 0.0045216339130253642 -0.010584639272581228 0.008278315706930656 0.0011525940034646963 -0.0017052648835114311 -0.0064302135915240907 0.023928244004983612 -0.018718998691169629 0.030327511930962017 -0.01693307388965257 -0.012996015784187808
leaf_weight=5378.5195388793945 6630.4660528898239 26169.140350103378 12620.363170623779 6804.1898803710938 26749.018995940685 12505.498850047588 3986.9413610696793 11589.265491813421 17639.203872680664 9368.7988292872906 12299.297911405563 2705.1071286350489 6562.5148086547852 18101.265151977539 39144.307952880859 25831.295667082071 26539.387749791145 919.93067592382431 18386.643017187715 7795.8750040233135 54033.587913513184 2526.904883518815 4988.0180358886719 775.3998846411705 475.0134484320879 2929.7574151754379 15475.087807059288 98439.306648015976 4377.595076084137 14446.769939422607 24975.48662148416 100359.46900939941 12879.764849245548 5382.2443697750568 11716.690733909607 7946.754722982645 2940.7341180741787 21922.309131219983 9566.5211600214243 9281.3126700520515 4021.4768536686897 16020.369476556778 9883.2677832692862 2791.7246896028519 5526.9166468530893 3147.2356395721436 11838.221531018615 20738.240176737309 3086.2415628880262 44060.823369801044 8990.097583770752 2106.0110931396484 604.95829772949219 8977.9524033069611 124876.3039842099 123919.07246755064 6900.6314095407724 9175.7666560262442 18326.867821574211 9754.778775960207 474.35805933177471 5725.4087711572647
leaf_count=13067 16381 79270 28781 17193 61647 37635 12575 28708 54428 29313 32905 8854 11577 54565 129109 58639 52479 2794 59090 18922 126355 7968 15232 2409 1462 6920 33585 241997 11169 37859 72046 308382 38253 16274 33955 23871 7722 65255 29901 25639 10859 42175 25867 8527 17081 8239 35217 57021 10083 134963 30463 6160 775 28115 383908 362059 18502 27794 41314 27052 1590 15952
internal_value=-5.8219e-06 -0.00334099 -7.38015e-05 -0.0162793 -0.00563543 0.005542 0.0162552 0.0106958 0.0204264 0.0176652 -0.0102501 -0.00408357 -0.00130118 0.0135374 -0.0208066 -0.0140091 -0.0184826 0.0254821 0.0105544 0.0220878 -0.00324645 0.00313592 0.0191082 0.0123811 0.0105232 0.0125872 -0.0149786 -0.00470391 0.00864367 0.00784804 0.0140231 0.00257593 0.0176166 0.0115325 0.0129301 0.0102003 -0.00982656 0.00864956 -0.00637055 -0.00342169 -0.01792 -0.00962138 -0.0132741 0.00648526 0.0241252 -0.0208867 -0.00907732 0.0212206 0.00452424 0.0100144 -0.0103829 -0.00610837 0.00965265 0.00548758 0.00135828 -0.00149146 -0.0110999 0.0207275 -0.0215515 0.0269716 0.00520248 -0.0184024
internal_weight=1.14411e+06 949390 757984 191406 380829 377155 194722 83470.9 111251 71953.8 82086.1 321287 15984.7 67486.2 109320 59542.5 70175.9 39297.4 122325 39170 279097 254830 23694.2 32783.8 43791.9 6916.7 36994.8 152473 19128.6 27067.1 43362.1 227763 13655.2 14751 31252.7 19536 28772 78963 45091.4 21580.6 30770.5 42189.5 22162.4 9422.19 32253.3 48013.5 23510.8 21658.2 12539.2 56566.3 15794.3 13944.2 5592.98 12064.2 127403 126624 16783.9 14702.7 44866.3 17550.7 22396.7 21200.5
internal_count=3207902 2652646 2137054 515592 999577 1137477 555256 233251 322005 207762 227015 860710 36485 196766 288577 138867 159468 114243 370579 110344 739265 766898 70572 97418 126194 19495 97193 368352 56756 66640 131136 700258 40662 45587 86534 52579 66361 239443 129822 58544 72506 121445 57436 24908 90849 102032 71278 59815 39660 172598 47656 41377 16007 38198 391876 370913 44369 44875 93793 45974 66845 49537
is_linear=0
shrinkage=0.03


Tree=18
num_leaves=63
num_cat=0
split_feature=27 27 22 22 22 22 20 22 4 4 22 4 23 22 23 20 23 4 23 22 22 20 20 27 23 23 23 28 18 18 4 18 19 27 7 20 18 28 23 9 28 4 4 23 23 23 27 4 22 4 4 7 18 28 23 21 4 23 19 19 23 22
split_gain=62057.4 36947.4 24299.6 5070.65 4678.83 4562.19 2341.73 2022.56 1425.6 1403.69 1333.35 973.941 945.625 801.178 758.977 731.377 760.004 633.577 624.403 607.247 599.045 532.333 516.398 493.222 475.613 451.678 448.362 432.297 425.468 400.287 388.558 371.499 365.401 353.445 346.24 343.718 342.098 332.229 329.77 328.377 304.65 296.102 293.027 276.637 275.87 274.918 273.793 267.912 252.946 249.319 242.726 242.565 232.502 231.919 255.297 227.174 221.914 219.691 213.494 210.798 211.071 210.29
threshold=8.5159312934735009e-10 -0.099999997764825807 -0.35343691706657404 -1.4253687262535093 1.2186058163642886 0.93697628378868114 -0.0023321254411712285 -1.2980470061302183 0.93857723474502575 0.5235891342163087 -1.0150901079177854 -1.1139650940895078 -1.0150902867317197 1.7768632769584658 -1.0820888876914976 -1.1405297817290714e-09 1.0000000180025095e-35 -1.2045484781265257 0.76031756401062023 -1.765855014324188 -2.0170171260833736 0.81157347559928905 -0.0047823009081184855 -5.9436339183704935e-10 -0.72304695844650257 -1.0000000180025095e-35 0.93697628378868114 9.0204849145791865e-10 1.6986735843350749e-14 -2.0526504801443577e-10 0.40493161976337438 -1.0000000180025095e-35 0.00023334474826697263 0.79558211565017711 0.01588226389139891 0.12192051485180856 -0.31290905177593226 3.6612771148192285e-10 1.2186058163642886 0.4171204417943955 -2.9583865357452051e-09 1.0634006857872011 1.4423632025718691 -0.21480012685060498 -0.47294883430004114 1.4131984710693362 -5.9436339183704935e-10 -0.90945810079574574 -1.4589399099349973 2.7708030939102177 -3.3106387853622432 1.8883624672889712 4.4758426298585625e-08 -0.47520764172077173 -0.10851727798581122 1.4020109772682192 1.0160469412803652 1.3128201961517336 -1.0000000180025095e-35 -0.036572998389601701 1.0356158614158633 0.33409562706947332
decision_type=2 2 2 2 2 2 2 2 2 2 2 2 2 2 2 2 2 2 2 2 2 2 2 2 2 2 2 2 2 2 2 2 2 2 2 2 2 2 2 2 2 2 2 2 2 2 2 2 2 2 2 2 2 2 2 2 2 2 2 2 2 2
left_child=1 6 3 12 17 7 11 18 29 15 31 19 20 39 41 36 40 24 22 -1 -3 28 56 -16 -4 -15 46 30 38 -7 48 32 -8 61 -25 45 -9 -24 -12 -6 -17 50 -20 55 -41 58 -19 -33 -13 -37 -5 -45 -30 -31 -55 -21 -2 -14 -10 -29 -61 -11
right_child=5 2 4 14 13 8 10 9 35 33 21 27 57 25 23 16 -18 26 42 43 -22 -23 37 34 -26 -27 -28 59 52 53 -32 47 -34 -35 -36 49 -38 -39 -40 44 -42 -43 -44 51 -46 -47 -48 -49 -50 -51 -52 -53 -54 54 -56 -57 -58 -59 -60 60 -62 -63
leaf_value=0.015662936346541055 -0.0097452236522078042 0.016344823049657276 -0.002476946416009324 0.017408502974831465 -0.010191432282788526 -0.027133816175122994 0.024394261256151663 -0.026281983695367196 -0.017093908655165548 -0.0018890381634538414 0.016215838436299753 0.020209560522153221 0.0085138983509954937 -0.0072473993534614327 -0.010027969449646967 -0.014331270569197216 -0.019717623417229858 -0.010872314452271443 -0.0185043617149463 0.0038083633815382389 0.010767280435540261 0.018592297160784626 -0.0037980673031100913 0.0015216582420996441 -0.010792404922209587 -0.014459351288794003 -0.0040300694412978262 0.004919147074927196 -0.001232287743000379 -0.025026104285512347 0.019714096136822283 0.015370651595519962 0.017431067293374108 -0.011219455439613526 0.0042575725578382594 -0.020746239026147171 -0.017939616266940867 0.0048090978212740479 0.00840476630062666 0.00049785799298963668 -0.0070298369105801055 0.012799950826987181 0.0035780096405512649 0.00068390697975249167 -0.0071325623616121632 -0.018312681252309018 -0.0010815907224026133 0.021678166900443267 0.010224040158933509 -0.0090892533732210082 0.0050859557515017216 -0.017007660984517944 0.0097687888077448819 -0.012700562463992515 -0.021317842894235939 0.012075933865714865 0.004305271489512064 0.0028190151985913701 -0.010485415332762506 0.01368135661527814 0.0072143407475003044 -0.0090766455035772575
leaf_weight=4792.449333190918 8035.1265763044357 31411.593505859375 10418.041278839111 1464.1676025390625 33641.917373657227 17875.147687315941 25344.031672954559 6160.4071350097656 6220.8127562105656 9109.1394881010056 22697.129869282246 2899.2730102539062 21857.070533752441 9662.0267827510834 2855.7733633071184 8527.4619955718517 10685.796832501888 2624.7128137946129 3395.4578023552895 12199.178604140878 38661.19034576416 17778.894729614258 7368.1476865410805 111951.35607151687 15255.282245635986 40899.219799280167 92240.871677398682 5144.6555557250977 2003.5528580546379 9460.6697933226824 12204.584457397461 15932.226509094238 9261.028204202652 15446.513843655586 66276.828927755356 16305.64835357666 15695.322448968887 8924.8985328674316 6191.3637237548828 4998.4700847864151 12959.048801481724 5021.7020740509033 643.29043960571289 4658.3440632820129 29033.784447073936 10720.372924804688 124696.35651601851 9781.5146086215973 10743.192196011543 1837.3739318847656 82569.01763343811 820.31568145751953 12618.176139831543 4153.354338914156 12133.422937527299 3962.8746104091406 1157.4106884002686 8454.8646087646484 15029.193614333868 14720.164712786674 6569.2381610870361 6127.9765243530273
leaf_count=11409 22071 82548 23691 1405 103414 54970 48260 19483 19713 28734 60530 9489 61890 29162 9104 20863 30255 8243 10465 30450 95423 53078 20375 325008 39284 122790 282872 17823 2096 28145 43393 34281 26322 44920 150552 48348 43847 18703 18577 14999 31233 16330 1734 13833 86405 29785 382500 30416 34437 3900 205423 1801 34941 11745 36222 9789 3921 25962 44697 46199 20604 19040
internal_value=6.66237e-06 0.00330569 0.000189062 0.00559537 -0.00532215 -0.0148142 0.0147252 -0.0107893 -0.0197194 -0.0131459 0.0173348 0.0106936 0.0113525 -0.0102242 0.00345601 -0.0160562 -0.0131793 -0.00295875 -0.00402767 0.00600051 0.0132675 0.0142184 -0.00229091 0.00234086 -0.00741805 -0.0130812 -0.00243733 0.0130664 0.0124312 -0.0236848 0.0158252 0.0205013 0.0225308 -0.00802156 0.00253905 -0.0162676 -0.0202911 0.000916709 0.0145418 -0.00808959 -0.00992759 0.00572354 -0.0149871 0.00386071 -0.00601185 -0.014396 -0.00128343 0.01777 0.0123461 -0.0195657 0.00530066 -0.00196504 0.00826136 -0.0212903 -0.0191203 0.00583554 -0.00797616 0.00692543 -0.01242 0.0103689 0.0116858 -0.00477971
internal_weight=1.14229e+06 934316 733994 370524 363471 207972 200322 114236 93736 84711.7 121608 78714.3 100385 118235 270139 54028 32172.3 245235 29524.3 26433.2 70072.8 61289.1 25485.6 181084 25673.3 50561.2 219562 52281.1 43510.2 43622.6 25847 60318.8 34605.1 30683.6 178228 50113.4 21855.7 16293 28888.5 67674.2 21486.5 89054.9 4038.75 21640.7 34032.3 31970.4 127321 25713.7 13642.5 18143 84033.2 5478.66 14621.7 25747.4 16286.8 16162.1 9192.54 30311.9 21250 26434.1 21289.4 15237.1
