tree
version=v4
num_class=3
num_tree_per_iteration=3
label_index=0
max_feature_idx=29
objective=multiclass num_class:3
feature_names=ofi_10 ofi_30 obi_1 obi_5 microprice microprice_vs_mid cvd_delta_10 cvd_delta_30 cvd_slope volume_imbalance_10 volume_zscore_20 return_1 return_5 return_10 realized_vol_20 return_autocorr_10 spread spread_zscore_50 regime_p_trending regime_p_ranging regime_p_highvol regime_bars_in bb_pctb_1m rsi_14_1m atr_ratio_1m obv_slope_1m donchian_pos_5m stoch_k_14_5m bb_width_5m ema_cross_5m
feature_infos=[-8.4941921234130859:8.5688514709472656] [-8.4168100357055664:8.6982288360595703] [-6.0598354339599609:4.8527045249938965] [-5.3922405242919922:4.9744386672973633] [-8.952305793762207:9.3451061248779297] [-6.0598354339599609:4.8527045249938965] [-2.8718385696411133:9.6960134506225586] [-4.0266256332397461:8.789280891418457] [-3.8522276878356934:8.5722484588623047] [-4.6456947326660156:4.8377828598022461] [-2.6356713771820068:5.0137057304382324] [-9.8345460891723633:9.8446426391601562] [-9.7252254486083984:9.5687494277954102] [-9.5896596908569336:9.1660861968994141] [-4.7858433723449707:9.8198156356811523] [-3.7394857406616211:4.5185751914978027] [-2.5674214363098145:9.5134410858154297] [-3.0364429950714111:7.3189530372619629] [-9.8999996185302734:9.8999996185302734] [-108.97220611572266:46.083946228027344] [-55.494358062744141:13.204967498779297] [-9.9000005722045898:9.9000101089477539] [-9.8999996185302734:9.8999996185302734] [-9.9000015258789062:9.9000005722045898] [-9.8999996185302734:9.8999996185302734] [-9.8998250961303711:9.8996162414550781] [-9.9001703262329102:9.9000024795532227] [-9.9003086090087891:9.9000692367553711] [-11.209375381469727:10.551867485046387] [-9.9974775314331055:10.01610279083252]
tree_sizes=7085 246 7037 7282 228 7268

Tree=0
num_leaves=63
num_cat=0
split_feature=4 4 4 11 7 11 6 20 11 11 11 11 11 11 11 11 11 4 26 11 11 19 14 11 11 11 11 14 11 4 11 14 4 11 25 11 7 25 26 28 13 18 28 11 20 26 23 11 28 4 13 14 25 23 27 25 4 19 26 26 7 16
split_gain=15183.5 1318.4 1227.29 936.091 808.963 597.798 517.037 475.95 429.666 411.38 244.911 262.865 191.884 294.193 303.353 186.053 145.152 143.211 135.847 130.299 129.382 126.435 122.135 119.022 343.965 106.098 113.218 104.354 103.612 102.569 102.427 94.9148 93.4258 92.9521 88.2744 83.9458 83.7225 77.9419 77.1996 77.2862 75.7975 74.369 110.995 73.5468 72.1273 110.116 92.1522 69.5446 67.7845 155.207 115.814 62.6633 62.4291 61.5341 58.4715 57.2105 56.762 56.7313 51.7999 51.2829 51.0881 50.7392
threshold=-0.79803979396820057 -1.6722195744514463 0.1584209352731705 0.089553855359554305 0.35118502378463751 0.051245661452412612 4.7105395793914804 -1.0000000180025095e-35 -0.050890535116195672 -0.73969873785972584 0.13393174111843112 -0.058321699500083916 0.10430300235748292 -0.019744745455682274 -0.73969873785972584 0.039567869156599052 0.0047486252151429662 1.1615586280822756 3.3741666078567509 -0.81779369711875904 0.085561227053403868 0.31290908157825476 3.4865413904190068 -0.1240665167570114 -0.63675206899642933 0.58324411511421215 0.14664588868618014 -0.23053070157766339 0.48459540307521826 -1.1018425822257993 -0.28101715445518488 0.62936675548553478 -0.29160644114017481 0.062303027138113982 -0.77414557337760914 -0.3551975935697555 2.6616165637969975 0.93697622418403637 -1.4293906058782111e-09 -0.57445624470710743 -0.98266533017158497 -1.9992291155901396e-10 -1.8668704915292263e-09 -0.3551975935697555 1.0000000180025095e-35 0.6683674454689027 -0.40047761797904963 0.015541254542768003 2.0543919801712041 2.9462356567382817 2.9889574050903325 0.79310584068298351 -1.7303884029388426 -1.0000000180025095e-35 -0.099999997764825807 -0.77414557337760914 -3.2978484630584712 1.3979754021065107e-09 -1.9630600478492961e-09 2.466055274009705 -0.77576240897178639 -0.67462220788002003
decision_type=2 2 2 2 2 2 2 2 2 2 2 2 2 2 2 2 2 2 2 2 2 2 2 2 2 2 2 2 2 2 2 2 2 2 10 2 2 8 2 2 2 2 2 2 2 2 2 2 2 2 2 2 10 2 2 10 2 2 2 2 2 2
left_child=1 4 5 8 12 23 10 27 9 29 11 19 13 14 22 -10 41 51 37 -6 -13 32 -1 24 57 26 -5 36 -12 40 60 52 55 -15 -27 -26 -4 -8 48 -40 -3 44 54 -16 45 -9 -46 -25 50 -50 -29 -18 -14 -20 -43 -7 -39 61 -44 -53 -11 -2
right_child=2 3 7 25 6 21 18 16 15 30 28 20 31 33 43 -17 17 -19 53 -21 -22 -23 -24 47 35 34 -28 38 -30 -31 -32 -33 -34 -35 -36 -37 -38 56 39 -41 -42 42 58 -45 46 -47 -48 -49 49 -51 -52 59 -54 -55 -56 -57 -58 -59 -60 -61 -62 -63
leaf_value=-0.51085933047667353 -0.51607792625767279 -0.51358607204881146 -0.5163826118742938 -0.50955078958793543 -0.50818112585248343 -0.51110492905903449 -0.49873704959755233 -0.51452490870819367 -0.51510319593906606 -0.51104057909538303 -0.50390808449444102 -0.51243383710858936 -0.50376431030032609 -0.51400760574645932 -0.50749293334339041 -0.51251779419982535 -0.5140750780002965 -0.5157897141311143 -0.50486232115808083 -0.50559139220880733 -0.50861554887522342 -0.51509200029800262 -0.49879115948530883 -0.51630901186046152 -0.51195629901446205 -0.5092938866961394 -0.50703310948246716 -0.51680281968178254 -0.50666406192069968 -0.51378358853372885 -0.50537968451341553 -0.51036914378503362 -0.51326168507158576 -0.51107823179977918 -0.51100408174626999 -0.5073926539944813 -0.52172927103901134 -0.48630740832133401 -0.52037885044661913 -0.51802875456646913 -0.5111667119425114 -0.51657561879946179 -0.5141184745774704 -0.5031858283086148 -0.51770503337752927 -0.50791885550433968 -0.51485622024211697 -0.51469106916541074 -0.51833207086961763 -0.53635557971646985 -0.50568909690035824 -0.51548772399343523 -0.50782358887514767 -0.54234519753335275 -0.52002301181858257 -0.51267428405726367 -0.49970246273840463 -0.51693666789466708 -0.51618129648846089 -0.52397063788344145 -0.50885711400835321 -0.51440808043337016
leaf_weight=61039.254817962646 22250.804092407227 15038.836494445801 77219.627456665039 37191.6416015625 46357.592164874077 53109.086597442627 2762.0594172924757 12388.526773393154 49230.872062683105 14095.68292427063 18866.323446273804 15419.896478652954 4008.6844711303711 22769.420413970947 18047.307983398438 51004.09619140625 102703.94454574585 143325.87280273438 76.551519870758057 28074.404585003853 16569.082275390625 16819.926735818386 764.19250869750977 68499.632187500596 18420.773193359375 67719.61469078064 28312.89306640625 34061.286620229483 35153.247436523438 31682.266296386719 6025.7631301879883 12652.531829833984 59697.735648214817 17047.978759765625 45356.97466468811 4517.1421203613281 2728.9963226318359 1014.0894775390625 16753.041273593903 50734.481749907136 51790.009941101074 7825.3446050286293 11407.790505886078 4447.3626365661621 14351.844311714172 2780.6775661110878 35490.197020053864 36731.143798828125 3032.843836799264 501.04564666748047 865.32699584960938 26656.569017723203 22824.878395080566 81.260298848152161 10199.183561444283 34478.70707321167 395.85569269955158 13604.436351120472 276570.30156594515 657.20768515765667 30539.307920455933 62037.666660964489
leaf_count=146996 73115 43665 258217 80239 81078 132827 2522 39152 160950 35441 24125 38326 7090 69259 36480 141933 320611 425457 102 40758 30249 49701 959 238098 48409 146989 49926 109219 56511 91305 9219 27489 173927 43101 118684 8285 9383 394 58216 170196 129565 25121 35771 5925 45441 5535 109447 116949 9613 724 1736 80676 46605 98 33745 101404 527 44699 892535 1753 62387 187595
internal_value=-0.513324 -0.509984 -0.515394 -0.511081 -0.508554 -0.514006 -0.507071 -0.516046 -0.512269 -0.511248 -0.507347 -0.508182 -0.510049 -0.510628 -0.509624 -0.513788 -0.51566 -0.515136 -0.496841 -0.507204 -0.510456 -0.512628 -0.51071 -0.515007 -0.514364 -0.509423 -0.508463 -0.517383 -0.505702 -0.512378 -0.509051 -0.508227 -0.512346 -0.512753 -0.50998 -0.511058 -0.516565 -0.495807 -0.518001 -0.518612 -0.511711 -0.516047 -0.516243 -0.506641 -0.515125 -0.513314 -0.515677 -0.515744 -0.516928 -0.520887 -0.516527 -0.514415 -0.507217 -0.524163 -0.518526 -0.511723 -0.490068 -0.515139 -0.5161 -0.515692 -0.509547 -0.514849
internal_weight=1.97678e+06 756360 1.22042e+06 427988 328372 390167 164770 830254 249407 149172 160441 106421 163602 124116 84298.1 100235 644357 273344 4329.82 74432 31989 164105 61803.4 226062 120831 178581 65504.5 185897 54019.6 98511.1 50660.8 39486.1 147286 39817.4 113077 22937.9 79948.6 4172 105948 67487.5 66828.8 371014 306003 22494.7 65011.2 15169.2 49842 105231 38460.5 3533.89 34926.6 130018 26833.6 157.812 18024.5 87587.8 1409.95 97892.9 287978 27313.8 44635 84288.5
internal_count=5536454 1728897 3807557 1070303 658594 1175009 274690 2632548 674465 371582 271047 190411 383904 302720 190360 302883 2015244 828497 3643 121836 68575 457859 147955 717150 362103 395838 130165 617304 80636 264535 107047 81184 408158 112360 265673 56694 267600 3443 349704 228412 173230 1186747 987172 42405 199575 44687 154888 355047 121292 10337 110955 403040 53695 200 58866 234231 921 305409 928306 82429 97828 260710
is_linear=0
shrinkage=1


Tree=1
num_leaves=1
num_cat=0
split_feature=
split_gain=
threshold=
decision_type=
left_child=
right_child=
leaf_value=-34.538776391283193
leaf_weight=
leaf_count=5536454
internal_value=
internal_weight=
internal_count=
is_linear=0
shrinkage=1


Tree=2
num_leaves=63
num_cat=0
split_feature=22 11 11 11 11 11 11 13 11 11 11 16 13 11 9 11 9 13 10 25 14 29 8 13 7 5 11 11 23 29 26 13 18 14 9 11 7 8 11 11 22 23 19 11 9 11 10 27 25 13 26 28 19 19 25 18 9 16 19 11 11 11
split_gain=4618.55 964.108 2040.72 950.578 656.855 555.449 573.467 551.499 542.595 502.035 475.538 385.506 375.071 295.154 288.634 246.569 243.494 227.414 224.473 189.384 182.198 213.851 169.26 150.82 135.325 122.921 120.997 197.779 118.856 138.642 111.447 109.024 107.517 102.759 95.7061 85.3255 80.0041 79.9367 76.6109 76.5109 75.3777 72.8965 83.9206 72.3715 71.8032 71.0917 69.6548 64.2623 64.2558 60.1372 59.9616 78.8788 59.7167 58.3953 57.1478 54.9401 54.6246 53.9389 51.742 53.2399 50.3782 65.6095
threshold=-0.37145078182220453 0.081894665956497206 -0.11753336712718009 0.44924895465373998 -0.73969873785972584 0.015541254542768003 -0.15433040261268613 -3.033995389938354 0.037304908037185676 -0.90667194128036488 0.44924895465373998 -0.6310327649116515 -3.033995389938354 0.12489969655871393 -0.44099573791027064 0.056400721892714507 -0.22406766563653943 -0.73156574368476857 -0.11176418513059615 -0.8124038279056548 3.1084700822830205 0.38461805880069738 0.49553517997264868 0.11731480434536935 4.1193614006042489 -1.7616239190101621 -0.57665491104125965 -0.20676859468221662 0.2765639871358872 0.46617279946804052 0.10000000521540643 -2.4954643249511714 9.5833790902943881e-10 -0.30841262638568873 -0.7239859104156493 0.1630358621478081 4.1193614006042489 0.96434608101844799 -0.44572763144969935 0.26378430426120764 -1.2451818585395811 0.95595303177833568 -0.79558125138282765 -1.0987202525138853 -1.0130641460418699 0.0047486252151429662 0.18213296681642535 -0.49174296855926508 inf 1.1054366230964663 -0.49749368429183954 -1.4634445322236898e-09 1.9899749159812929 1.3979754021065107e-09 -1.8345146775245664 -4.3007578835047017e-13 0.35070845484733587 0.5390329658985139 1.4459106134623314e-09 0.051245661452412612 0.26378430426120764 0.099138572812080397
decision_type=2 2 2 2 2 2 2 2 2 2 2 2 2 2 2 2 2 2 2 10 2 2 2 2 2 2 2 2 2 2 2 2 2 2 2 2 2 2 2 2 2 2 2 2 2 2 2 2 8 2 2 2 2 2 10 2 2 2 2 2 2 2
left_child=1 2 4 13 7 6 9 24 45 12 15 43 20 55 22 -7 -13 40 53 28 -2 -22 -5 35 25 -1 50 38 54 -30 31 37 41 57 -20 -15 -24 -12 -28 -25 -6 -17 -43 -9 -32 -4 -21 -26 49 -33 -11 -52 -38 -14 -16 -3 -42 -8 59 -10 61 -34
right_child=5 3 8 14 17 10 33 11 58 26 30 16 18 23 19 32 -18 -19 34 46 21 -23 36 39 47 -27 27 -29 29 -31 44 48 60 -35 -36 -37 52 -39 -40 -41 56 42 -44 -45 -46 -47 -48 -49 -50 -51 51 -53 -54 -55 -56 -57 -58 -59 -60 -61 -62 -63
leaf_value=-0.94261249576767037 -0.91452816415571647 -0.91409024834456187 -0.90932761645197036 -0.91471655368899485 -0.920857141706245 -0.91203355116781004 -0.91028227715102994 -0.90964280485893745 -0.91200982603219549 -0.91411158555815308 -0.91219149269388577 -0.91534251268774403 -0.90948951202530526 -0.91839890037912852 -0.91572221557559408 -0.91528268452881767 -0.91314015779249957 -0.91585095359281476 -0.91239271258026577 -0.91299518172442051 -0.93343384281038511 -0.90480521847403339 -0.91728778387677368 -0.91783234151857884 -0.9144318251336323 -0.92021446634953052 -0.91361972456566065 -0.91091065902019097 -0.91322989724830894 -0.90682137649487715 -0.91233404041024868 -0.91177973589156602 -0.91648819897163947 -0.90883241633439737 -0.91045407000853429 -0.92133785842622506 -0.92882282544626082 -0.92630899714320136 -0.91625476006154993 -0.91417452006226052 -0.91813029035088334 -0.90361729167114146 -0.913335991528058 -0.91216261272474108 -0.90952640864711842 -0.91067756187720061 -0.91108252520795974 -0.93826301671602053 -0.93469732933090999 -0.91052799576604626 -0.90889417738952827 -0.91204701939568777 -0.8962732437287918 -0.90747876792038518 -0.91418915331668238 -0.91620877251344501 -0.91093045338544709 -0.9085511648752117 -0.91120242727419265 -0.91370938458982853 -0.91437460060262121 -0.92199555317790505
leaf_weight=236.29986894130707 2486.6721496582031 14134.044525146484 83794.888000488281 62105.779418945312 11798.497756958008 46186.882568359375 112243.8137588501 19774.412820577621 24380.496713653207 10503.817863717675 669.54454135894775 84711.961907625198 82458.789668053389 17121.331253051758 29368.177703857422 29676.271642684937 96819.423573479056 79253.753326416016 37664.625701904297 48319.671142578125 1194.1952306479216 292.31020148098469 25469.275665283203 24458.929733276367 118.07277584075928 3302.2910429239273 19798.4267578125 15129.224609375 18674.734399855137 3628.5835780501366 10187.088928222656 186083.44341102242 4448.0663299560547 125823.21632446349 58538.678718179464 18494.2919921875 782.82823830842972 783.23963832855225 19922.961669921875 6518.14404296875 13143.949438929558 835.7003061324358 18532.136159703135 21316.648811355233 41984.939986795187 60429.720703125 26553.528533935547 740.62186527252197 107.95918273925781 42416.634409189224 8084.7530868500471 61221.323824822903 54.242928683757782 15431.560605466366 85870.15299987793 49956.918121337891 1022.1377955675125 18931.423789978027 14346.288381561637 51904.155334472656 3077.074462890625 3462.0679931640625
leaf_count=34 5979 31645 283998 166454 19675 140421 381273 64134 73758 27952 1743 196082 261090 30091 68501 65162 250041 170183 107501 136178 945 352 50086 42420 135 4697 49417 39574 52341 10364 31120 567050 10342 431525 181880 26596 743 1060 39761 12498 25872 1393 42657 61077 131511 196806 76860 272 161 126732 23889 175290 76 51606 209091 111983 2458 68183 41570 141119 7370 5677
internal_value=-0.912555 -0.91399 -0.913177 -0.915059 -0.91469 -0.91109 -0.910509 -0.913782 -0.911036 -0.911332 -0.91197 -0.913574 -0.910371 -0.917195 -0.91413 -0.913681 -0.914168 -0.916649 -0.910184 -0.913531 -0.919495 -0.927804 -0.915571 -0.918594 -0.924303 -0.92171 -0.912745 -0.91383 -0.914192 -0.912187 -0.911326 -0.91161 -0.914949 -0.909445 -0.911213 -0.919925 -0.917588 -0.919803 -0.914941 -0.917063 -0.919086 -0.914348 -0.912917 -0.91095 -0.910075 -0.909893 -0.912317 -0.934986 -0.911558 -0.911547 -0.911999 -0.911679 -0.926714 -0.909173 -0.91458 -0.915742 -0.917611 -0.910032 -0.912855 -0.913166 -0.917632 -0.918899
internal_weight=1.97678e+06 998604 567094 431511 332238 978177 589726 227020 234856 332727 388451 222622 198067 130684 300827 106218 181531 105218 194094 212415 3973.18 1486.51 88412.1 66592.7 4397.29 3538.59 134661 54850.6 137542 22303.3 282233 230061 60031.3 256998 96203.3 35615.6 26306.3 1452.78 39721.4 30977.1 25964.6 49044.1 19367.8 41091.1 52172 144225 74873.2 858.695 228608 228500 79809.9 69306.1 837.071 97890.4 115238 64091 14166.1 131175 90630.9 76284.7 10987.2 7910.13
internal_count=5536454 2557838 1531911 1025927 794660 2978616 1846217 576472 737251 965236 1132399 571334 609353 255233 770694 273022 446123 218188 602077 553335 7276 1297 217359 111605 5138 4731 355883 128752 340297 62705 859377 696746 132601 880981 289381 56687 50905 2803 89178 54918 48005 109212 44050 125211 162631 480804 213038 407 693943 693782 227131 199179 819 312696 277592 143628 28330 449456 256447 214877 23389 16019
is_linear=0
shrinkage=1


Tree=3
num_leaves=63
num_cat=0
split_feature=4 4 4 11 8 11 20 13 11 11 11 11 11 11 11 26 11 11 20 11 11 16 9 4 4 11 25 11 11 14 11 19 10 11 4 11 13 11 19 13 19 27 26 21 9 14 11 9 25 23 19 20 20 23 9 29 26 21 23 8 8 29
split_gain=14313.3 1362.18 1045.2 928.841 670.07 646.559 387.466 384.386 383.308 404.063 253.935 280.117 212.945 220.365 288.559 195.881 169.761 167.091 151.527 149.585 146.754 126.681 140.812 119.94 117.342 112.554 106.449 100.432 284.168 94.0202 91.534 91.1355 85.0505 79.3435 78.6403 77.154 75.9628 70.1048 106.274 89.3163 70.1023 136.321 275.086 112.618 142.881 112.82 69.6718 69.097 67.3726 66.7747 66.6271 78.0689 114.129 68.4494 63.1322 61.7611 125.679 159.689 69.4046 60.2228 59.0642 53.8306
threshold=-0.74678796529769886 -1.6499451398849485 0.57284814119339 0.089553855359554305 0.26399669051170355 0.037304908037185676 -1.0000000180025095e-35 -3.033995389938354 -0.063054978847503648 -0.73969873785972584 0.12489969655871393 -0.053262911736965173 0.13393174111843112 -0.019744745455682274 -0.73969873785972584 1.6785983443260195 0.049047442153096206 -0.81779369711875904 -1.0000000180025095e-35 0.062303027138113982 0.51289391517639171 2.4114751815795903 -0.4161339253187179 -0.22041618824005124 -1.1018425822257993 -0.28101715445518488 -0.72972011566162098 -0.10126573219895361 -0.63675206899642933 -0.23053070157766339 0.099138572812080397 1.4459106134623314e-09 -0.11176418513059615 0.48459540307521826 -1.3604146838188169 -0.97539824247360218 -0.98266533017158497 -1.6127247810363767 -3.1594365835189815 -1.0344809889793394 -1.3656688002683379e-09 -1.0000000180025095e-35 -5.7675424436354197e-09 0.89098104834556591 2.7030851840972905 -0.18596976250410077 0.60448622703552257 0.32738979160785681 -1.1572300195693968 -2.199165821075439 0.6669202744960786 -5.4105929805925428e-11 -2.9972099455100037e-11 -1.2213257551193235 0.90960010886192333 -0.76251462101936329 -1.0000000180025095e-35 -0.80399295687675465 0.53966161608695995 2.6778228282928471 1.0000000180025095e-35 -0.45030109584331507
decision_type=2 2 2 2 2 2 2 2 2 2 2 2 2 2 2 2 2 2 2 2 2 2 2 2 2 2 10 2 2 2 2 2 2 2 2 2 2 2 2 2 2 2 2 2 2 2 2 2 10 2 2 2 2 2 2 2 2 2 2 2 2 2
left_child=1 4 5 8 12 18 29 15 9 24 11 17 13 14 32 21 -10 -9 48 -15 -14 59 -23 31 36 -11 50 28 -20 -4 -13 47 -1 61 -28 37 -3 38 39 -8 41 60 -43 45 -45 -42 -25 -7 -2 -17 51 53 -53 -5 -48 56 57 -31 -58 -6 -37 -12
right_child=2 3 6 26 7 23 35 10 16 25 33 30 20 19 -16 49 -18 -19 27 -21 -22 22 -24 46 -26 -27 34 -29 -30 55 -32 -33 -34 -35 -36 40 -38 -39 -40 -41 43 42 -44 44 -46 -47 54 -49 -50 -51 -52 52 -54 -55 -56 -57 58 -59 -60 -61 -62 -63
leaf_value=0.00082556372784824096 -0.0017082438991073117 -0.00038165425970311295 -0.0033159315233782199 0.0090884675685481073 0.00677319845379094 0.00042669280333874226 0.025533585820041945 0.004560638825364483 -0.001471534828079608 0.0035484285368032726 0.011552862029901771 0.0013096442467208055 0.0086512867218835852 -0.0007426315187768213 0.0064934109932467086 0.016804192370631351 0.00098243256471409936 0.0074808448054952343 -0.0017667693252200335 0.0026869896238752963 0.0041426324567915025 0.019605728720526891 -0.0059613134901346327 0.0006339725838713521 -0.00058269202314389825 0.0080471985540304398 0.004229893425199866 -0.0022989426441702523 0.0016469922125624964 -0.025509220491109118 0.0048083985884239374 -0.0014042866267942823 0.0032499527299814442 0.0062993204934151895 0.0020602821262597163 0.00013960322442328562 0.0020970400507020286 -0.0038800603025846247 -0.0020198795548321082 -0.0017352660253969936 -0.0018089552048189638 -0.020750808854317019 -0.003994930643433264 -0.00019137559282511506 -0.021856142857663099 -0.0028762587350494623 -0.0014503109367626145 0.0020657584118642914 -0.0037980778253297919 -0.0049359702425854262 0.0016282848374465217 -0.0098088458385787222 0.0042435095171591405 0.0045680892403270378 0.00045177950008290025 -0.0052913807908697092 -0.0025747938004192683 -0.00051306128388348528 -0.0075449417507099633 0.013658795706908079 -0.0028887329567448819 0.0078248901928466719
leaf_weight=18548.548530578613 19383.671539306641 14328.344245910645 63934.639862060547 5769.8037185668945 2237.4660432934761 47265.469680100679 235.47841611504555 45211.523398399353 63066.450000762939 45433.18359375 4353.4660739898682 22647.855645596981 8972.5912628173828 22570.359463214874 22474.131137371063 153.18863844871521 42447.983642578125 28911.584078371525 105287.9094543457 23221.2919921875 23552.953201293945 3092.9567822217941 206.84065067768097 34576.738708496094 36753.578430175781 5624.7652702331543 22247.798583984375 104219.00094468892 27724.56502532959 235.33614678680897 9574.8817138671875 13555.408737868071 43717.759178161621 38039.570190429688 46382.004188537598 10886.944369569421 49811.346000671387 55186.146026611328 15096.10758240521 199.85125733911991 188922.57269287109 904.12859220802784 35725.240684434772 29507.859149113297 276.54171752929688 168756.94200417399 62022.298629760742 45364.59130859375 48929.443023681641 748.16558593511581 8067.6444386392832 523.05610328912735 94139.002841934562 6314.0257573723793 21029.729873657227 65161.968574523926 4029.6994057297707 10186.761286243796 6788.5344219207764 2337.4965572357178 12396.55933380127 17494.611086845398
leaf_count=48644 62024 41770 213645 11488 3555 137777 149 82572 204197 100521 5545 55011 13612 68948 42353 172 115621 43143 329544 55749 52369 2074 201 94060 106369 8258 50381 356430 70447 785 17517 39501 100035 62688 120685 33242 125052 178165 43442 579 596562 3156 112907 83571 497 523033 200455 115158 167117 1038 18448 1419 194621 14157 60266 218591 13157 29231 22048 2155 36624 23923
internal_value=6.68845e-08 0.00316556 -0.0020586 0.00206705 0.00459824 -0.00106277 -0.00284723 0.00588744 0.00090478 0.00186936 0.0055644 0.0046845 0.00321455 0.00267338 0.00357949 0.0120065 -0.000484315 0.00569966 -0.00196011 0.000996555 0.0053864 0.0135228 0.0180031 0.000162252 0.000768851 0.00404403 0.00369833 -0.0016016 -0.00105522 -0.00418809 0.00234929 0.000893196 0.00252775 0.00712688 0.00276361 -0.00245815 0.00154332 -0.00337896 -0.00159847 0.013015 -0.0023126 -0.00326761 -0.00440852 -0.00216493 -0.000392528 -0.00231252 -0.000497583 0.00122941 -0.00320509 -0.00124115 0.00425705 0.00445573 0.00416586 0.00672649 -0.00096868 -0.00483345 -0.00342859 -0.00107749 -0.0056936 0.0102913 -0.00147274 0.00856773
internal_weight=1.97677e+06 778976 1.19779e+06 440909 338067 529359 668431 175010 257466 151951 166233 106346 163058 130532 84740.4 8776.11 105514 74123.1 305545 45791.7 32525.5 7874.76 3299.8 223814 100893 51057.9 183443 237231 133012 150337 32222.7 106185 62266.3 59887.6 68629.8 518094 64139.7 70717.6 15531.4 435.33 447377 59912.9 36629.4 387464 29784.4 357680 117629 92630.1 68313.1 901.354 114814 106746 94662.1 12083.8 83052 86402.3 21240.3 10422.1 10818.2 4574.96 23283.5 21848.1
internal_count=5536454 1794291 3742163 1112987 681304 1632779 2109384 299594 701788 381970 290399 198243 381710 315729 191032 9195 319818 125715 985562 124697 65981 7985 2275 647217 273191 108779 411199 756421 399991 497457 72528 292436 148679 92156 171066 1611927 166822 222335 44170 728 1389592 185929 116063 1203663 84068 1119595 354781 252935 229141 1210 240133 221685 196040 25645 260721 283812 65221 30016 35205 5710 69866 29468
is_linear=0
shrinkage=0.03


Tree=4
num_leaves=1
num_cat=0
split_feature=
split_gain=
threshold=
decision_type=
left_child=
right_child=
leaf_value=0
leaf_weight=
leaf_count=5536454
internal_value=
internal_weight=
internal_count=
is_linear=0
shrinkage=1


Tree=5
num_leaves=63
num_cat=0
split_feature=23 11 11 11 11 13 11 11 16 11 11 11 11 25 16 11 6 26 25 10 6 13 9 6 20 20 9 13 24 13 9 6 25 11 11 9 11 10 18 11 11 18 8 8 25 6 11 28 8 6 24 6 9 1 25 29 20 25 14 5 11 14
split_gain=2544.83 1043.52 1948.25 849.754 747.142 563.874 525.964 542.355 463.696 458.638 469.484 451.599 440.681 294.525 287.51 282.733 224.269 302.118 220.405 217.647 209.556 188.319 187.49 166.424 162.054 161.388 147.381 124.502 122.769 109.475 103.582 181.438 99.4267 97.6522 95.5744 94.5568 93.1281 92.6411 86.4047 77.075 74.3422 71.0647 67.8757 69.9287 66.2663 63.9125 62.5515 61.9825 61.5382 61.2673 61.2248 59.8456 57.7963 57.283 56.268 75.1301 55.1139 52.87 51.6803 51.4983 51.0807 50.3048
threshold=1.0000000180025095e-35 0.071543198078870787 -0.14214695990085599 0.41057997941970831 -0.73969873785972584 -3.033995389938354 0.028341643512248996 0.35618835687637335 2.7220783233642583 -0.15433040261268613 -0.90667194128036488 0.12489969655871393 0.015541254542768003 -1.1988186836242674 -0.62238559126853932 0.078419748693704619 1.6583237648010256 1.72336882352829 -1.2186056971549986 -0.10272289440035819 4.7105395793914804 -0.73156574368476857 -0.4288977831602096 0.82465371489524852 -2.6146024551014975e-15 -1.0000000180025095e-35 -1.3983919620513914 -0.54603090882301319 -1.2392234802246092 0.11731480434536935 -0.21191416680812833 0.30990293622016912 -2.1870625019073482 0.1630358621478081 0.051245661452412612 -0.67124763131141651 -0.44572763144969935 1.6502435207366946 -6.9649002552032462 -0.98904040455818165 0.26378430426120764 -4.3007578835047017e-13 4.4911484718322763 2.9394317865371709 -1.7792341709136961 0.82465371489524852 0.26378430426120764 -1.5848588943481443 0.86476492881774913 4.7105395793914804 -2.5339235067367549 -0.023086069151759144 -0.40430343151092524 1.2771788239479067 -0.8124038279056548 0.97528281807899486 -1.0000000180025095e-35 -0.8124038279056548 3.4865413904190068 -2.4726532697677608 0.089553855359554305 0.66160669922828685
decision_type=2 2 2 2 2 2 2 2 2 2 2 2 2 10 2 2 2 2 10 2 2 2 2 2 2 2 2 2 2 2 2 2 10 2 2 2 2 2 2 2 2 2 2 2 10 2 2 2 2 2 2 2 2 2 10 2 2 10 2 2 2 2
left_child=1 2 4 11 8 16 9 15 14 10 19 41 57 27 39 -8 50 26 -16 56 59 36 23 -15 -9 -11 32 45 -24 33 31 -12 -18 -13 -14 -21 51 -30 -28 -1 48 47 43 -19 -23 -5 -31 -3 -17 -25 -2 -6 -22 -40 55 -26 -7 -4 -52 -10 -43 -27
right_child=5 3 12 13 21 6 7 24 20 25 30 29 34 22 18 40 17 42 -20 35 52 44 28 49 54 61 38 -29 37 46 -32 -33 -34 -35 -36 -37 -38 -39 53 -41 -42 60 -44 -45 -46 -47 -48 -49 -50 -51 58 -53 -54 -55 -56 -57 -58 -59 -60 -61 -62 -63
leaf_value=0.0026223984025310065 -0.016585665167669659 -0.0059591600948203901 0.0023663854336719056 -0.0032528035171731154 -0.0030968965356846178 0.0043911234509330689 -0.00014846096119570525 0.0023964682571224584 -0.027158503982626963 0.0042048214350635877 -0.00050081680843322668 -0.0054034398709206554 0.0011130006631354622 -0.0011507114688077901 -0.0023250060521340403 -0.0033231626508121418 0.010884468191448348 0.016387691901524046 -0.00016559541733903122 -0.00019517324140965741 -0.023664707667861898 -0.0049601552413896504 0.002190601363200935 -0.0045962201966162942 -0.00027576066435506792 0.0021208367649695158 0.032366930046894102 -0.0020038207522438465 -0.00058098305570330295 -0.0052053589076484393 0.00048629788259991542 -0.0048454124176699779 -0.022043041756727104 -0.0086514747866486968 -0.0007202215902131912 0.0018003189787438156 -0.0085621069005245368 0.0020932381129860449 -0.010593715949088357 2.7543402370716489e-05 -0.00077605640583511271 -0.0019227817649870242 0.031451556130933651 -0.0075101308011818876 -0.0025794076353684364 -0.0068771180496948045 -0.0015240465749414716 -0.00019401760347877013 -0.0061236152048072933 -0.015397117585480454 0.00051444943160576582 -0.0064166179765247069 -0.0039384697564967437 0.019741206804357744 0.00097286019127613141 0.0038271773796589889 0.002654179033189868 0.0035358790696576508 -0.012729722728993182 -0.005181010962458028 -0.0036819665754307465 0.0033609845459343407
leaf_weight=30172.652539253235 235.71177673339844 1880.3062320351601 66214.344234466553 10921.597869873047 10079.893492698669 21558.750677585602 45579.304479598999 58184.425033569336 96.858373641967773 56556.766021728516 51001.647483825684 16087.117523193359 70200.666259765625 52430.587265014648 65109.320656776428 22011.160007476807 86.03921514749527 199.08283221721649 122719.22152996063 36494.659271240234 769.58442574739456 12426.120128631592 20743.133361816406 11802.277297973633 71602.790105700493 145918.26626777649 49.781143188476562 96968.147953033447 111712.74201583862 23522.914215087891 64089.619840621948 10418.34302520752 2025.3132488131523 17278.322265625 40281.3505859375 51573.00105714798 7920.3157958984375 13017.263427734375 755.56760138273239 15643.558459281921 6821.9814453125 24767.783996582031 92.076004028320312 246.82940769195557 68676.331531524658 7309.9334869384766 5045.02099609375 15629.252300679684 10398.210353851318 492.38250732421875 2825.0445289611816 9487.3534555435181 161.77653616666794 60.511984527111053 136985.01615905762 4255.384668469429 69260.930632591248 73306.591944292188 292.63307762145996 10318.228406906128 37117.064331054688 36877.503723144531
leaf_count=97270 396 4112 214559 25971 24523 70588 132525 182471 44 197151 135506 28115 216882 149810 148792 46255 88 346 329327 102240 380 24368 63875 22786 206881 495443 13 236648 301165 40797 171835 20630 1303 25062 111530 158764 12683 37753 991 44235 14977 61760 110 266 153216 12060 9814 36057 17533 499 7431 16299 285 90 411570 11838 216614 256641 433 20233 80704 123911
internal_value=-6.68845e-08 -0.000990651 -0.000166933 -0.00205591 -0.00160012 0.00116958 0.00123496 0.000338252 -0.000682001 0.00182178 0.00104918 -0.00399827 0.00186003 -0.0012123 -0.000394384 -0.00175547 -0.00739344 -0.0126881 -0.000914139 0.00203605 -0.00660458 -0.00367149 -0.000544127 -0.00188736 0.000993424 0.00280433 -0.0164268 -0.00243146 5.35147e-05 -0.00591834 -0.000357399 -0.00123777 -0.0207012 -0.00708544 0.000444614 0.0009734 -0.00581746 -0.000301892 -0.00600377 0.00173641 -0.0036225 -0.00250048 0.00800151 0.00315934 -0.00294417 -0.00470597 -0.00455525 -0.000813121 -0.00422166 -0.00502878 -0.00184328 -0.00470649 -0.0202383 -0.00834439 0.000609877 -4.55998e-05 0.00306649 0.00298086 -0.000728682 -0.0053854 -0.0029779 0.00237103
internal_weight=1.97677e+06 1.07031e+06 603584 466726 353581 906456 899588 355838 244991 543749 304397 141328 250003 325398 233645 84810.7 6868.59 3515.2 187829 178887 11346.4 108590 210198 64725.2 271028 239353 2977.21 115200 145473 61933.4 125510 61420 2111.35 33365.4 110482 88067.7 27487.6 124730 865.861 45816.2 39231.4 79394.4 537.988 445.912 81102.5 18231.5 28567.9 17509.6 32409.4 12294.7 3353.39 19567.2 931.361 816.08 212843 75858.2 90819.7 139521 3117.68 10415.1 61884.8 182796
internal_count=5536454 2808255 1671267 1136988 871655 2728199 2716732 1024050 640566 1692682 876177 286421 799612 850567 619624 211290 11467 3207 478119 548206 20942 231089 575888 173095 812760 816505 2485 274679 402793 103788 327971 156136 1391 53177 328412 261004 53505 338918 1094 141505 78765 182633 722 612 177584 38031 50611 40169 63788 23285 8260 40822 665 1081 630289 218719 287202 471200 7864 20277 142464 619354
is_linear=0
shrinkage=0.03


end of trees

feature_importances:
return_1=83
return_10=15
obv_slope_1m=15
microprice=14
volume_imbalance_10=14
donchian_pos_5m=11
realized_vol_20=10
regime_p_ranging=10
regime_p_highvol=9
cvd_delta_10=8
cvd_slope=8
rsi_14_1m=8
spread=6
cvd_delta_30=5
volume_zscore_20=5
regime_p_trending=5
bb_width_5m=5
ema_cross_5m=5
stoch_k_14_5m=3
microprice_vs_mid=2
regime_bars_in=2
bb_pctb_1m=2
atr_ratio_1m=2
ofi_30=1

parameters:
[boosting: gbdt]
[objective: multiclass]
[metric: multi_logloss]
[tree_learner: serial]
[device_type: gpu]
[data_sample_strategy: bagging]
[data: ]
[valid: ]
[num_iterations: 300]
[learning_rate: 0.03]
[num_leaves: 63]
[num_threads: 0]
[seed: 42]
[deterministic: 0]
[force_col_wise: 1]
[force_row_wise: 0]
[histogram_pool_size: -1]
[max_depth: 7]
[min_data_in_leaf: 50]
[min_sum_hessian_in_leaf: 0.001]
[bagging_fraction: 0.7]
[pos_bagging_fraction: 1]
[neg_bagging_fraction: 1]
[bagging_freq: 0]
[bagging_seed: 400]
[bagging_by_query: 0]
[feature_fraction: 0.8]
[feature_fraction_bynode: 1]
[feature_fraction_seed: 30056]
[extra_trees: 0]
[extra_seed: 12879]
[early_stopping_round: 0]
[early_stopping_min_delta: 0]
[first_metric_only: 0]
[max_delta_step: 0]
[lambda_l1: 0]
[lambda_l2: 0]
[linear_lambda: 0]
[min_gain_to_split: 0]
[drop_rate: 0.1]
[max_drop: 50]
[skip_drop: 0.5]
[xgboost_dart_mode: 0]
[uniform_drop: 0]
[drop_seed: 17869]
[top_rate: 0.2]
[other_rate: 0.1]
[min_data_per_group: 100]
[max_cat_threshold: 32]
[cat_l2: 10]
[cat_smooth: 10]
[max_cat_to_onehot: 4]
[top_k: 20]
[monotone_constraints: ]
[monotone_constraints_method: basic]
[monotone_penalty: 0]
[feature_contri: ]
[forcedsplits_filename: ]
[refit_decay_rate: 0.9]
[cegb_tradeoff: 1]
[cegb_penalty_split: 0]
[cegb_penalty_feature_lazy: ]
[cegb_penalty_feature_coupled: ]
[path_smooth: 0]
[interaction_constraints: ]
[verbosity: -1]
[saved_feature_importance_type: 0]
[use_quantized_grad: 0]
[num_grad_quant_bins: 4]
[quant_train_renew_leaf: 0]
[stochastic_rounding: 1]
[linear_tree: 0]
[max_bin: 255]
[max_bin_by_feature: ]
[min_data_in_bin: 3]
[bin_construct_sample_cnt: 200000]
[data_random_seed: 175]
[is_enable_sparse: 1]
[enable_bundle: 1]
[use_missing: 1]
[zero_as_missing: 0]
[feature_pre_filter: 1]
[pre_partition: 0]
[two_round: 0]
[header: 0]
[label_column: ]
[weight_column: ]
[group_column: ]
[ignore_column: ]
[categorical_feature: ]
[forcedbins_filename: ]
[precise_float_parser: 0]
[parser_config_file: ]
[objective_seed: 16083]
[num_class: 3]
[is_unbalance: 1]
[scale_pos_weight: 1]
[sigmoid: 1]
[boost_from_average: 1]
[reg_sqrt: 0]
[alpha: 0.9]
[fair_c: 1]
[poisson_max_delta_step: 0.7]
[tweedie_variance_power: 1.5]
[lambdarank_truncation_level: 30]
[lambdarank_norm: 1]
[label_gain: ]
[lambdarank_position_bias_regularization: 0]
[eval_at: ]
[multi_error_top_k: 1]
[auc_mu_weights: ]
[num_machines: 1]
[local_listen_port: 12400]
[time_out: 120]
[machine_list_filename: ]
[machines: ]
[gpu_platform_id: -1]
[gpu_device_id: -1]
[gpu_use_dp: 0]
[num_gpu: 1]

end of parameters

pandas_categorical:null
