tree
version=v4
num_class=1
num_tree_per_iteration=1
label_index=0
max_feature_idx=25
objective=binary sigmoid:1
feature_names=return_1 return_5 return_15 realized_vol_20 hl_range hl_range_zscore volume_zscore_20 volume_zscore_50 volume_ratio_5 volume_accel up_vol_ratio_10 cvd_delta cvd_cumsum_10 cvd_cumsum_30 cvd_slope_10 close_position close_pos_zscore body_ratio obi_est obi_est_5 microprice_est microprice_vs_mid ofi_est_10 ofi_est_30 spread_proxy spread_zscore
feature_infos=[-9.8878936767578125:9.7843246459960938] [-9.8406047821044922:9.6054277420043945] [-9.7195768356323242:9.2995271682739258] [-5.2155847549438477:9.8928346633911133] [-2.9528658390045166:9.7443933486938477] [-3.1721055507659912:6.8732433319091797] [-3.5140190124511719:4.2455072402954102] [-3.3169641494750977:6.9057445526123047] [-4.1489911079406738:6.752932071685791] [-3.7871468067169189:4.7850546836853027] [-3.6142253875732422:5.0513997077941895] [-9.6327552795410156:9.7800397872924805] [-8.7815828323364258:9.3298454284667969] [-8.8505792617797852:8.9522199630737305] [-8.1721076965332031:8.6539764404296875] [-2.2432818412780762:3.3741664886474609] [-3.1811263561248779:4.2485289573669434] [-1.9506436586380005:9.8999996185302734] [-0.83261829614639282:9.8999996185302734] [-778458176:1.4607718665783938e+24] [-9.8999881744384766:9.1964654922485352] [-9.8999853134155273:9.186553955078125] [-36.362529754638672:26.074485778808594] [-39.181522369384766:54.844478607177734] [-2.9528658390045166:9.7443933486938477] [-3.1721055507659912:6.8732433319091797]
tree_sizes=3516

Tree=0
num_leaves=31
num_cat=0
split_feature=10 20 2 18 21 20 23 19 1 18 1 1 19 23 7 7 17 16 14 18 23 18 2 4 23 14 12 23 19 18
split_gain=223.239 109.39 104.33 90.1776 64.2858 54.127 46.7845 42.4413 38.7592 38.6345 38.4899 33.131 27.2149 24.6726 21.6936 20.6058 20.3553 26.2343 20.102 18.0873 17.7351 16.5449 26.8955 16.0275 20.4068 15.8485 15.6769 18.4875 14.9929 13.935
threshold=0.60580977797508251 0.09587631002068521 -0.69823744893074025 5.9452187617381477e-09 0.085471276193857207 -1.7987428307533262 1.9109730686750485e-08 -530146319.99999994 1.5405091643333437 -0.16180931031703946 0.078364513814449324 -2.5020401477813716 -536858191.99999994 0.38804896175861364 -0.72834554314613331 -1.3344275355339048 -0.016134588047862049 -1.3083465695381162 -1.1254591345787046 6.189397216971316e-09 0.035690996795892722 6.1771658899090207e-09 1.8562330007553103 -0.14978762716054914 0.29545055329799658 0.9872071146965028 4.8215205669403085 1.0786169767379763 10095.400390625002 -0.36818261444568628
decision_type=2 2 2 2 2 2 2 2 2 2 2 2 2 2 2 2 2 2 2 2 2 2 2 2 2 2 2 2 2 2
left_child=1 3 10 5 8 14 15 23 21 20 18 -7 -8 -11 -1 -4 17 -5 -3 -18 -9 28 -23 25 -25 -6 -10 -28 -2 -12
right_child=4 2 6 16 7 11 12 9 26 13 29 -13 -14 -15 -16 -17 19 -19 -20 -21 -22 22 -24 24 -26 -27 27 -29 -30 -31
leaf_value=0.0286381279260969 0.028433630821936902 0.027557192818745538 0.029706083255536999 0.013468359137572383 0.02636647935117058 0.023332012555938243 0.026582204168262048 0.026802042101966597 0.023437321531802943 0.023551731715859583 0.038627359015274157 0.028953123342557629 0.024931035053922846 0.028913092820804433 0.031870153827976221 0.026990261933616366 0.028276218527925865 0.025521779332398735 0.029481900184382962 0.026789167870666594 0.023611355828747772 0.026656607665643175 0.0173552233939646 0.024949449731414278 0.027784155876656322 0.02906699156339148 0.027994364811992134 0.056373619436799458 0.02570727835042216 0.025941458545266846
leaf_weight=2366.9821662902832 13154.153828084469 6455.5091772079468 2655.6921644210815 175.53182864189148 9320.5204935073853 970.85780334472656 17127.699760437012 7095.9603386521339 2854.8704833984375 20168.337455153465 79.185394287109375 33732.839080691338 18894.721391677856 803.2834939956665 8885.0077018737793 47249.975268363953 14468.02098429203 2191.3566243946552 20058.25641399622 14987.045717090368 2012.5339198708534 5789.0228244066238 293.99574649333954 12603.206449985504 2791.9327483177185 2475.2887296676636 85.740867614746094 27.217575073242188 2106.0023065209389 4916.2215990424156
leaf_count=9865 53917 25115 10796 432 37823 3440 65742 30001 10801 85088 324 140766 79778 3268 36059 195902 51779 5970 82075 57289 8454 21810 1076 45518 7955 9937 249 51 8985 20164
internal_value=0.0271087 0.0276595 0.0270815 0.0285321 0.0257908 0.0293821 0.0265401 0.0252421 0.0270833 0.0244656 0.0285582 0.0287959 0.0257161 0.0237571 0.0311903 0.0271348 0.0273045 0.0246279 0.0290133 0.0275196 0.0260971 0.02753 0.0262071 0.0261011 0.0254635 0.0269332 0.023871 0.0348324 0.0280574 0.0261426
internal_weight=276797 195215 117437 77777.6 81582.1 45955.7 85928.1 57271.1 24311 30080.1 31509.2 34703.7 36022.4 20971.6 11252 49905.7 31822 2366.89 26513.8 29455.1 9108.49 21343.2 6083.02 27190.9 15395.1 11795.8 2967.83 112.958 15260.2 4995.41
internal_count=1110429 785496 479896 305600 324933 190130 352218 228044 96889 126811 127678 144206 145520 88356 45924 206698 115470 6402 107190 109068 38455 85788 22886 101233 53473 47760 11101 300 62902 20488
is_linear=0
shrinkage=1


end of trees

feature_importances:
obi_est=5
ofi_est_30=5
return_5=3
obi_est_5=3
return_15=2
volume_zscore_50=2
cvd_slope_10=2
microprice_est=2
hl_range=1
up_vol_ratio_10=1
cvd_cumsum_10=1
close_pos_zscore=1
body_ratio=1
microprice_vs_mid=1

parameters:
[boosting: gbdt]
[objective: binary]
[metric: binary_logloss]
[tree_learner: serial]
[device_type: gpu]
[data_sample_strategy: bagging]
[data: ]
[valid: ]
[num_iterations: 300]
[learning_rate: 0.03]
[num_leaves: 31]
[num_threads: 0]
[seed: 42]
[deterministic: 0]
[force_col_wise: 1]
[force_row_wise: 0]
[histogram_pool_size: -1]
[max_depth: 5]
[min_data_in_leaf: 50]
[min_sum_hessian_in_leaf: 0.001]
[bagging_fraction: 0.7]
[pos_bagging_fraction: 1]
[neg_bagging_fraction: 1]
[bagging_freq: 0]
[bagging_seed: 400]
[bagging_by_query: 0]
[feature_fraction: 0.8]
[feature_fraction_bynode: 1]
[feature_fraction_seed: 30056]
[extra_trees: 0]
[extra_seed: 12879]
[early_stopping_round: 0]
[early_stopping_min_delta: 0]
[first_metric_only: 0]
[max_delta_step: 0]
[lambda_l1: 0]
[lambda_l2: 0]
[linear_lambda: 0]
[min_gain_to_split: 0]
[drop_rate: 0.1]
[max_drop: 50]
[skip_drop: 0.5]
[xgboost_dart_mode: 0]
[uniform_drop: 0]
[drop_seed: 17869]
[top_rate: 0.2]
[other_rate: 0.1]
[min_data_per_group: 100]
[max_cat_threshold: 32]
[cat_l2: 10]
[cat_smooth: 10]
[max_cat_to_onehot: 4]
[top_k: 20]
[monotone_constraints: ]
[monotone_constraints_method: basic]
[monotone_penalty: 0]
[feature_contri: ]
[forcedsplits_filename: ]
[refit_decay_rate: 0.9]
[cegb_tradeoff: 1]
[cegb_penalty_split: 0]
[cegb_penalty_feature_lazy: ]
[cegb_penalty_feature_coupled: ]
[path_smooth: 0]
[interaction_constraints: ]
[verbosity: -1]
[saved_feature_importance_type: 0]
[use_quantized_grad: 0]
[num_grad_quant_bins: 4]
[quant_train_renew_leaf: 0]
[stochastic_rounding: 1]
[linear_tree: 0]
[max_bin: 255]
[max_bin_by_feature: ]
[min_data_in_bin: 3]
[bin_construct_sample_cnt: 200000]
[data_random_seed: 175]
[is_enable_sparse: 1]
[enable_bundle: 1]
[use_missing: 1]
[zero_as_missing: 0]
[feature_pre_filter: 1]
[pre_partition: 0]
[two_round: 0]
[header: 0]
[label_column: ]
[weight_column: ]
[group_column: ]
[ignore_column: ]
[categorical_feature: ]
[forcedbins_filename: ]
[precise_float_parser: 0]
[parser_config_file: ]
[objective_seed: 16083]
[num_class: 1]
[is_unbalance: 1]
[scale_pos_weight: 1]
[sigmoid: 1]
[boost_from_average: 1]
[reg_sqrt: 0]
[alpha: 0.9]
[fair_c: 1]
[poisson_max_delta_step: 0.7]
[tweedie_variance_power: 1.5]
[lambdarank_truncation_level: 30]
[lambdarank_norm: 1]
[label_gain: ]
[lambdarank_position_bias_regularization: 0]
[eval_at: ]
[multi_error_top_k: 1]
[auc_mu_weights: ]
[num_machines: 1]
[local_listen_port: 12400]
[time_out: 120]
[machine_list_filename: ]
[machines: ]
[gpu_platform_id: -1]
[gpu_device_id: -1]
[gpu_use_dp: 0]
[num_gpu: 1]

end of parameters

pandas_categorical:null
